{
    "in_shape": [
        null,
        971622,
        1
    ],
    "layers": [
        {
            "type": "conv1d",
            "activation": "tanh",
            "shape": [
                null,
                971622,
                32
            ],
            "kernel_size": [
                7
            ],
            "dilation": [
                1
            ],
            "groups": 1,
            "weights": [
                [
                    [
                        [
                            -0.050841689109802246,
                            -0.06967385858297348,
                            -0.07772165536880493,
                            0.08175036311149597,
                            0.03005308471620083,
                            -0.13144952058792114,
                            0.018243324011564255,
                            -0.05031343549489975,
                            0.041649434715509415,
                            -0.07840859144926071,
                            -0.06343212723731995,
                            0.01129226665943861,
                            -0.034544285386800766,
                            0.08331909775733948,
                            0.012315179221332073,
                            -0.107036292552948,
                            -0.073684923350811,
                            0.1219203844666481,
                            -0.08798614144325256,
                            -0.05267142876982689,
                            -0.1555013209581375,
                            -0.12054122984409332,
                            -0.05029409006237984,
                            0.03218476101756096,
                            0.019759275019168854,
                            -0.1219577044248581,
                            -0.11545324325561523,
                            0.005207000765949488,
                            -0.15270116925239563,
                            -0.09696289896965027,
                            -0.09791252762079239,
                            -0.07932855933904648
                        ]
                    ],
                    [
                        [
                            -0.09058543294668198,
                            -0.1177680641412735,
                            0.14811308681964874,
                            -0.15217439830303192,
                            0.03530179336667061,
                            -0.1251532882452011,
                            -0.04466836899518967,
                            -0.06847520172595978,
                            0.1264267861843109,
                            -0.1322765350341797,
                            0.023944290354847908,
                            -0.12251866608858109,
                            0.00766357546672225,
                            -0.0791829377412796,
                            -0.06141578033566475,
                            0.1302260309457779,
                            0.07139500975608826,
                            0.14980679750442505,
                            -0.0980290025472641,
                            -0.09570803493261337,
                            0.06224805489182472,
                            -0.10249064117670059,
                            0.1153004989027977,
                            0.028719423338770866,
                            -0.11956707388162613,
                            0.10252762585878372,
                            -0.1538679301738739,
                            0.02594914101064205,
                            0.07122854143381119,
                            0.10974287241697311,
                            0.1633884608745575,
                            -0.10226309299468994
                        ]
                    ],
                    [
                        [
                            0.05623107776045799,
                            -0.06689880043268204,
                            -0.11959358304738998,
                            0.07565119117498398,
                            -0.0563124343752861,
                            -0.009302671998739243,
                            -0.07383380085229874,
                            0.1181676983833313,
                            -0.13886171579360962,
                            -0.12925270199775696,
                            0.14589253067970276,
                            -0.13367943465709686,
                            -0.07376071065664291,
                            -0.029008889570832253,
                            0.1569361388683319,
                            0.03603126108646393,
                            -0.09232951700687408,
                            -0.04151083156466484,
                            -0.07025664299726486,
                            0.03882114216685295,
                            0.12670180201530457,
                            0.09918157756328583,
                            0.02478436753153801,
                            0.07328666001558304,
                            0.1505555957555771,
                            -0.006414665374904871,
                            -0.0651087537407875,
                            -0.10374029725790024,
                            0.10708091408014297,
                            0.11670200526714325,
                            -0.1314917355775833,
                            0.003930011764168739
                        ]
                    ],
                    [
                        [
                            -0.09485793858766556,
                            0.008935711346566677,
                            -0.011912111192941666,
                            0.160171240568161,
                            -0.09906815737485886,
                            -0.10920538753271103,
                            -0.1265438348054886,
                            -0.05104145407676697,
                            -0.05571898818016052,
                            -0.14093877375125885,
                            0.047976650297641754,
                            -0.09765373170375824,
                            0.1355787217617035,
                            0.11532409489154816,
                            -0.09745814651250839,
                            0.14593473076820374,
                            0.09076031297445297,
                            -0.019388066604733467,
                            0.10448149591684341,
                            -0.10601025819778442,
                            -0.09186951071023941,
                            -0.006128218490630388,
                            -0.11299389600753784,
                            -0.15443016588687897,
                            0.1376006156206131,
                            0.1184336394071579,
                            -0.12242545187473297,
                            -0.017409399151802063,
                            0.04140115901827812,
                            -0.00019074362353421748,
                            -0.0045649707317352295,
                            0.060141559690237045
                        ]
                    ],
                    [
                        [
                            0.0010395877761766315,
                            0.03965102136135101,
                            0.07028254866600037,
                            0.029149582609534264,
                            0.10777728259563446,
                            0.04552086442708969,
                            -0.12809889018535614,
                            0.09299502521753311,
                            -0.15514221787452698,
                            0.05299977585673332,
                            -0.09735926240682602,
                            -0.15192317962646484,
                            0.09829189628362656,
                            -0.04895428568124771,
                            0.04651211202144623,
                            0.10049079358577728,
                            0.09601099789142609,
                            -0.07826098054647446,
                            0.09369649738073349,
                            -0.11278732120990753,
                            0.06587392091751099,
                            -0.1354503631591797,
                            -0.07122834026813507,
                            -0.11997194588184357,
                            -0.07564681023359299,
                            0.1261875182390213,
                            -0.05965755879878998,
                            -0.05236431211233139,
                            -0.036768049001693726,
                            -0.09609588235616684,
                            0.13872170448303223,
                            -0.08139178156852722
                        ]
                    ],
                    [
                        [
                            0.06413150578737259,
                            -0.16450683772563934,
                            0.15465034544467926,
                            -0.11135275661945343,
                            0.0006266837008297443,
                            -0.025163808837532997,
                            -0.015563098713755608,
                            0.09812474250793457,
                            0.047353345900774,
                            0.1169278547167778,
                            0.07061951607465744,
                            0.05056120082736015,
                            0.03815079852938652,
                            -0.08945357799530029,
                            0.021998301148414612,
                            0.08096262067556381,
                            0.16757464408874512,
                            -0.16912055015563965,
                            0.039997946470975876,
                            0.026920542120933533,
                            -0.06458134949207306,
                            0.11108990758657455,
                            -0.011043994687497616,
                            0.005226061679422855,
                            0.00595599552616477,
                            0.006921948399394751,
                            0.030030472204089165,
                            -0.08617362380027771,
                            -0.055767547339200974,
                            -0.032447438687086105,
                            0.0011155807878822088,
                            -0.11065127700567245
                        ]
                    ],
                    [
                        [
                            -0.04118802025914192,
                            -0.06574587523937225,
                            0.1321050077676773,
                            0.16465233266353607,
                            -0.12920333445072174,
                            -0.11495862156152725,
                            -0.05582914501428604,
                            -0.11426591128110886,
                            -0.16112685203552246,
                            -0.009433843195438385,
                            0.16195371747016907,
                            -0.14648325741291046,
                            -0.001982024870812893,
                            0.15165561437606812,
                            -0.014673571102321148,
                            -0.16593973338603973,
                            0.1233740895986557,
                            -0.012310521677136421,
                            0.049051638692617416,
                            0.14325745403766632,
                            -0.04981837421655655,
                            -0.09010427445173264,
                            0.015254397876560688,
                            0.15985892713069916,
                            -0.0461813323199749,
                            0.12683440744876862,
                            0.04389701411128044,
                            0.1195952519774437,
                            -0.13335824012756348,
                            -0.10298778116703033,
                            0.0473303347826004,
                            -0.10665488988161087
                        ]
                    ]
                ],
                [
                    -0.0038656522519886494,
                    -0.0010736917611211538,
                    0.004107889719307423,
                    -0.01591750793159008,
                    0.004895681049674749,
                    0.004949009045958519,
                    0.011253150179982185,
                    -0.002510723890736699,
                    -0.001470151823014021,
                    0.009077752940356731,
                    -0.001234634080901742,
                    -0.004091711714863777,
                    0.006453674286603928,
                    0.0009934662375599146,
                    -0.013348560780286789,
                    -0.0044589051976799965,
                    -0.007833455689251423,
                    -0.005345841869711876,
                    0.006308227311819792,
                    -0.009619497694075108,
                    -0.009499326348304749,
                    0.0062003894709050655,
                    -0.013856716454029083,
                    -0.011888987384736538,
                    -0.006490105297416449,
                    0.0032735296990722418,
                    0.0029270320665091276,
                    0.0011295522563159466,
                    -0.0032890737056732178,
                    0.0051079802215099335,
                    -0.012220385484397411,
                    0.0017333899158984423
                ]
            ]
        },
        {
            "type": "conv1d",
            "activation": "tanh",
            "shape": [
                null,
                971622,
                32
            ],
            "kernel_size": [
                9
            ],
            "dilation": [
                1
            ],
            "groups": 1,
            "weights": [
                [
                    [
                        [
                            -0.017894258722662926,
                            0.018098704516887665,
                            -0.029822267591953278,
                            -0.013582582585513592,
                            -0.0882401093840599,
                            -0.0922175794839859,
                            -0.02304740995168686,
                            0.10556107759475708,
                            -0.04904991015791893,
                            -0.08333484083414078,
                            0.09922928363084793,
                            0.0659281462430954,
                            0.03696868196129799,
                            -0.09223904460668564,
                            0.056805409491062164,
                            0.03409372270107269,
                            0.0358719676733017,
                            -0.08750668168067932,
                            0.07162652164697647,
                            0.031099271029233932,
                            -0.007562304846942425,
                            -0.09857293218374252,
                            -0.07260923832654953,
                            -0.10038761049509048,
                            -0.030267268419265747,
                            -0.004709188360720873,
                            0.04043322801589966,
                            0.01499666552990675,
                            0.009934701956808567,
                            -0.012412709183990955,
                            0.04634419456124306,
                            -0.07109111547470093
                        ],
                        [
                            -0.04739950969815254,
                            -0.06116257980465889,
                            0.09626346826553345,
                            -0.025320162996649742,
                            -0.08400566130876541,
                            0.05524630472064018,
                            -0.014731877483427525,
                            -0.018833354115486145,
                            -0.034197986125946045,
                            0.05449036881327629,
                            -0.028508136048913002,
                            0.03857893496751785,
                            0.042501300573349,
                            -0.0421292744576931,
                            -0.014092471450567245,
                            0.028863467276096344,
                            0.06720283627510071,
                            -0.09565079212188721,
                            -0.0945424735546112,
                            0.047419290989637375,
                            -0.07685387134552002,
                            -0.10638899356126785,
                            -0.05593656748533249,
                            -0.055159926414489746,
                            -0.04068278148770332,
                            0.03291429579257965,
                            -0.08940622955560684,
                            -0.09542391449213028,
                            0.06846167892217636,
                            0.07785562425851822,
                            -0.059802547097206116,
                            0.01793002337217331
                        ],
                        [
                            -0.08674585819244385,
                            0.011223416775465012,
                            0.017448637634515762,
                            -0.05967184901237488,
                            0.028444189578294754,
                            -0.03080865368247032,
                            0.06374050676822662,
                            -0.09753759950399399,
                            0.09407217055559158,
                            0.02669477090239525,
                            -0.05817505717277527,
                            -0.026661165058612823,
                            0.07170456647872925,
                            -0.0848848894238472,
                            0.07846227288246155,
                            -0.03504745662212372,
                            -0.07769156992435455,
                            -0.08240582793951035,
                            0.07163981348276138,
                            0.10016357898712158,
                            0.06061648577451706,
                            -0.026788590475916862,
                            -0.04946183040738106,
                            0.0427575446665287,
                            0.058458905667066574,
                            -0.05514010414481163,
                            0.06979398429393768,
                            -0.03042544797062874,
                            -0.08115572482347488,
                            0.06491228193044662,
                            -0.02750798501074314,
                            0.007266881875693798
                        ],
                        [
                            -0.03310202807188034,
                            0.01815391518175602,
                            0.05847025290131569,
                            0.060585424304008484,
                            0.05134810134768486,
                            -0.04961046949028969,
                            -0.024692393839359283,
                            -0.04593482241034508,
                            -0.05072072148323059,
                            -0.07669360935688019,
                            -0.07331649214029312,
                            -0.007936599664390087,
                            -0.03066132217645645,
                            -0.04616639390587807,
                            -0.04100498557090759,
                            0.053554121404886246,
                            -0.042766280472278595,
                            -0.050884366035461426,
                            -0.041235823184251785,
                            0.08389075100421906,
                            0.04410003870725632,
                            -0.07846590876579285,
                            -0.10436386615037918,
                            0.08629961311817169,
                            0.09441288560628891,
                            0.06241967901587486,
                            0.020400233566761017,
                            0.06307145208120346,
                            -0.05177019163966179,
                            -0.009397409856319427,
                            0.10922832787036896,
                            0.08227086812257767
                        ],
                        [
                            0.08974777907133102,
                            0.07694122195243835,
                            0.092902272939682,
                            -0.08379914611577988,
                            -0.05269841104745865,
                            -0.017457686364650726,
                            0.10311026871204376,
                            0.09330789744853973,
                            -0.042492277920246124,
                            0.07268475741147995,
                            0.08427445590496063,
                            -0.028784064576029778,
                            -0.03301408141851425,
                            0.05285041034221649,
                            0.09703506529331207,
                            -0.01870536245405674,
                            0.01496981829404831,
                            0.04892949387431145,
                            -0.01318050455302,
                            0.047130435705184937,
                            -0.042557746171951294,
                            -0.06872371584177017,
                            -0.015059477649629116,
                            0.02549273706972599,
                            -0.03241993486881256,
                            0.02322632633149624,
                            -0.005336411762982607,
                            0.10087303817272186,
                            -0.019356880336999893,
                            0.03339777886867523,
                            -0.02152724750339985,
                            -0.012304279953241348
                        ],
                        [
                            -0.09306355565786362,
                            0.003570717526599765,
                            -0.09058482944965363,
                            0.09353891015052795,
                            -0.022589443251490593,
                            0.039985716342926025,
                            -0.017420336604118347,
                            0.09986788034439087,
                            0.005145360715687275,
                            -0.046309757977724075,
                            -0.09443800151348114,
                            -0.034108541905879974,
                            -0.020694999024271965,
                            0.10681890696287155,
                            0.0710301399230957,
                            -0.00400029169395566,
                            -0.029607266187667847,
                            0.07302910089492798,
                            0.07161878794431686,
                            0.05741104483604431,
                            -0.021465953439474106,
                            0.06519963592290878,
                            -0.0975966677069664,
                            -0.08078327029943466,
                            -0.01620562933385372,
                            -0.013955256901681423,
                            0.03786845877766609,
                            0.0680626928806305,
                            0.09513962268829346,
                            -0.06688899546861649,
                            0.07628355175256729,
                            -0.05344367399811745
                        ],
                        [
                            -0.09866920113563538,
                            -0.003372723003849387,
                            -0.08643724024295807,
                            0.0322321392595768,
                            -0.04708116129040718,
                            -0.03764353692531586,
                            -0.08842691034078598,
                            -0.04413009062409401,
                            -0.04435739293694496,
                            0.06262727826833725,
                            0.06362544745206833,
                            0.07991764694452286,
                            0.06051581725478172,
                            0.10489475727081299,
                            -0.0006111655384302139,
                            0.05955539643764496,
                            0.0686105266213417,
                            -0.026305705308914185,
                            0.07892640680074692,
                            0.04137271270155907,
                            -0.03506091237068176,
                            -0.015318247489631176,
                            0.007372473832219839,
                            -0.04753231257200241,
                            0.09234175086021423,
                            0.014377002604305744,
                            -0.061593759804964066,
                            0.09866121411323547,
                            -0.05634192004799843,
                            -0.0738724023103714,
                            0.09134017676115036,
                            -0.029979167506098747
                        ],
                        [
                            0.06081334501504898,
                            0.059072673320770264,
                            0.04782572761178017,
                            0.08306216448545456,
                            -0.05572746321558952,
                            0.08462359011173248,
                            0.010749953798949718,
                            0.034903205931186676,
                            -0.13033796846866608,
                            0.08908906579017639,
                            -0.06807925552129745,
                            0.02039468288421631,
                            0.07873500138521194,
                            -0.02733556553721428,
                            -0.10110296308994293,
                            -0.09349853545427322,
                            0.04646988585591316,
                            -0.05083492025732994,
                            0.08442030102014542,
                            -0.0028999156784266233,
                            -0.019509997218847275,
                            0.008014818653464317,
                            -0.11492545902729034,
                            -0.008991335518658161,
                            -0.040669314563274384,
                            0.04130961373448372,
                            -0.015160883776843548,
                            -0.08918306976556778,
                            -0.06679044663906097,
                            0.05053200572729111,
                            -0.09890754520893097,
                            -0.09260263293981552
                        ],
                        [
                            0.061694346368312836,
                            -0.02021988295018673,
                            -0.0115809366106987,
                            0.07902916520833969,
                            -0.06100505590438843,
                            0.1032831221818924,
                            0.09206359833478928,
                            0.06619643419981003,
                            0.09050700068473816,
                            0.002331643830984831,
                            0.009885694831609726,
                            0.035428471863269806,
                            -0.03521478921175003,
                            -0.02902347594499588,
                            0.039772387593984604,
                            -0.04206058010458946,
                            -0.028583534061908722,
                            0.01451526116579771,
                            -0.024064715951681137,
                            0.02141387388110161,
                            -0.012078294530510902,
                            0.029778752475976944,
                            -0.07154180109500885,
                            -0.011301044374704361,
                            -0.05273105949163437,
                            -0.02599809505045414,
                            -0.1147548109292984,
                            -0.03199585899710655,
                            -0.04008124768733978,
                            0.027741994708776474,
                            -0.07557927817106247,
                            0.03356830030679703
                        ],
                        [
                            0.06565150618553162,
                            -0.03752638399600983,
                            0.04878722131252289,
                            0.07399921864271164,
                            -0.09587908536195755,
                            -0.02832486294209957,
                            0.060433004051446915,
                            -0.060912154614925385,
                            -0.04911426827311516,
                            0.08384029567241669,
                            -0.003284698585048318,
                            -0.0693226307630539,
                            -0.013933253474533558,
                            0.031174181029200554,
                            0.06376960128545761,
                            -0.08365786820650101,
                            -0.048520468175411224,
                            0.032689500600099564,
                            0.08877144753932953,
                            0.0594012513756752,
                            -0.06170792877674103,
                            -0.06999017298221588,
                            0.04890592396259308,
                            -0.05084213986992836,
                            0.06248708441853523,
                            0.011307954788208008,
                            0.05132518336176872,
                            0.011623850092291832,
                            0.0285313930362463,
                            0.06889335066080093,
                            0.09510668367147446,
                            -0.005701554473489523
                        ],
                        [
                            0.06484261900186539,
                            0.049799442291259766,
                            -0.0683816522359848,
                            -0.0653199851512909,
                            -0.03372332081198692,
                            0.09287987649440765,
                            -0.07168735563755035,
                            -0.05164477229118347,
                            -0.0593658946454525,
                            -0.09083384275436401,
                            -0.06231842190027237,
                            -0.08031195402145386,
                            -0.019917383790016174,
                            -0.059175506234169006,
                            -0.049233101308345795,
                            0.050676409155130386,
                            0.057482536882162094,
                            0.059657204896211624,
                            0.033748432993888855,
                            0.045064959675073624,
                            0.0931786298751831,
                            -0.031198350712656975,
                            0.09762253612279892,
                            -0.04645070433616638,
                            0.0076104868203401566,
                            0.035640791058540344,
                            0.06544594466686249,
                            -0.04794678837060928,
                            -0.02075512520968914,
                            -0.002941773273050785,
                            -0.01918623596429825,
                            0.0024029752239584923
                        ],
                        [
                            -0.022540392354130745,
                            -0.018011847510933876,
                            0.0046743061393499374,
                            0.035306673496961594,
                            0.011821788735687733,
                            0.004550537560135126,
                            0.03784678131341934,
                            0.0592300146818161,
                            -0.11024034023284912,
                            0.08968660235404968,
                            0.07648357003927231,
                            0.06613459438085556,
                            -0.07569732517004013,
                            -0.0481283962726593,
                            -0.019421758130192757,
                            -0.0899379551410675,
                            0.07195314764976501,
                            0.08296337723731995,
                            -0.07049185782670975,
                            0.0334271676838398,
                            0.006339790765196085,
                            -0.052420202642679214,
                            0.0034334135707467794,
                            -0.08157605677843094,
                            0.029141146689653397,
                            0.05236083269119263,
                            -0.05912606418132782,
                            -0.09642881155014038,
                            -0.04123138636350632,
                            -0.020449738949537277,
                            -0.04219742864370346,
                            -0.0986255407333374
                        ],
                        [
                            -0.033641114830970764,
                            -0.03940526768565178,
                            0.07506632804870605,
                            -0.04790593311190605,
                            -0.03921843320131302,
                            0.047742974013090134,
                            0.08977485448122025,
                            -0.052504267543554306,
                            -0.02654786966741085,
                            -0.0697292760014534,
                            0.035751793533563614,
                            0.02089710161089897,
                            0.06460194289684296,
                            0.02981194294989109,
                            -0.03954369202256203,
                            -0.07718252390623093,
                            -0.09993027150630951,
                            -0.04513132572174072,
                            -0.09632665663957596,
                            -0.06290090829133987,
                            0.06340237706899643,
                            -0.06410042196512222,
                            -0.013127206824719906,
                            -0.09351824223995209,
                            0.058659184724092484,
                            -0.032726965844631195,
                            -0.004006319213658571,
                            -0.001921092625707388,
                            0.07936843484640121,
                            0.0842665582895279,
                            0.05130305141210556,
                            0.0905478298664093
                        ],
                        [
                            0.06349567323923111,
                            -0.033139944076538086,
                            0.05441492423415184,
                            -0.11193578690290451,
                            -0.0469358004629612,
                            0.07734610885381699,
                            -0.10072560608386993,
                            -0.04124400392174721,
                            0.0802290141582489,
                            0.04778805002570152,
                            -0.035439543426036835,
                            0.008506079204380512,
                            0.042982686311006546,
                            -0.03992238640785217,
                            0.06393567472696304,
                            -0.01599166728556156,
                            0.009725979529321194,
                            -0.04592502862215042,
                            -0.012528391554951668,
                            0.03392115607857704,
                            0.058358196169137955,
                            0.052573271095752716,
                            0.07863055169582367,
                            0.028161808848381042,
                            -0.058017291128635406,
                            -0.07888585329055786,
                            0.020667685195803642,
                            -0.07625198364257812,
                            0.06426844000816345,
                            -0.1223558858036995,
                            0.06992176175117493,
                            -0.07390543818473816
                        ],
                        [
                            -0.07910159230232239,
                            0.035015203058719635,
                            -0.009659415110945702,
                            -0.08459274470806122,
                            0.005294854287058115,
                            0.08215626329183578,
                            0.09095274657011032,
                            -0.0830916315317154,
                            -0.09130517393350601,
                            -0.03983987495303154,
                            -0.02936902642250061,
                            -0.023836221545934677,
                            0.06988049298524857,
                            -0.08014660328626633,
                            -0.0125548355281353,
                            -0.06060757488012314,
                            -0.09157676994800568,
                            -0.04318386688828468,
                            0.020440103486180305,
                            -0.06249033287167549,
                            -0.10176253318786621,
                            -0.08761627972126007,
                            -0.1010441780090332,
                            0.09371580928564072,
                            -0.005648058373481035,
                            0.0021975478157401085,
                            0.02695954032242298,
                            -0.026471851393580437,
                            -0.014229767955839634,
                            -0.05560392141342163,
                            -0.0035092656034976244,
                            -0.05446195229887962
                        ],
                        [
                            -0.003536348231136799,
                            0.05518113821744919,
                            0.0008996351389214396,
                            -0.01040721032768488,
                            -0.06271669268608093,
                            -0.02519647777080536,
                            0.0867564007639885,
                            -0.04798199608922005,
                            0.07586358487606049,
                            -0.08226145058870316,
                            -0.025818239897489548,
                            -0.08537700772285461,
                            0.08005615323781967,
                            0.03948263078927994,
                            0.057798996567726135,
                            -0.09874460846185684,
                            -0.02777971141040325,
                            -0.058894477784633636,
                            0.07133237272500992,
                            -0.0827653557062149,
                            0.06150229647755623,
                            -0.07674048840999603,
                            -0.014150364324450493,
                            0.016143888235092163,
                            0.0923176184296608,
                            0.0833285003900528,
                            0.11087954789400101,
                            0.047058649361133575,
                            0.03936028480529785,
                            -0.02613881602883339,
                            0.0631130188703537,
                            -0.06608210504055023
                        ],
                        [
                            0.01150220725685358,
                            -0.08434989303350449,
                            -0.07019566744565964,
                            0.09571392089128494,
                            0.05972837284207344,
                            -0.0029166333843022585,
                            -0.08700932562351227,
                            0.053277287632226944,
                            -0.05720346421003342,
                            0.0875258818268776,
                            -0.08994375169277191,
                            -0.05550006031990051,
                            -0.09801369905471802,
                            0.0796174556016922,
                            -0.08643839508295059,
                            -0.05315187945961952,
                            -0.026523234322667122,
                            0.0018775194184854627,
                            0.0024673431180417538,
                            0.0556735135614872,
                            0.06214297562837601,
                            -0.009857656434178352,
                            0.046205952763557434,
                            -0.013374735601246357,
                            -0.04464699327945709,
                            -0.07219254970550537,
                            0.07734926044940948,
                            0.02829029969871044,
                            0.016963347792625427,
                            0.020125051960349083,
                            0.07047916203737259,
                            0.00889922771602869
                        ],
                        [
                            0.04205717891454697,
                            0.0449259877204895,
                            0.016156790778040886,
                            0.008522207848727703,
                            -0.09741432964801788,
                            0.02610081247985363,
                            -0.05118773132562637,
                            -0.07958578318357468,
                            -0.05742674693465233,
                            -0.07914770394563675,
                            0.021837124601006508,
                            -0.04776341840624809,
                            0.0590127557516098,
                            0.017857994884252548,
                            0.06946425139904022,
                            0.0729084238409996,
                            0.003471326781436801,
                            -0.0021774000488221645,
                            0.0029998840764164925,
                            -0.05737098678946495,
                            -0.07711554318666458,
                            -0.07534831017255783,
                            0.12798546254634857,
                            0.0018332886975258589,
                            -0.05528059974312782,
                            0.03316495940089226,
                            0.06242342293262482,
                            -0.031760815531015396,
                            0.08010219037532806,
                            -0.0005618853028863668,
                            -0.03451431915163994,
                            -0.025075053796172142
                        ],
                        [
                            -0.05987952649593353,
                            -0.09978261590003967,
                            -0.09250647574663162,
                            0.05204751342535019,
                            0.08120022714138031,
                            -0.01998108997941017,
                            -0.052827414125204086,
                            0.08450952172279358,
                            0.07498815655708313,
                            0.032464344054460526,
                            -0.05819294601678848,
                            0.04010354354977608,
                            -0.013647448271512985,
                            0.0817447379231453,
                            0.07288766652345657,
                            0.0897187739610672,
                            0.003914373926818371,
                            -0.02822953648865223,
                            -0.0929480791091919,
                            0.0923207551240921,
                            0.08920462429523468,
                            0.04838507995009422,
                            0.025643398985266685,
                            0.04584556445479393,
                            -0.08264093101024628,
                            -0.021427219733595848,
                            0.00209311512298882,
                            0.03411865234375,
                            -0.031054865568876266,
                            0.02823449857532978,
                            -0.09171117097139359,
                            0.015790805220603943
                        ],
                        [
                            -0.007380952127277851,
                            0.031062539666891098,
                            0.023670963943004608,
                            -0.06844275444746017,
                            -0.06889576464891434,
                            0.0027285870164632797,
                            -0.05160735547542572,
                            0.07504958659410477,
                            -0.0541234016418457,
                            -0.07474122196435928,
                            0.055832091718912125,
                            -0.033942658454179764,
                            0.024445518851280212,
                            0.006527480203658342,
                            -0.08062075078487396,
                            0.018480975180864334,
                            -0.06336825340986252,
                            0.009733562357723713,
                            -0.08831240236759186,
                            0.05870521441102028,
                            0.0038280594162642956,
                            0.07210004329681396,
                            -0.09524974226951599,
                            0.09295547753572464,
                            0.07967720180749893,
                            -0.03167184069752693,
                            -0.030741499736905098,
                            0.07426801323890686,
                            -0.09215550869703293,
                            -0.007728624157607555,
                            0.010649267584085464,
                            0.03138314187526703
                        ],
                        [
                            0.011806407012045383,
                            -0.014636234380304813,
                            0.04634208232164383,
                            -0.07043551653623581,
                            0.004365276545286179,
                            -0.058050330728292465,
                            -0.012243426404893398,
                            -0.07071337103843689,
                            -0.10780373215675354,
                            -0.060368310660123825,
                            0.010765264742076397,
                            -0.08498162776231766,
                            0.07327071577310562,
                            -0.01876142993569374,
                            -0.0022112117148935795,
                            0.009292122907936573,
                            0.042397819459438324,
                            -0.0734219178557396,
                            -0.06646816432476044,
                            -0.052059024572372437,
                            0.01636810600757599,
                            -0.11391424387693405,
                            -0.035291727632284164,
                            0.03485335037112236,
                            0.023422595113515854,
                            -0.0066873617470264435,
                            0.03687817603349686,
                            -0.008379997685551643,
                            0.0037859943695366383,
                            0.053274527192115784,
                            0.006752697750926018,
                            0.0038216463290154934
                        ],
                        [
                            -0.023050330579280853,
                            0.05044562369585037,
                            -0.056503333151340485,
                            -0.0991552323102951,
                            -0.07147461175918579,
                            0.09860033541917801,
                            0.033044494688510895,
                            -0.024122094735503197,
                            0.05472412332892418,
                            0.07298002392053604,
                            -0.03510333225131035,
                            0.05650332197546959,
                            0.033704113215208054,
                            -0.07157126069068909,
                            0.04639998450875282,
                            0.020825158804655075,
                            -0.07080075144767761,
                            -0.011049492284655571,
                            0.021690597757697105,
                            0.07405738532543182,
                            0.06882019340991974,
                            0.01877482980489731,
                            -0.07716111838817596,
                            -0.028837813064455986,
                            -0.03619954735040665,
                            0.06250524520874023,
                            -0.0428471602499485,
                            0.08437193930149078,
                            -0.0381736122071743,
                            0.06486506015062332,
                            0.08719372004270554,
                            0.08808385580778122
                        ],
                        [
                            0.09022824466228485,
                            0.07288316637277603,
                            0.06583155691623688,
                            0.07435346394777298,
                            -0.062014248222112656,
                            -0.08542172610759735,
                            0.00610032444819808,
                            0.09195826202630997,
                            -0.06978908181190491,
                            0.06153981015086174,
                            -0.004501391667872667,
                            0.06564601510763168,
                            0.05661469325423241,
                            0.043432675302028656,
                            -0.07640989869832993,
                            0.08611167222261429,
                            0.03708122670650482,
                            0.04059137776494026,
                            -0.04572898522019386,
                            -0.09753917157649994,
                            -0.02316274493932724,
                            0.03407740965485573,
                            -0.05860455334186554,
                            -0.013142097741365433,
                            -0.003700920147821307,
                            -0.10000079870223999,
                            -0.06667421013116837,
                            0.006837855093181133,
                            -0.07544619590044022,
                            0.03359024226665497,
                            0.0706515684723854,
                            0.06716076284646988
                        ],
                        [
                            0.019257210195064545,
                            0.009229221381247044,
                            0.016003862023353577,
                            -0.010992588475346565,
                            -0.030938657000660896,
                            0.0678439736366272,
                            -0.009895225055515766,
                            -0.0664050430059433,
                            -0.07575370371341705,
                            -0.07291299849748611,
                            0.05409146100282669,
                            -0.006672236602753401,
                            -0.07687006890773773,
                            -0.1031922921538353,
                            0.014918385073542595,
                            0.02630789950489998,
                            -0.10273556411266327,
                            0.03182145953178406,
                            -0.048201460391283035,
                            -0.08229237049818039,
                            -0.08401554822921753,
                            0.0761130079627037,
                            -0.07862793654203415,
                            -0.06334587931632996,
                            0.003628471866250038,
                            0.08356962352991104,
                            0.0857967659831047,
                            -0.03287659212946892,
                            0.027783667668700218,
                            0.020097333937883377,
                            -0.05355643108487129,
                            0.052899982780218124
                        ],
                        [
                            -0.013485419563949108,
                            -0.08049993962049484,
                            0.07912342250347137,
                            0.07043712586164474,
                            0.012759264558553696,
                            0.014219983480870724,
                            -0.0012662146473303437,
                            -0.052515413612127304,
                            -0.052253320813179016,
                            -0.040801163762807846,
                            -0.07234559208154678,
                            -0.039973486214876175,
                            -0.06829511374235153,
                            -0.08439237624406815,
                            0.07073727995157242,
                            0.0806463435292244,
                            0.0632949247956276,
                            -0.09641768783330917,
                            0.055598486214876175,
                            0.017598405480384827,
                            -0.09640359878540039,
                            0.08223521709442139,
                            -0.06030913069844246,
                            0.03268498182296753,
                            0.0019802565220743418,
                            -0.023223061114549637,
                            0.022681808099150658,
                            -0.06125277653336525,
                            -0.025250433012843132,
                            0.0033814169000834227,
                            -0.051869168877601624,
                            -0.02314811572432518
                        ],
                        [
                            -0.024302450940012932,
                            0.08934680372476578,
                            -0.015984315425157547,
                            -0.04470963776111603,
                            -0.03985387831926346,
                            -0.0952901616692543,
                            -0.08822984993457794,
                            0.03141665831208229,
                            0.06324039399623871,
                            -0.09617879241704941,
                            0.06283468753099442,
                            -0.007209904957562685,
                            -0.032224927097558975,
                            -0.04849454015493393,
                            0.022716935724020004,
                            0.10040121525526047,
                            0.06298128515481949,
                            -0.046989548951387405,
                            0.09567148238420486,
                            0.03189535439014435,
                            0.06634160131216049,
                            0.051929324865341187,
                            -0.00843435525894165,
                            0.04258964583277702,
                            0.06538999080657959,
                            0.11343210190534592,
                            -0.01714332029223442,
                            -0.027902593836188316,
                            -0.030735580250620842,
                            0.06417316198348999,
                            -0.08558091521263123,
                            0.0027440956328064203
                        ],
                        [
                            0.017344748601317406,
                            -0.012003921903669834,
                            -0.00566274905577302,
                            0.06863460689783096,
                            0.051277052611112595,
                            -0.003717118175700307,
                            -0.02393277920782566,
                            0.008164320141077042,
                            0.0457984134554863,
                            0.04975774511694908,
                            0.037628185003995895,
                            0.06098641827702522,
                            -0.030184220522642136,
                            0.10630197077989578,
                            -0.013539194129407406,
                            0.0640990138053894,
                            -0.038640864193439484,
                            0.08061927556991577,
                            0.03336268663406372,
                            -0.08573763072490692,
                            0.07827018201351166,
                            0.05155393108725548,
                            -0.09242457896471024,
                            0.09205510467290878,
                            -0.08419834077358246,
                            -0.05358201265335083,
                            0.04199028015136719,
                            -0.073628269135952,
                            -0.02881804294884205,
                            0.043958306312561035,
                            0.08525591343641281,
                            0.05622442811727524
                        ],
                        [
                            0.004581226967275143,
                            0.036754339933395386,
                            -0.08728452026844025,
                            -0.023068416863679886,
                            -0.022924229502677917,
                            0.022750210016965866,
                            0.054490119218826294,
                            -0.09575298428535461,
                            -0.04546161741018295,
                            -0.016034267842769623,
                            0.07121038436889648,
                            0.032301973551511765,
                            -0.030159108340740204,
                            0.06197269260883331,
                            0.04701736941933632,
                            0.008013799786567688,
                            0.04335319623351097,
                            0.07237111032009125,
                            -0.02417953684926033,
                            -0.10400760173797607,
                            0.0751940980553627,
                            -0.08455155789852142,
                            0.030367640778422356,
                            0.047933146357536316,
                            -0.05958274379372597,
                            -0.004464173689484596,
                            -0.04024452716112137,
                            0.0014597451081499457,
                            -0.057798244059085846,
                            0.06522861868143082,
                            -0.06332282721996307,
                            -0.01993086189031601
                        ],
                        [
                            0.10323624312877655,
                            0.033858705312013626,
                            -0.05560996010899544,
                            0.0973140150308609,
                            -0.08676205575466156,
                            -0.016507163643836975,
                            -0.06758042424917221,
                            0.05697481334209442,
                            -0.005668917205184698,
                            0.03966381773352623,
                            -0.09771807491779327,
                            -0.08931580185890198,
                            0.08190987259149551,
                            -0.0814327672123909,
                            -0.007656955160200596,
                            0.05062089115381241,
                            0.01562970131635666,
                            0.08229362964630127,
                            -0.09516353160142899,
                            0.09317366778850555,
                            0.06762788444757462,
                            -0.08898921310901642,
                            0.0641842782497406,
                            -0.003871762426570058,
                            -0.09717360138893127,
                            0.0061988807283341885,
                            0.03506748378276825,
                            0.03318960219621658,
                            0.0641947016119957,
                            0.017227664589881897,
                            0.04196426644921303,
                            0.024044495075941086
                        ],
                        [
                            -0.05880381911993027,
                            -0.08995898067951202,
                            -0.08406437933444977,
                            0.018479010090231895,
                            0.06341949105262756,
                            -0.023670006543397903,
                            -0.026709334924817085,
                            0.004027560353279114,
                            0.02831527218222618,
                            0.10971341282129288,
                            -0.06543099880218506,
                            0.012303010560572147,
                            -0.06838364154100418,
                            -0.05988030508160591,
                            -0.06092807278037071,
                            -0.025331104174256325,
                            -0.04703742265701294,
                            0.008812839165329933,
                            0.0738198533654213,
                            -0.05718275159597397,
                            -0.08171973377466202,
                            -0.007542268373072147,
                            -0.017298158258199692,
                            0.0742373988032341,
                            -0.06396999210119247,
                            0.03542628139257431,
                            -0.05430194362998009,
                            -0.0580420196056366,
                            -0.10633160918951035,
                            0.10655413568019867,
                            0.004085608758032322,
                            -0.017601240426301956
                        ],
                        [
                            -0.052613817155361176,
                            -0.07110078632831573,
                            -0.07070480287075043,
                            0.06948236376047134,
                            0.07492252439260483,
                            -0.07926855981349945,
                            -0.04587916284799576,
                            -0.016960082575678825,
                            0.020766055211424828,
                            0.0714317262172699,
                            0.016896259039640427,
                            -0.005816278513520956,
                            0.020689543336629868,
                            0.08288838714361191,
                            -0.0009586109663359821,
                            0.09059412032365799,
                            0.08499684929847717,
                            -0.09161827713251114,
                            -0.09065698832273483,
                            -0.09435581415891647,
                            -0.0365939624607563,
                            -0.007467744406312704,
                            -0.05872702598571777,
                            -0.06269512325525284,
                            0.05829208716750145,
                            0.11299005150794983,
                            0.03234788402915001,
                            -0.04595189169049263,
                            -0.02376982383430004,
                            0.015075046569108963,
                            0.05403556302189827,
                            -0.04669427126646042
                        ],
                        [
                            -0.05889866501092911,
                            -0.09328015148639679,
                            0.08874835073947906,
                            0.0409054197371006,
                            -0.0770021453499794,
                            -0.07553838938474655,
                            0.10060399770736694,
                            0.10014044493436813,
                            0.00728626549243927,
                            0.07436522096395493,
                            -0.06242206320166588,
                            0.0034369046334177256,
                            -0.0745764970779419,
                            0.07363050431013107,
                            0.09490436315536499,
                            -0.0013541028602048755,
                            0.05816526710987091,
                            -0.0757269412279129,
                            0.004948054905980825,
                            0.005717630963772535,
                            -0.09358009696006775,
                            0.01165470015257597,
                            -0.02524755336344242,
                            -0.09594503790140152,
                            0.022401705384254456,
                            0.08188354969024658,
                            0.07836421579122543,
                            -0.0515819676220417,
                            0.06252244114875793,
                            -0.009066332131624222,
                            0.010228963568806648,
                            -0.09869182109832764
                        ]
                    ],
                    [
                        [
                            -0.01974634826183319,
                            0.06586640328168869,
                            -0.056948769837617874,
                            0.010110309347510338,
                            0.06624205410480499,
                            -0.0884457379579544,
                            -0.012577465735375881,
                            -0.04726174473762512,
                            -0.05097760632634163,
                            -0.05918474495410919,
                            -0.0067102364264428616,
                            0.02006055787205696,
                            0.018959324806928635,
                            0.07637381553649902,
                            0.001448475057259202,
                            -0.05782931670546532,
                            -0.07737698405981064,
                            0.09080249816179276,
                            0.08835333585739136,
                            0.09585457295179367,
                            -0.001106568262912333,
                            -0.055054858326911926,
                            0.07410074025392532,
                            -0.07877752184867859,
                            0.007895777933299541,
                            0.08411649614572525,
                            -0.08629428595304489,
                            0.055635325610637665,
                            -0.005963974632322788,
                            -0.07707849144935608,
                            0.0018624069634824991,
                            0.0340576097369194
                        ],
                        [
                            0.021884378045797348,
                            0.008304144255816936,
                            0.03105008788406849,
                            0.08338560163974762,
                            0.0625496506690979,
                            -0.08163613080978394,
                            -0.024520987644791603,
                            0.011192276142537594,
                            -0.036569368094205856,
                            0.07721946388483047,
                            -0.0011071332264691591,
                            0.06654834002256393,
                            0.04377800598740578,
                            -0.023285558447241783,
                            -0.036383338272571564,
                            0.07094781845808029,
                            -0.07609143853187561,
                            0.057187244296073914,
                            -0.007094605825841427,
                            0.01485480833798647,
                            0.07387753576040268,
                            -0.06181184947490692,
                            0.04385477304458618,
                            -0.030707089230418205,
                            0.03073246218264103,
                            -0.03715673089027405,
                            0.024774402379989624,
                            0.041368454694747925,
                            -0.0660993754863739,
                            0.10458226501941681,
                            0.004716716706752777,
                            0.01333251316100359
                        ],
                        [
                            0.0018081116722896695,
                            0.07630133628845215,
                            -0.03187668323516846,
                            -0.040150418877601624,
                            -0.08870717883110046,
                            -0.026406360790133476,
                            -0.01380842737853527,
                            0.017540086060762405,
                            -0.09138962626457214,
                            -0.011290953494608402,
                            -0.08827125281095505,
                            -0.05646514892578125,
                            0.08744873851537704,
                            0.022826669737696648,
                            0.03600360453128815,
                            0.018261974677443504,
                            -0.029919851571321487,
                            -0.01191863976418972,
                            0.024438882246613503,
                            -0.023581307381391525,
                            0.06879079341888428,
                            0.01827080175280571,
                            -0.08515933901071548,
                            -0.090538889169693,
                            0.004040257073938847,
                            -0.00711821997538209,
                            0.06976491212844849,
                            0.07709387689828873,
                            0.07865424454212189,
                            0.07173986732959747,
                            0.10790848731994629,
                            0.020485002547502518
                        ],
                        [
                            -0.04560403898358345,
                            0.04182358831167221,
                            -0.025777921080589294,
                            0.07822030037641525,
                            -0.08308480679988861,
                            0.08497143536806107,
                            0.001225348562002182,
                            0.07513833045959473,
                            0.004848563577979803,
                            -0.0665624663233757,
                            -0.05300596356391907,
                            0.0639333724975586,
                            -0.03841131180524826,
                            0.08143692463636398,
                            -0.021965235471725464,
                            0.07089471817016602,
                            0.013215352781116962,
                            0.047049302607774734,
                            -0.08525236696004868,
                            0.011574048548936844,
                            0.006977539509534836,
                            -0.019833169877529144,
                            -0.07778224349021912,
                            -0.04337367042899132,
                            -0.08029645681381226,
                            0.11728791147470474,
                            -0.030679015442728996,
                            -0.03712386265397072,
                            0.018314408138394356,
                            -0.0632605254650116,
                            -0.05110199749469757,
                            -0.08792556077241898
                        ],
                        [
                            0.021769268438220024,
                            0.04414001852273941,
                            0.06096462160348892,
                            -0.024601662531495094,
                            0.029359010979533195,
                            -0.0847427174448967,
                            -0.04369104281067848,
                            -0.08913888782262802,
                            -0.09459862112998962,
                            -0.07033693790435791,
                            -0.05888707935810089,
                            0.09013933688402176,
                            -0.08461816608905792,
                            -0.08145270496606827,
                            -0.009782741777598858,
                            -0.05685574188828468,
                            0.00769698154181242,
                            0.06845846772193909,
                            0.011066337116062641,
                            0.06166009232401848,
                            0.09780542552471161,
                            0.03547956049442291,
                            -0.061796121299266815,
                            -0.00839992705732584,
                            0.031163465231657028,
                            -0.017000846564769745,
                            -0.07952103763818741,
                            0.052147168666124344,
                            -0.07679513841867447,
                            0.10671142488718033,
                            -0.10575445741415024,
                            -0.03819925710558891
                        ],
                        [
                            -0.07037260383367538,
                            0.026819337159395218,
                            0.02567766048014164,
                            0.09136009961366653,
                            0.04012447968125343,
                            -0.0824156180024147,
                            0.08988258987665176,
                            -0.027542442083358765,
                            -0.009544921107590199,
                            0.016530189663171768,
                            0.0003186592657584697,
                            0.060776516795158386,
                            -0.016160421073436737,
                            -0.005766295362263918,
                            0.09748715162277222,
                            -0.022714564576745033,
                            0.07022995501756668,
                            0.03878504037857056,
                            -0.0788455456495285,
                            0.05000738427042961,
                            0.075627900660038,
                            -0.07933753728866577,
                            -0.06473264843225479,
                            -0.01628847047686577,
                            -0.08347439765930176,
                            -0.023189513012766838,
                            -0.06708212196826935,
                            0.023218102753162384,
                            0.03497830778360367,
                            -0.014365900307893753,
                            -0.09323454648256302,
                            -0.03141317889094353
                        ],
                        [
                            -0.060408513993024826,
                            0.05499586835503578,
                            -0.07849699258804321,
                            -0.010388427414000034,
                            -0.03127332031726837,
                            0.10063211619853973,
                            0.09977283328771591,
                            0.09256333857774734,
                            -0.08472107350826263,
                            -0.08382625877857208,
                            0.030488286167383194,
                            -0.01076485775411129,
                            -0.01412946917116642,
                            0.027038702741265297,
                            0.07083921134471893,
                            -0.03070361725986004,
                            0.08317432552576065,
                            -0.09760921448469162,
                            0.019897861406207085,
                            -0.08094387501478195,
                            0.0076559167355299,
                            -0.064979687333107,
                            0.01232642401009798,
                            -0.07725203782320023,
                            0.08992024511098862,
                            0.06660959869623184,
                            -0.0660821944475174,
                            -0.03848007321357727,
                            -0.09421160817146301,
                            0.08385340124368668,
                            0.0898156687617302,
                            0.06925073266029358
                        ],
                        [
                            -0.04021571949124336,
                            -0.06858131289482117,
                            0.07040944695472717,
                            0.04640211910009384,
                            0.0881563201546669,
                            -0.018290003761649132,
                            -0.048233672976493835,
                            -0.0034504965879023075,
                            -0.10539058595895767,
                            -0.01670147478580475,
                            -0.020598825067281723,
                            -0.1190989762544632,
                            -0.04166286066174507,
                            0.011794528923928738,
                            -0.0577557235956192,
                            -0.08179625123739243,
                            -0.015042531304061413,
                            -0.016417238861322403,
                            0.034786343574523926,
                            0.011106995865702629,
                            -0.002143341349437833,
                            0.018236827105283737,
                            0.0577583909034729,
                            -0.014990564435720444,
                            0.03124374710023403,
                            0.06022481992840767,
                            -0.09976500272750854,
                            0.017136599868535995,
                            0.007556204218417406,
                            0.03622642904520035,
                            -0.07190126180648804,
                            -0.03781000152230263
                        ],
                        [
                            0.07895573228597641,
                            0.09681055694818497,
                            -0.057292260229587555,
                            -0.06530977040529251,
                            -0.07577122002840042,
                            -0.03952567279338837,
                            0.018089251592755318,
                            -0.018175385892391205,
                            0.02816864289343357,
                            0.07574305683374405,
                            0.0984603613615036,
                            0.009320860728621483,
                            0.00853668712079525,
                            0.06506501883268356,
                            -0.042055316269397736,
                            -0.05500587448477745,
                            -0.053759701550006866,
                            0.024381591007113457,
                            -0.07690257579088211,
                            0.051222894340753555,
                            -0.015244953334331512,
                            -0.0840517207980156,
                            0.026317933574318886,
                            -0.020914750173687935,
                            -0.09518305957317352,
                            -0.11397910118103027,
                            -0.09370721876621246,
                            -0.08981823176145554,
                            -0.02074016071856022,
                            0.08535785973072052,
                            -0.021921200677752495,
                            -0.07274513691663742
                        ],
                        [
                            -0.07738322764635086,
                            -0.01633569598197937,
                            0.02808113396167755,
                            0.01971421018242836,
                            -0.08498004823923111,
                            -0.0547025240957737,
                            -0.01814349740743637,
                            -0.05183079093694687,
                            -0.019102105870842934,
                            0.052657317370176315,
                            0.07856319844722748,
                            -0.07393696904182434,
                            -0.04563641548156738,
                            0.04178764298558235,
                            0.04286104068160057,
                            0.04675448313355446,
                            0.0059791067615151405,
                            0.08052869886159897,
                            -0.03139073774218559,
                            0.03300609812140465,
                            -0.04540202021598816,
                            0.026741167530417442,
                            -0.07797455042600632,
                            -0.022630423307418823,
                            0.0559358112514019,
                            -0.0034667018335312605,
                            0.04218491539359093,
                            0.02257002890110016,
                            0.006969763897359371,
                            0.101252980530262,
                            0.023445770144462585,
                            0.021697459742426872
                        ],
                        [
                            0.0028870829846709967,
                            -0.03133077174425125,
                            -0.06992039084434509,
                            -0.0748291164636612,
                            0.01629325933754444,
                            0.03416094928979874,
                            -0.019448531791567802,
                            -0.02433159202337265,
                            0.0745612159371376,
                            -0.07606617361307144,
                            -0.06869599223136902,
                            -0.07418881356716156,
                            -0.08172917366027832,
                            0.09508150070905685,
                            -0.06317367404699326,
                            -0.04630280286073685,
                            -0.029773615300655365,
                            0.019730137661099434,
                            0.02921227365732193,
                            0.030247706919908524,
                            -0.056423649191856384,
                            -0.04828733205795288,
                            0.08766431361436844,
                            -0.016357047483325005,
                            -0.07299896329641342,
                            0.11593116074800491,
                            -0.01299367193132639,
                            0.08660288900136948,
                            0.09968987107276917,
                            0.021097848191857338,
                            -0.07330574840307236,
                            0.032612767070531845
                        ],
                        [
                            0.026161206886172295,
                            0.06553250551223755,
                            -0.021013833582401276,
                            0.02919446863234043,
                            0.007186418864876032,
                            -0.06572766602039337,
                            0.02947024069726467,
                            0.05332012474536896,
                            0.04240596294403076,
                            0.04109884798526764,
                            0.10030315071344376,
                            0.0006742323748767376,
                            -0.0798967108130455,
                            -0.04371150583028793,
                            0.10521171987056732,
                            -0.005564878229051828,
                            0.0757003203034401,
                            -0.07420600205659866,
                            0.01817484013736248,
                            0.027259472757577896,
                            -0.024974359199404716,
                            -0.0010259589180350304,
                            0.059655576944351196,
                            -0.0013975275214761496,
                            0.01754753850400448,
                            -0.023181166499853134,
                            0.07856263965368271,
                            -0.07836400717496872,
                            0.013563918881118298,
                            0.06478586047887802,
                            -0.037406910210847855,
                            -0.005589716602116823
                        ],
                        [
                            0.037607405334711075,
                            -0.03769185394048691,
                            0.034197572618722916,
                            -0.08051290363073349,
                            0.060041848570108414,
                            0.003699281020089984,
                            0.054383598268032074,
                            0.060201771557331085,
                            -0.03557456657290459,
                            -0.08333107829093933,
                            -0.029216064140200615,
                            -0.09631109982728958,
                            0.0737651064991951,
                            0.04283468797802925,
                            -0.10477807372808456,
                            0.031852081418037415,
                            -0.057858653366565704,
                            -0.02569654770195484,
                            -0.07778755575418472,
                            -0.04583721235394478,
                            -0.04236673563718796,
                            -0.02282244898378849,
                            -0.015353430993855,
                            -0.10516969859600067,
                            0.05442643165588379,
                            -0.0200860146433115,
                            0.10037113726139069,
                            -0.03130515664815903,
                            0.02236534282565117,
                            0.09425752609968185,
                            -0.007323560770601034,
                            0.02931300178170204
                        ],
                        [
                            0.09575938433408737,
                            -0.08767999708652496,
                            0.04512840881943703,
                            -0.029796835035085678,
                            -0.075392946600914,
                            0.07694613188505173,
                            0.02714322879910469,
                            -0.0814996063709259,
                            0.018941614776849747,
                            0.050466388463974,
                            0.043962545692920685,
                            -0.01701328717172146,
                            -0.05469458922743797,
                            0.08947636187076569,
                            0.030187230557203293,
                            -0.025513475760817528,
                            -0.03784268721938133,
                            -0.016268432140350342,
                            -0.10397578775882721,
                            0.02811904065310955,
                            -0.06911947578191757,
                            0.08090082556009293,
                            0.017278464511036873,
                            0.06242717057466507,
                            0.0029369231779128313,
                            0.09352076053619385,
                            -0.06970005482435226,
                            -0.01950055919587612,
                            -0.04034372419118881,
                            -0.07249511778354645,
                            0.03583667427301407,
                            0.06352656334638596
                        ],
                        [
                            -0.058497413992881775,
                            0.05588673800230026,
                            -0.05419034883379936,
                            -0.08597671985626221,
                            -0.07546992599964142,
                            -0.012821248732507229,
                            0.0077535538002848625,
                            -0.05846960470080376,
                            -0.08558151870965958,
                            -0.09305334836244583,
                            0.004283463582396507,
                            -0.06747680902481079,
                            0.07184215635061264,
                            -0.03729349747300148,
                            -0.07636968046426773,
                            -0.04635542258620262,
                            -0.08896628022193909,
                            -0.05633290857076645,
                            -0.09125269204378128,
                            0.06834985315799713,
                            0.005465272814035416,
                            0.004186318255960941,
                            -0.0877506211400032,
                            -0.013408206403255463,
                            -0.0709468424320221,
                            -0.05213576927781105,
                            -0.010683207772672176,
                            0.022219868376851082,
                            -0.07632336765527725,
                            0.020400187000632286,
                            -0.017040520906448364,
                            -0.0791354700922966
                        ],
                        [
                            0.056786857545375824,
                            0.0255648922175169,
                            0.07092637568712234,
                            -0.016475599259138107,
                            -0.0926278680562973,
                            -0.1001979410648346,
                            -0.028481069952249527,
                            0.08343993127346039,
                            -0.05217154324054718,
                            -0.04129985347390175,
                            -0.09885095804929733,
                            0.0421503409743309,
                            0.014226943254470825,
                            0.05650673806667328,
                            -0.07978843152523041,
                            -0.011457430198788643,
                            0.07898937910795212,
                            -0.0014764213701710105,
                            -0.04835807532072067,
                            -0.052015747874975204,
                            0.08297853171825409,
                            -0.07117720693349838,
                            -0.07020485401153564,
                            0.060480717569589615,
                            -0.09953168779611588,
                            -0.07606738805770874,
                            0.11164252460002899,
                            0.015472060069441795,
                            0.018879134207963943,
                            0.012179548852145672,
                            0.04670823737978935,
                            -0.04388316348195076
                        ],
                        [
                            0.07791870832443237,
                            0.08435209840536118,
                            -0.0028571607545018196,
                            -0.08852771669626236,
                            -0.018287738785147667,
                            -0.004701151512563229,
                            0.09432678669691086,
                            -0.05354735627770424,
                            -0.033918026834726334,
                            0.0434919111430645,
                            -0.030591147020459175,
                            0.014283091761171818,
                            -0.06667916476726532,
                            -0.0005627526552416384,
                            0.025746997445821762,
                            -0.0729675441980362,
                            0.01119463611394167,
                            0.04959305003285408,
                            -0.00995196495205164,
                            -0.07032254338264465,
                            0.0689704492688179,
                            0.03651595860719681,
                            -0.08624432235956192,
                            -0.040786806493997574,
                            0.09428951889276505,
                            0.04859606549143791,
                            -0.013380764052271843,
                            0.0189606174826622,
                            -0.06344239413738251,
                            0.015818782150745392,
                            -0.009314977563917637,
                            0.07664826512336731
                        ],
                        [
                            0.05209105461835861,
                            -0.046811334788799286,
                            0.07048482447862625,
                            -0.003999943379312754,
                            0.031195368617773056,
                            0.03096489980816841,
                            -0.04358292371034622,
                            -0.09459367394447327,
                            -0.06574440747499466,
                            -0.04911917820572853,
                            -0.011816372163593769,
                            0.008310969918966293,
                            0.11630075424909592,
                            -0.03756159543991089,
                            -0.06808196008205414,
                            -0.07278493046760559,
                            0.10293574631214142,
                            0.08226530998945236,
                            -0.039436064660549164,
                            0.038642387837171555,
                            -0.06016428396105766,
                            -0.02817370928823948,
                            0.012635413557291031,
                            0.004327371250838041,
                            -0.08510339260101318,
                            0.06692847609519958,
                            0.026986395940184593,
                            -0.048647113144397736,
                            0.05950471758842468,
                            0.022259367629885674,
                            -0.026071755215525627,
                            0.0011767531977966428
                        ],
                        [
                            -0.080964095890522,
                            -0.09466604888439178,
                            0.06109505146741867,
                            -0.044209226965904236,
                            0.08027657121419907,
                            -0.009508754126727581,
                            -0.05581081658601761,
                            0.03283901885151863,
                            -0.07714878767728806,
                            -0.06086180731654167,
                            0.07515234500169754,
                            -0.02945774793624878,
                            -0.1012805849313736,
                            0.06427449733018875,
                            -0.0630016177892685,
                            0.04933089762926102,
                            -0.051946453750133514,
                            0.08181619644165039,
                            0.09143764525651932,
                            0.09352529793977737,
                            -0.06453821808099747,
                            -0.035070035606622696,
                            -0.02307608537375927,
                            0.03150445967912674,
                            -0.010501340962946415,
                            0.04254229739308357,
                            0.012318795546889305,
                            0.015251785516738892,
                            -0.013917871750891209,
                            -0.004430850502103567,
                            -0.04653439670801163,
                            -0.04596509784460068
                        ],
                        [
                            -0.07765621691942215,
                            -0.03147462382912636,
                            -0.07903540134429932,
                            -0.042783573269844055,
                            0.03395574167370796,
                            0.031175054609775543,
                            -0.09957332164049149,
                            0.06379087269306183,
                            -0.006874228361994028,
                            0.004627754911780357,
                            -0.007590474095195532,
                            0.08793336898088455,
                            -0.036445170640945435,
                            -0.008262794464826584,
                            0.02313097193837166,
                            0.012683247216045856,
                            -0.036650653928518295,
                            0.10196167975664139,
                            0.006462028715759516,
                            -0.06427095830440521,
                            0.02784155122935772,
                            -0.11001432687044144,
                            -0.05921528488397598,
                            -0.08153416216373444,
                            0.1020999550819397,
                            -0.09849246591329575,
                            -0.018907135352492332,
                            -0.01743275485932827,
                            0.08810940384864807,
                            -0.06924977898597717,
                            0.003414649050682783,
                            0.08236689865589142
                        ],
                        [
                            0.0438137948513031,
                            0.011157844215631485,
                            0.07773766666650772,
                            -0.014684068039059639,
                            -0.04633316397666931,
                            -0.027730954810976982,
