{
    "in_shape": [
        null,
        1
    ],
    "layers": [
        {
            "type": "dense",
            "activation": "",
            "shape": [
                null,
                64
            ],
            "weights": [
                [
                    [
                        0.18610532581806183,
                        -0.24508024752140045,
                        -0.1977466493844986,
                        -0.24826472997665405,
                        -0.3166676461696625,
                        0.26790711283683777,
                        0.1788158267736435,
                        0.2442069947719574,
                        0.11462217569351196,
                        -0.00925976037979126,
                        -0.2068183571100235,
                        -0.23018640279769897,
                        0.17358043789863586,
                        -0.14925995469093323,
                        -0.20897851884365082,
                        -0.32006922364234924,
                        0.18661242723464966,
                        0.27170899510383606,
                        0.16960515081882477,
                        0.263178288936615,
                        0.2695874571800232,
                        -0.1643693447113037,
                        -0.2019660621881485,
                        -0.2335689514875412,
                        0.2016942948102951,
                        0.27987152338027954,
                        -0.2080744057893753,
                        -0.2699865996837616,
                        0.2734643518924713,
                        0.2682458460330963,
                        0.2535831928253174,
                        -0.3155163526535034,
                        0.22847990691661835,
                        0.21000461280345917,
                        -0.20393693447113037,
                        -0.23922739923000336,
                        0.15067388117313385,
                        0.2590007781982422,
                        0.18918786942958832,
                        0.17432323098182678,
                        -0.19265492260456085,
                        0.21973305940628052,
                        0.14986208081245422,
                        0.21702443063259125,
                        0.26523491740226746,
                        0.21133433282375336,
                        -0.2213529795408249,
                        -0.24119140207767487,
                        0.19535811245441437,
                        -0.25127923488616943,
                        0.17487823963165283,
                        -0.29176998138427734,
                        0.2576320171356201,
                        -0.1481243222951889,
                        0.30288010835647583,
                        -0.2446652352809906,
                        -0.20851369202136993,
                        -0.19686561822891235,
                        0.1768048107624054,
                        0.15719875693321228,
                        -0.24157287180423737,
                        -0.23100106418132782,
                        -0.1816394031047821,
                        -0.14432819187641144
                    ]
                ],
                [
                    0.06994681060314178,
                    -0.0013480024645105004,
                    -0.04512808844447136,
                    -0.02126476541161537,
                    0.0027486211620271206,
                    0.05685608088970184,
                    0.050138819962739944,
                    0.038540810346603394,
                    -0.019758835434913635,
                    -0.0004966700216755271,
                    -0.06390663981437683,
                    0.06950341165065765,
                    -0.024111639708280563,
                    0.04408371448516846,
                    -0.04932591691613197,
                    0.028524165973067284,
                    -0.026393871754407883,
                    0.00036157912109047174,
                    -0.008393538184463978,
                    0.008019549772143364,
                    -0.08423912525177002,
                    0.005685638636350632,
                    -0.007959733717143536,
                    -0.0208660326898098,
                    -0.00028977933106943965,
                    -0.05321614816784859,
                    -0.10211442410945892,
                    0.030372045934200287,
                    -0.0009507282520644367,
                    0.006993416231125593,
                    0.008400190621614456,
                    0.003623410128057003,
                    -0.08970465511083603,
                    0.026224829256534576,
                    -0.07097271084785461,
                    0.000563102716114372,
                    0.018531829118728638,
                    0.0032922395039349794,
                    -0.01325970608741045,
                    -0.04347788169980049,
                    0.007009669207036495,
                    0.021409718319773674,
                    0.002867368748411536,
                    0.0246514193713665,
                    -0.0319099985063076,
                    0.011919212527573109,
                    -0.01156692486256361,
                    -0.06722463667392731,
                    0.08474194258451462,
                    -0.0658361092209816,
                    -0.06107044219970703,
                    0.01286553405225277,
                    0.032921500504016876,
                    5.213372060097754e-05,
                    0.0031168197747319937,
                    0.01521390676498413,
                    -0.039107367396354675,
                    -0.012801247648894787,
                    0.030344916507601738,
                    -0.018525676801800728,
                    -0.08512628823518753,
                    0.04469984397292137,
                    -0.07211042940616608,
                    0.09249060600996017
                ]
            ]
        },
        {
            "type": "activation",
            "activation": "tanh",
            "shape": [
                null,
                64
            ],
            "weights": []
        },
        {
            "type": "dense",
            "activation": "",
            "shape": [
                null,
                64
            ],
            "weights": [
                [
                    [
                        -0.07321050763130188,
                        -0.059837788343429565,
                        -0.016853461042046547,
                        -0.11717858165502548,
                        -0.0677395761013031,
                        -0.010270277969539165,
                        -0.04191760718822479,
                        -0.020916562527418137,
                        -0.05160977691411972,
                        0.02878468483686447,
                        0.08232282102108002,
                        0.00045131114893592894,
                        -0.013029992580413818,
                        0.06283687800168991,
                        -0.01291128434240818,
                        0.041569869965314865,
                        0.015773681923747063,
                        0.003942047245800495,
                        0.13463576138019562,
                        0.13516215980052948,
                        0.044630132615566254,
                        0.06044291704893112,
                        0.05136773735284805,
                        -0.006149588618427515,
                        0.036981359124183655,
                        0.0255951676517725,
                        -0.0022780289873480797,
                        -0.001715104910545051,
                        0.08533439040184021,
                        -0.02786593697965145,
                        0.017246413975954056,
                        0.028858639299869537,
                        0.05088358744978905,
                        -0.06267227232456207,
                        0.061051949858665466,
                        -0.05503353103995323,
                        -0.055874668061733246,
                        -0.03205166012048721,
                        0.03536050766706467,
                        -0.002737760078161955,
                        0.1097881868481636,
                        -0.04007432237267494,
                        0.004236231092363596,
                        0.08432312309741974,
                        -0.023067621514201164,
                        0.07788550853729248,
                        -0.0006641987711191177,
                        -0.006919562350958586,
                        -0.05351664498448372,
                        -0.004330217372626066,
                        -0.027041500434279442,
                        -0.054319728165864944,
                        -0.0002106213942170143,
                        -0.05800803378224373,
                        0.034803811460733414,
                        0.016312163323163986,
                        -0.022168077528476715,
                        0.02589995786547661,
                        0.025793733075261116,
                        0.02361074648797512,
                        0.026339858770370483,
                        0.10411436855792999,
                        0.047029949724674225,
                        -0.06232580915093422
                    ],
                    [
                        -0.0438225157558918,
                        0.00620519183576107,
                        0.10494603961706161,
                        -0.07838208973407745,
                        0.20686188340187073,
                        0.10888626426458359,
                        0.1329532265663147,
                        0.05493588745594025,
                        0.10784192383289337,
                        -0.05933577939867973,
                        -0.14648286998271942,
                        0.03716961666941643,
                        -0.0034262940753251314,
                        0.03143935650587082,
                        -0.10229115933179855,
                        0.027976317331194878,
                        0.05159087851643562,
                        0.0013265794841572642,
                        -0.15187649428844452,
                        -0.07281185686588287,
                        0.019083118066191673,
                        -0.10758846253156662,
                        0.09959940612316132,
                        -0.07659929990768433,
                        -0.074521005153656,
                        -0.06436774134635925,
                        -0.021470533683896065,
                        -0.09164802730083466,
                        -0.03665659576654434,
                        0.047688648104667664,
                        -0.12255927920341492,
                        -0.08338802307844162,
                        0.02682533487677574,
                        0.08085724711418152,
                        -0.10797670483589172,
                        0.08343138545751572,
                        0.0856604278087616,
                        0.10596396774053574,
                        0.11756163090467453,
                        -0.07297152280807495,
                        -0.1375649869441986,
                        -0.05002541095018387,
                        -0.10553830116987228,
                        0.11488116532564163,
                        0.11434552073478699,
                        0.20909978449344635,
                        -0.060436636209487915,
                        0.0844927579164505,
                        0.03321916610002518,
                        -0.07156060636043549,
                        0.032940130680799484,
                        0.1256171315908432,
                        -0.1055026724934578,
                        0.12107532471418381,
                        -0.17473605275154114,
                        0.03143078833818436,
                        -0.03524620085954666,
                        0.1097627729177475,
                        -0.019441304728388786,
                        0.18190030753612518,
                        -0.12848368287086487,
                        -0.049121927469968796,
                        -0.022997736930847168,
                        -0.05508855730295181
                    ],
                    [
                        -0.06926295906305313,
                        0.025977540761232376,
                        0.06108523905277252,
                        -0.031010599806904793,
                        0.004415587987750769,
                        0.006068795453757048,
                        0.13606181740760803,
                        -0.04647347703576088,
                        -0.033124376088380814,
                        0.013030669651925564,
                        -0.0999172255396843,
                        0.0902237817645073,
                        0.007712078746408224,
                        -0.03613097593188286,
                        -0.03345402702689171,
                        0.059512387961149216,
                        0.015754684805870056,
                        0.07839441299438477,
                        -0.022632502019405365,
                        -0.05320104584097862,
                        0.052198924124240875,
                        -0.05076376721262932,
                        0.03832585737109184,
                        -0.01670118235051632,
                        -0.02670774795114994,
                        -0.06342561542987823,
                        0.07698684930801392,
                        -0.05547887086868286,
                        -0.05999371409416199,
                        0.010873466730117798,
                        -0.1151331216096878,
                        -0.006540043279528618,
                        -0.023376252502202988,
                        0.12775486707687378,
                        -0.021716762334108353,
                        0.0438757948577404,
                        0.06323972344398499,
                        0.03284887224435806,
                        0.06327980011701584,
                        -0.18377016484737396,
                        -0.09531017392873764,
                        -0.1360941231250763,
                        -0.061088889837265015,
                        -0.018244989216327667,
                        -0.012071712873876095,
                        0.12646596133708954,
                        -0.01493028737604618,
                        0.0079771988093853,
                        0.05912090092897415,
                        -0.008004085160791874,
                        -0.1002449169754982,
                        0.030306175351142883,
                        -0.02549898810684681,
                        0.0710921660065651,
                        -0.02826995588839054,
                        0.10831356048583984,
                        0.037915173918008804,
                        0.02900000661611557,
                        -0.042162083089351654,
                        0.16104012727737427,
                        -0.016477534547448158,
                        -0.1013515293598175,
                        0.04293819144368172,
                        -0.011378124356269836
                    ],
                    [
                        0.0009125912329182029,
                        0.10013659298419952,
                        0.07699741423130035,
                        0.043782975524663925,
                        0.1416374146938324,
                        0.15193124115467072,
                        -0.052550800144672394,
                        -0.01592322625219822,
                        0.08163296431303024,
                        -0.012076285667717457,
                        -0.02992461994290352,
                        0.11609810590744019,
                        -0.03997206687927246,
                        0.01290394552052021,
                        -0.015027723275125027,
                        0.06945160776376724,
                        -0.07282023131847382,
                        0.0357951857149601,
                        -0.12707529962062836,
                        0.01685689575970173,
                        0.07489030063152313,
                        -0.023215197026729584,
                        0.12752005457878113,
                        0.043733157217502594,
                        -0.032707467675209045,
                        -0.0758664608001709,
                        0.05021212622523308,
                        0.06678716838359833,
                        -0.018663804978132248,
                        0.06741593778133392,
                        -0.0833699181675911,
                        -0.11491013318300247,
                        0.04224369302392006,
                        0.03185058757662773,
                        0.056393999606370926,
                        0.06100812181830406,
                        0.0808783546090126,
                        0.11545559018850327,
                        0.12636373937129974,
                        0.026921886950731277,
                        -0.0038332573603838682,
                        -0.08151713758707047,
                        -0.005728998687118292,
                        0.11570188403129578,
                        -0.03379131853580475,
                        0.09032078087329865,
                        -0.037201885133981705,
                        -0.061372026801109314,
                        -0.011578342877328396,
                        -0.02200092375278473,
                        0.0027259886264801025,
                        -0.007530349772423506,
                        0.010649755597114563,
                        -0.01657998189330101,
                        -0.11542906612157822,
                        0.10934106260538101,
                        -0.12683366239070892,
                        0.0831822007894516,
                        -0.09104152023792267,
                        -0.05538152903318405,
                        -0.04931547865271568,
                        -0.06438050419092178,
                        -0.03726854547858238,
                        -0.058067552745342255
                    ],
                    [
                        -0.13847634196281433,
                        0.10039688646793365,
                        0.07018137723207474,
                        0.022607561200857162,
                        0.13048836588859558,
                        0.09740322083234787,
                        0.08880143612623215,
                        0.19514727592468262,
                        0.0487854890525341,
                        -0.1586437076330185,
                        -0.12361986935138702,
                        0.04175728186964989,
                        -0.08945921063423157,
                        0.06709608435630798,
                        -0.1348121613264084,
                        0.07282345741987228,
                        -0.08467987179756165,
                        0.1189124658703804,
                        -0.0801490917801857,
                        -0.07764099538326263,
                        0.055317528545856476,
                        -0.10687082260847092,
                        0.14745204150676727,
                        -0.01662842184305191,
                        0.02769264206290245,
                        -0.21892869472503662,
                        0.14174729585647583,
                        -0.14654123783111572,
                        -0.10968929529190063,
                        0.04665474593639374,
                        -0.17113927006721497,
                        -0.08126679062843323,
                        0.2288016974925995,
                        0.1379609853029251,
                        -0.09302886575460434,
                        0.1724308282136917,
                        0.029024403542280197,
                        0.05545203387737274,
                        0.09123432636260986,
                        -0.13026109337806702,
                        -0.18263036012649536,
                        -0.15319140255451202,
                        -0.20988519489765167,
                        0.09851188212633133,
                        0.06450115144252777,
                        0.019525643438100815,
                        -0.09908951818943024,
                        0.13011562824249268,
                        0.14565028250217438,
                        -0.07401927560567856,
                        -0.11585897207260132,
                        0.16194237768650055,
                        -0.10836421698331833,
                        0.2234339863061905,
                        -0.1490396112203598,
                        0.17453518509864807,
                        -0.11822926253080368,
                        0.13982051610946655,
                        -0.0514657236635685,
                        0.08564169704914093,
                        -0.03311770781874657,
                        -0.06199400871992111,
                        0.0429563969373703,
                        -0.16111022233963013
                    ],
                    [
                        0.07259499281644821,
                        -0.026058219373226166,
                        -0.021776989102363586,
                        -0.08270003646612167,
                        -0.005544836167246103,
                        -0.07523532956838608,
                        0.01467964705079794,
                        -0.09000953286886215,
                        0.019845066592097282,
                        0.0031810321379452944,
                        0.03755186125636101,
                        -0.012905536219477654,
                        -0.0016133406898006797,
                        -0.06672177463769913,
                        0.17687201499938965,
                        -0.04054669290781021,
                        -0.018261542543768883,
                        -0.12138178944587708,
                        0.074053555727005,
                        0.018905121833086014,
                        -0.049507420510053635,
                        0.07891523838043213,
                        -0.007272456772625446,
                        0.04384128376841545,
                        0.04800323769450188,
                        0.06092669442296028,
                        -0.07947829365730286,
                        0.03496035188436508,
                        0.07303083688020706,
                        -0.0288554560393095,
                        0.03370523452758789,
                        0.02095283567905426,
                        -0.07754170894622803,
                        -0.05898565053939819,
                        0.03752672299742699,
                        -0.009619956836104393,
                        -0.14970412850379944,
                        0.13320468366146088,
                        -0.09870690852403641,
                        0.04817618429660797,
                        -0.04622907191514969,
                        0.056069862097501755,
                        0.11778799444437027,
                        0.046269405633211136,
                        -0.0716325044631958,
                        -0.04114476591348648,
                        0.030346285551786423,
                        0.0066458056680858135,
                        -0.10297337174415588,
                        0.0885312631726265,
                        0.08957909047603607,
                        -0.033426716923713684,
                        0.03462040796875954,
                        -0.10701291263103485,
                        0.0961691215634346,
                        -0.0845174714922905,
                        0.05062740296125412,
                        -0.012749957852065563,
                        0.005109869409352541,
                        -0.06811779737472534,
                        0.04044180363416672,
                        0.0885547548532486,
                        0.11303083598613739,
                        0.09482119977474213
                    ],
                    [
                        0.09025322645902634,
                        -0.03529466316103935,
                        -0.05416572466492653,
                        0.04066427797079086,
                        -0.09946329891681671,
                        -0.09154344350099564,
                        -0.023636508733034134,
                        0.030475137755274773,
                        -0.038362517952919006,
                        0.041436970233917236,
                        0.06647822260856628,
                        -0.11931192874908447,
                        0.08713319152593613,
                        0.006173599511384964,
                        0.04069995880126953,
                        0.061476416885852814,
                        -0.04115249961614609,
                        -0.05116724222898483,
                        -0.02342897653579712,
                        -0.027285221964120865,
                        0.00375742232427001,
                        0.005738281179219484,
                        -0.009412797167897224,
                        -0.028536027297377586,
                        0.08063697814941406,
                        0.03546436131000519,
                        -0.04882001504302025,
                        -0.051480017602443695,
                        0.08879624307155609,
                        0.022555870935320854,
                        -0.05849849060177803,
                        -0.007960612885653973,
                        -0.03257884457707405,
                        0.02495516650378704,
                        0.027093300595879555,
                        -0.006456194445490837,
                        -0.02402443066239357,
                        0.028542133048176765,
                        -0.09239339083433151,
                        0.004826331045478582,
                        -0.019285529851913452,
                        0.035473719239234924,
                        0.05406048148870468,
                        -0.019560646265745163,
                        -0.0348728783428669,
                        -0.03948594629764557,
                        -0.015446302480995655,
                        -0.009912913665175438,
                        -0.08353163301944733,
                        0.025464320555329323,
                        0.007103672716766596,
                        0.05674823001027107,
                        0.04739069193601608,
                        -0.040168847888708115,
                        0.028711723163723946,
                        -0.01707646995782852,
                        -0.015562232583761215,
                        0.005314729642122984,
                        0.0014109042240306735,
                        0.08705040067434311,
                        0.12081631273031235,
                        0.06528763473033905,
                        -0.023831302300095558,
                        0.09169772267341614
                    ],
                    [
                        0.03561093285679817,
                        -0.07727230340242386,
                        -0.00294388341717422,
                        0.07064950466156006,
                        -0.030273471027612686,
                        -0.05146903917193413,
                        0.0016242811689153314,
                        -0.028820650652050972,
                        -0.10495796799659729,
                        0.07759848237037659,
                        0.06475802510976791,
                        0.02786983735859394,
                        0.11148501932621002,
                        -0.028073186054825783,
                        -0.05701852962374687,
                        -0.018463388085365295,
                        -0.05293324962258339,
                        -0.002261767629534006,
                        0.10041631758213043,
                        0.047255322337150574,
                        -0.01051301509141922,
                        0.03531936928629875,
                        -0.11583008617162704,
                        0.029507087543606758,
                        0.10692757368087769,
                        0.0630994588136673,
                        -0.05244787782430649,
                        -0.0076171522960066795,
                        0.0631805881857872,
                        0.03182879090309143,
                        -0.034113459289073944,
                        0.06733065843582153,
                        -0.14087574183940887,
                        -0.12675295770168304,
                        0.041658271104097366,
                        -0.12460397183895111,
                        -0.09428886324167252,
                        -0.0032414672896265984,
                        -0.09222157299518585,
                        0.011284583248198032,
                        0.084932841360569,
                        0.034253839403390884,
                        0.03381788730621338,
                        -0.011788067407906055,
                        -0.060144588351249695,
                        -0.07233469188213348,
                        0.04834362864494324,
                        -0.03641160950064659,
                        -0.04773290455341339,
                        0.03549071401357651,
                        0.03659884259104729,
                        -0.05484146997332573,
                        -0.013943216763436794,
                        -0.06559041142463684,
                        0.09371364861726761,
                        -0.08778270334005356,
                        0.03860517591238022,
                        -0.007505387999117374,
                        0.08077986538410187,
                        -0.04113386571407318,
                        0.06079968065023422,
                        0.12418318539857864,
                        0.07946076989173889,
                        -0.013954897411167622
                    ],
                    [
                        -0.04557401314377785,
                        -0.0755900964140892,
                        0.02506667748093605,
                        -0.006657086778432131,
                        -0.05784834921360016,
                        0.034979380667209625,
                        0.06124616414308548,
                        0.009618698619306087,
                        0.014238742180168629,
                        0.014420499093830585,
                        0.0021587524097412825,
                        -0.031006233766674995,
                        -0.037879493087530136,
                        0.009009288623929024,
                        -0.04884004965424538,
                        0.09640321880578995,
                        -0.05781157314777374,
                        0.050758443772792816,
                        -0.03896527364850044,
                        0.004327257629483938,
                        -0.0899636372923851,
                        -0.02569335140287876,
                        -0.033870477229356766,
                        0.012678705155849457,
                        0.0033096675761044025,
                        0.032553285360336304,
                        -0.02967739664018154,
                        0.0020243653561919928,
                        0.04040481522679329,
                        -0.02837691642343998,
                        -0.032411351799964905,
                        0.09285598248243332,
                        -0.0619611032307148,
                        0.0003077314468100667,
                        0.07740189135074615,
                        -0.06382764130830765,
                        0.029150445014238358,
                        -0.013415484689176083,
                        -0.011857721954584122,
                        0.04303191974759102,
                        -0.027135008946061134,
                        0.0005220015300437808,
                        -0.029959633946418762,
                        0.042386818677186966,
                        0.048381075263023376,
                        -0.015816139057278633,
                        0.003717001061886549,
                        -0.020698051899671555,
                        -0.05977117642760277,
                        0.08067286759614944,
                        0.0006954724667593837,
                        0.07034743577241898,
                        0.042820949107408524,
                        -0.006047981791198254,
                        -0.0008887748117558658,
                        -0.073771171271801,
                        -0.023346150293946266,
                        -0.014840439893305302,
                        -0.032322343438863754,
                        -0.02010701783001423,
                        0.04562409222126007,
                        -0.055233877152204514,
                        0.001750037888996303,
                        -0.028601258993148804
                    ],
                    [
                        0.08565189689397812,
                        -0.052004214376211166,
                        -0.00040575998718850315,
                        0.07592903822660446,
                        -0.010523217730224133,
                        -0.06910333037376404,
                        0.014709721319377422,
                        0.045640163123607635,
                        0.09753859043121338,
                        -0.013352127745747566,
                        -0.019945302978157997,
                        0.02447822317481041,
                        0.07337074726819992,
                        0.00036685389932245016,
                        0.009138720110058784,
                        0.027965908870100975,
                        0.026156935840845108,
                        0.0789002999663353,
                        -0.02851068787276745,
                        0.013942497782409191,
                        -0.0209336094558239,
                        0.03414332494139671,
                        0.029452338814735413,
                        0.01448154915124178,
                        -0.0036578266881406307,
                        -0.05230827257037163,
                        0.00042113655945286155,
                        -0.03194344788789749,
                        0.029107408598065376,
                        -0.00993782002478838,
                        0.038255371153354645,
                        0.0516509935259819,
                        -0.0004385111096780747,
                        -0.014900585636496544,
                        0.00617565680295229,
                        -0.06052529439330101,
                        0.0031207059510052204,
                        0.013089647516608238,
                        -0.030736681073904037,
                        -0.0026575990486890078,
                        0.031224625185132027,
                        -0.06592166423797607,
                        0.01487429067492485,
                        -0.04290107265114784,
                        0.011620283126831055,
                        -0.055860936641693115,
                        0.021341748535633087,
                        0.02228679321706295,
                        0.00540254358202219,
                        -0.019988231360912323,
                        0.08716654032468796,
                        -0.06602034717798233,
                        -0.0214312095195055,
                        -0.005340769421309233,
                        -0.06031066179275513,
                        -0.05248960852622986,
                        -0.04364214092493057,
                        -0.011339186690747738,
                        -0.07552801072597504,
                        0.00459578400477767,
                        -0.01608728989958763,
                        -0.005625501740723848,
                        -0.10475239157676697,
                        -0.037127118557691574
                    ],
                    [
                        0.01953773945569992,
                        0.020523790270090103,
                        0.10640013962984085,
                        -0.12374429404735565,
                        0.04120999574661255,
                        0.04226197674870491,
                        0.03792314976453781,
                        0.09539049118757248,
                        0.04158008098602295,
                        0.016736941412091255,
                        -0.018071122467517853,
                        0.018728412687778473,
                        -0.025008289143443108,
                        0.10446743667125702,
                        -0.06353975087404251,
                        0.04301108419895172,
                        0.02715475484728813,
                        -0.00598444789648056,
                        -0.09971828758716583,
                        -0.15795081853866577,
                        0.020610179752111435,
                        -0.026285361498594284,
                        0.1457538604736328,
                        -0.08753147721290588,
                        -0.0540442168712616,
                        -0.055968958884477615,
                        0.0401279516518116,
                        -0.07600940763950348,
                        -0.06669597327709198,
                        0.028618337586522102,
                        0.002750291721895337,
                        -0.04558625444769859,
                        0.06890621781349182,
                        0.11081702262163162,
                        -0.04737887904047966,
                        0.059703949838876724,
                        0.039761077612638474,
                        0.02050509862601757,
                        -0.008755113929510117,
                        -0.10345074534416199,
                        -0.03664588928222656,
                        -0.057852938771247864,
                        -0.03573961928486824,
                        0.10222000628709793,
                        0.060473132878541946,
                        0.039556290954351425,
                        0.06210266798734665,
                        0.05913214012980461,
                        0.044178251177072525,
                        -0.03132079169154167,
                        -0.022915935143828392,
                        0.024517778307199478,
                        -0.022002827376127243,
                        -0.021825363859534264,
                        0.02503252401947975,
                        0.04725904017686844,
                        -0.15823273360729218,
                        0.06217695400118828,
                        0.04937439411878586,
                        0.030993737280368805,
                        0.015682177618145943,
                        -0.02739846520125866,
                        -0.09975409507751465,
                        -0.039277203381061554
                    ],
                    [
                        -0.012524480000138283,
                        -0.040951360017061234,
                        0.012555698864161968,
                        0.06410018354654312,
                        0.023321811109781265,
                        -0.006526812445372343,
                        -0.0038115184288471937,
                        0.02613426186144352,
                        0.15635444223880768,
                        0.018735181540250778,
                        0.025670692324638367,
                        0.032805126160383224,
                        -0.08860841393470764,
                        -0.031361740082502365,
                        -0.07832282781600952,
                        0.012111049145460129,
                        0.0581645593047142,
                        0.02939150109887123,
                        -0.09572521597146988,
                        -0.11765491217374802,
                        0.023905348032712936,
                        -0.0916234701871872,
                        -0.0711991935968399,
                        -0.002173731103539467,
                        0.01612810604274273,
                        -0.10007652640342712,
                        0.015126664191484451,
                        -0.055244117975234985,
                        -0.042412448674440384,
                        0.013444335199892521,
                        0.023450635373592377,
                        -0.05070905387401581,
                        0.09728209674358368,
                        -0.05904055014252663,
                        -0.01836664415895939,
                        0.08264293521642685,
                        0.06762425601482391,
                        -0.006707914639264345,
                        0.08199365437030792,
                        0.04786395654082298,
                        0.006074901204556227,
                        0.06371985375881195,
                        0.06445818394422531,
                        0.08587849885225296,
                        -0.0021387143060564995,
                        0.0723802000284195,
                        0.014456301927566528,
                        0.022442150861024857,
                        0.08358340710401535,
                        -0.11525827646255493,
                        0.015918944031000137,
                        0.05609133839607239,
                        -0.05303923413157463,
                        0.1352512389421463,
                        -0.172226682305336,
                        0.045205406844615936,
                        -0.07870583236217499,
                        0.07975441217422485,
                        0.022241640836000443,
                        -0.008891992270946503,
                        -0.0742274671792984,
                        -0.08935395628213882,
                        -0.03708512708544731,
                        -0.05220445990562439
                    ],
                    [
                        -0.035827670246362686,
                        -0.02354688011109829,
                        0.008697671815752983,
                        0.05103173106908798,
                        0.006581723690032959,
                        -0.041166141629219055,
                        -0.09800656884908676,
                        0.021982159465551376,
                        -0.04322170466184616,
                        -0.09824903309345245,
                        -0.01766335964202881,
                        -0.09494251757860184,
                        -0.03598492592573166,
                        -0.016852421686053276,
                        0.02422114834189415,
                        0.023812998086214066,
                        0.14109720289707184,
                        0.0001211115886690095,
                        -0.023264270275831223,
                        0.0004884914960712194,
                        -0.002604496432468295,
                        -0.05765947327017784,
                        -0.025362558662891388,
                        0.07054111361503601,
                        -0.04923015087842941,
                        0.045223429799079895,
                        -0.028142211958765984,
                        -0.05888643115758896,
                        -0.013788680545985699,
                        0.062365882098674774,
                        0.10119539499282837,
                        0.03468634560704231,
                        0.007457796484231949,
                        0.024492172524333,
                        -0.014775916002690792,
                        0.08907529711723328,
                        -0.013230578973889351,
                        0.05417482182383537,
                        -0.015704991295933723,
                        -0.028247356414794922,
                        0.053500447422266006,
                        0.07279504835605621,
                        0.11356300860643387,
                        0.025681620463728905,
                        -0.06545661389827728,
                        0.012625806033611298,
                        0.05269888415932655,
                        -0.0025805027689784765,
                        -0.01929514855146408,
                        -0.017499011009931564,
                        0.009832247160375118,
                        -0.07521647959947586,
                        0.10813187062740326,
                        -0.01952018029987812,
                        0.15110044181346893,
                        -0.03017151914536953,
                        0.004715436603873968,
                        0.010988623835146427,
                        0.07767761498689651,
                        -0.09116004407405853,
                        0.07446308434009552,
                        0.06135006248950958,
                        0.019828593358397484,
                        -0.04530488699674606
                    ],
                    [
                        0.0480445921421051,
                        0.04781258851289749,
                        -0.03441503643989563,
                        0.005457319784909487,
                        -0.03707180544734001,
                        0.18729083240032196,
                        0.02326965518295765,
                        -0.011245619505643845,
                        -0.0490223690867424,
                        -0.0742291584610939,
                        0.06613466888666153,
                        -0.01991424523293972,
                        0.03725535050034523,
                        0.027671830728650093,
                        -0.03407471626996994,
                        -4.458988405531272e-05,
                        -0.005752420052886009,
                        -0.021061697974801064,
                        0.01805706135928631,
                        -0.0661778450012207,
                        -0.00417591305449605,
                        -0.003302075434476137,
                        -0.02695413865149021,
                        -0.01122504472732544,
                        -0.045712895691394806,
                        -0.05644654482603073,
                        0.08503755182027817,
                        0.007984902709722519,
                        0.028476590290665627,
                        -0.04210520535707474,
                        0.05437294393777847,
                        -0.1701442003250122,
                        0.050902556627988815,
                        0.1497887820005417,
                        0.06090623140335083,
                        0.019599054008722305,
                        0.004427327774465084,
                        0.019129304215312004,
                        0.04607987776398659,
                        0.05929279327392578,
                        -0.009226977825164795,
                        -0.03590492531657219,
                        0.026985900476574898,
                        -0.03165338188409805,
                        0.008300364948809147,
                        -0.012158739380538464,
                        -0.0794665589928627,
                        0.00927890744060278,
                        0.04667983204126358,
                        0.118036650121212,
                        -0.030797509476542473,
                        0.03274882212281227,
                        0.0005844770930707455,
                        0.04158901795744896,
                        -0.07310022413730621,
                        -0.07031171023845673,
                        0.030157562345266342,
                        0.004081646911799908,
                        -0.03991829603910446,
                        0.01908084750175476,
                        -0.003239890793338418,
                        -0.04658937081694603,
                        0.031101612374186516,
                        0.03585202246904373
                    ],
                    [
                        -0.11097027361392975,
                        -0.023650433868169785,
                        0.05083228647708893,
                        0.04155204817652702,
                        0.02639523148536682,
                        -0.05588133633136749,
                        -0.0035542461555451155,
                        0.027432739734649658,
                        0.02142341248691082,
                        -0.05463297665119171,
                        -0.0647575631737709,
                        -0.012364756315946579,
                        0.0029250928200781345,
                        -0.09171263128519058,
                        -0.02450786530971527,
                        0.06525282561779022,
                        0.03808773308992386,
                        0.06429512798786163,
                        0.028475085273385048,
                        0.04947112500667572,
                        0.08023631572723389,
                        0.00795840471982956,
                        0.017100853845477104,
                        -0.05232500657439232,
                        -0.10238765180110931,
                        -0.05658551678061485,
                        0.0824211835861206,
                        -0.0003397713298909366,
                        0.005538308527320623,
                        0.0385543555021286,
                        -0.087455153465271,
                        -0.06679368019104004,
                        0.015129934065043926,
                        0.04325630143284798,
                        -0.09051362425088882,
                        -0.08800913393497467,
                        0.0019983635284006596,
                        0.0025197321083396673,
                        0.03861682862043381,
                        -0.13960129022598267,
                        -0.02411983534693718,
                        0.0018433505902066827,
                        -0.020080646499991417,
                        -0.03271316736936569,
                        0.041359350085258484,
                        0.06475385278463364,
                        0.04586615413427353,
                        0.07340691238641739,
                        0.05266006290912628,
                        0.07798265665769577,
                        -0.0003060063172597438,
                        0.025289388373494148,
                        0.008524849079549313,
                        0.0669725313782692,
                        -0.0326630137860775,
                        -0.001416868413798511,
                        -0.08927281200885773,
                        0.08695633709430695,
                        0.04347483813762665,
                        0.08526208996772766,
                        -0.06078889220952988,
                        0.05073001980781555,
                        -0.010511617176234722,
                        -0.1169525757431984
                    ],
                    [
                        -0.07085023820400238,
                        -0.00014446921704802662,
                        -0.004346908535808325,
                        0.020240897312760353,
                        0.03893919289112091,
                        0.07437099516391754,
                        0.19672875106334686,
                        0.11247875541448593,
                        -0.026195436716079712,
                        -0.14017808437347412,
                        -0.05336020514369011,
                        -0.02131500281393528,
                        -0.02310703694820404,
                        0.011206244118511677,
                        -0.07870104908943176,
                        0.08564803749322891,
                        -0.023596471175551414,
                        0.06948596239089966,
                        -0.04738975688815117,
                        -0.05832301080226898,
                        0.10634401440620422,
                        -0.006752450484782457,
                        0.08547904342412949,
                        -0.15070085227489471,
                        -0.1516183614730835,
                        -0.11323432624340057,
                        0.07517474889755249,
                        -0.030191127210855484,
                        0.02898470126092434,
                        0.1138225570321083,
                        -0.1174783855676651,
                        -0.11498468369245529,
                        0.008095779456198215,
                        0.10769399255514145,
                        -0.11124888807535172,
                        0.11276789754629135,
                        -0.011279064230620861,
                        0.07810375839471817,
                        0.04098745062947273,
                        -0.11318656802177429,
                        -0.10081575065851212,
                        -0.10376489162445068,
                        -0.06820692867040634,
                        0.08622903376817703,
                        0.0160843413323164,
                        0.0411643423140049,
                        -0.06050553545355797,
                        0.02624599263072014,
                        -0.011136552318930626,
                        -0.10193983465433121,
                        -0.05842429772019386,
                        0.1226135715842247,
                        -0.07779914140701294,
                        0.08247517794370651,
                        -0.12497716397047043,
                        0.10152222961187363,
                        -0.11098527908325195,
                        0.07551659643650055,
                        -0.10863116383552551,
                        0.08564875274896622,
                        -0.056964728981256485,
                        -0.07525050640106201,
                        -0.07128790766000748,
                        -0.12125160545110703
                    ],
                    [
                        -0.05435367673635483,
                        -0.04659062251448631,
                        -0.06831027567386627,
                        -0.04955749213695526,
                        -0.0035672802478075027,
                        -0.08428982645273209,
                        0.043829407542943954,
                        0.012814968824386597,
                        -0.04511328786611557,
                        0.008284554816782475,
                        -0.016411839053034782,
                        -0.054431237280368805,
                        0.02341570518910885,
                        -0.0003112072008661926,
                        -0.054416559636592865,
                        0.1284581869840622,
                        0.10611718893051147,
                        0.04511253535747528,
                        -0.01025109738111496,
                        -0.007718986365944147,
                        -0.04032575339078903,
                        -0.06146102026104927,
                        -0.11019899696111679,
                        0.0020398106426000595,
                        0.11163824796676636,
                        -0.03613026440143585,
                        0.014211976900696754,
                        0.025038810446858406,
                        0.03185528889298439,
                        0.008521266281604767,
                        0.08958399295806885,
                        0.0030566793866455555,
                        -0.09663811326026917,
                        0.008462163619697094,
                        -0.06503956019878387,
                        0.038022853434085846,
                        -0.03167489916086197,
                        0.019715504720807076,
                        -0.026705767959356308,
                        0.0025875666178762913,
                        -0.006015959195792675,
                        0.0321904718875885,
                        -0.06286970525979996,
                        0.046450015157461166,
                        0.054546620696783066,
                        0.012962105683982372,
                        0.08810614049434662,
                        -0.023170873522758484,
                        0.019512614235281944,
                        -0.043597619980573654,
                        -0.058997541666030884,
                        -0.05339258164167404,
                        0.003890014486387372,
                        -0.056367177516222,
                        0.08735831826925278,
                        -0.010657718405127525,
                        -0.089132159948349,
                        0.05318493768572807,
                        0.03440244868397713,
                        -0.049704667180776596,
                        0.03384244069457054,
                        0.0352744422852993,
                        -0.026326317340135574,
                        0.035948894917964935
                    ],
                    [
                        0.15649448335170746,
                        -0.2385181188583374,
                        -0.11056738346815109,
                        0.0019310052739456296,
                        -0.056635718792676926,
                        -0.14756016433238983,
                        -0.12685038149356842,
                        -0.08506390452384949,
                        -0.08733471482992172,
                        0.11652091145515442,
                        0.00797999557107687,
                        -0.13069278001785278,
                        0.1834959238767624,
                        -0.18374846875667572,
                        0.12029772251844406,
                        0.004074144177138805,
                        0.08334651589393616,
                        -0.1266767531633377,
                        0.10626137256622314,
                        0.016000574454665184,
                        0.004646045621484518,
                        0.19879956543445587,
                        -0.13403645157814026,
                        0.1700151413679123,
                        0.1361328661441803,
                        0.10821965336799622,
                        -0.11993280053138733,
                        0.13579043745994568,
                        0.04081150144338608,
                        -0.05589645355939865,
                        0.12451912462711334,
                        0.06817924231290817,
                        -0.1881188303232193,
                        -0.1495518982410431,
                        0.1943630427122116,
                        0.0039419932290911674,
                        -0.10354451090097427,
                        -0.1084790825843811,
                        -0.12108100205659866,
                        0.1324913054704666,
                        0.17890425026416779,
                        0.12121839821338654,
                        0.10974395275115967,
                        -0.12127439677715302,
                        -0.1053059995174408,
                        -0.13028156757354736,
                        0.056697163730859756,
                        -0.033215466886758804,
                        0.017848245799541473,
                        0.20359067618846893,
                        0.08291532099246979,
                        -0.1527116447687149,
                        0.15527544915676117,
                        -0.05585972219705582,
                        0.22397060692310333,
                        -0.09668079018592834,
                        0.19383731484413147,
                        -0.04841632395982742,
                        0.14292554557323456,
                        -0.027161728590726852,
                        0.07991122454404831,
                        0.04773853346705437,
                        0.15215465426445007,
                        0.09819766134023666
                    ],
                    [
                        0.07181760668754578,
                        -0.003571749199181795,
                        0.01922300085425377,
                        -0.02388020046055317,
                        -0.021388288587331772,
                        0.028720872476696968,
                        -0.05310371518135071,
                        0.00813721027225256,
                        -0.12092089653015137,
                        -0.03605051711201668,
                        0.07296101003885269,
                        -0.10723186284303665,
                        -0.01812979020178318,
                        -0.02924751676619053,
                        0.03788541629910469,
                        -0.07489912211894989,
                        0.08352895826101303,
                        -0.03440888226032257,
                        0.045821934938430786,
                        -0.04357137903571129,
                        -0.014737353660166264,
                        -0.04201141744852066,
                        -0.001103174057789147,
                        0.08268854022026062,
                        -0.008356443606317043,
                        0.06385170668363571,
                        0.01197237242013216,
                        -0.09102214127779007,
                        0.05879317224025726,
                        -0.05037135258316994,
                        0.10025856643915176,
                        0.05358710512518883,
                        0.027728836983442307,
                        -0.0714392215013504,
                        -0.08564198017120361,
                        -0.07325214892625809,
                        0.03992249444127083,
                        0.03678802028298378,
                        0.007127322722226381,
                        -0.026791131123900414,
                        -0.10605161637067795,
                        0.09988376498222351,
                        0.017535652965307236,
                        -0.0034705395810306072,
                        -0.0463249646127224,
                        -0.09714453667402267,
                        0.029060134664177895,
                        -0.06828370690345764,
                        0.05835256353020668,
                        0.09165859967470169,
                        -0.051451753824949265,
                        0.0404508002102375,
                        0.05018804594874382,
                        0.016889413818717003,
                        0.022285470739006996,
                        -0.022888604551553726,
                        0.06737031042575836,
                        -0.12310639768838882,
                        0.05129748582839966,
                        -0.021876830607652664,
                        0.06655672192573547,
                        0.00849661510437727,
                        0.07134491950273514,
                        0.057917457073926926
                    ],
                    [
                        0.08724842220544815,
                        -0.06706120818853378,
                        -0.07208602875471115,
                        0.01569482311606407,
                        -0.10999147593975067,
                        -0.06436634063720703,
                        -0.0628327950835228,
                        -0.14222928881645203,
                        0.008846490643918514,
                        0.07494673132896423,
                        0.026614200323820114,
                        -0.0551384761929512,
                        0.09193027764558792,
                        -0.11210597306489944,
                        0.15001201629638672,
                        -0.0778033509850502,
                        0.02807553857564926,
                        -0.005367470905184746,
                        0.061931464821100235,
                        0.06633973866701126,
                        -0.06422891467809677,
                        0.05615608021616936,
                        -0.12962034344673157,
                        0.08231280744075775,
                        0.0423058345913887,
                        0.11088085174560547,
                        -0.07539507746696472,
                        0.11513356864452362,
                        -0.034478023648262024,
                        0.04477471485733986,
                        0.04601479321718216,
                        0.09053970873355865,
                        -0.07702421396970749,
                        -0.08821696788072586,
                        0.12621289491653442,
                        -0.05782244727015495,
                        -0.0006065816851332784,
                        -0.11546661704778671,
                        -0.15179847180843353,
                        0.04324504733085632,
                        0.041832540184259415,
                        0.1723131388425827,
                        0.13364185392856598,
                        -0.15011626482009888,
                        -0.0551142655313015,
                        -0.08962642401456833,
                        0.03374626487493515,
                        -0.03696158155798912,
                        -0.05259992182254791,
                        0.16278328001499176,
                        0.12879402935504913,
                        -0.03084455616772175,
                        0.008318658918142319,
                        -0.1764632612466812,
                        0.08311518281698227,
                        -0.16807310283184052,
                        0.0824919119477272,
                        -0.027860090136528015,
                        0.04934980720281601,
                        -0.08851305395364761,
                        0.02285139262676239,
                        0.0638953149318695,
                        0.04463084414601326,
                        -0.0012054418912157416
                    ],
                    [
                        0.08317311853170395,
                        -0.16467727720737457,
                        -0.13034382462501526,
                        -0.013283606618642807,
                        -0.10284698754549026,
                        -0.10344924032688141,
                        -0.08474882692098618,
                        -0.048792991787195206,
                        -0.03138243779540062,
                        0.11217638105154037,
                        -0.0005526078166440129,
                        0.0296295378357172,
                        -0.0656883716583252,
                        -0.0392908975481987,
                        0.02370391972362995,
                        -0.11678019165992737,
                        0.098548524081707,
                        -0.04594036936759949,
                        0.05525888875126839,
                        -0.0582490898668766,
                        -0.03187519684433937,
                        -0.015773799270391464,
                        0.0035102905239909887,
                        0.00877933669835329,
                        0.013255380094051361,
                        0.026557255536317825,
                        -0.025996748358011246,
                        0.10518738627433777,
                        0.03478622809052467,
                        -0.022224782034754753,
                        0.009121897630393505,
                        0.04864649102091789,
                        -0.09741629660129547,
                        -0.07040785253047943,
                        0.08348037302494049,
                        -0.053596753627061844,
                        -0.09844005107879639,
                        -0.05907510593533516,
                        -0.0018068423960357904,
                        -0.01887325756251812,
                        -6.648209091508761e-05,
                        0.04536757990717888,
                        0.04478118568658829,
                        -0.06829828768968582,
                        -0.03777174651622772,
                        -0.057579927146434784,
                        0.062131911516189575,
                        -0.014523632824420929,
                        0.04450033977627754,
                        0.0859946683049202,
                        0.14682458341121674,
                        -0.01963687688112259,
                        0.12710605561733246,
                        -0.05563180893659592,
                        0.054031964391469955,
                        -0.07208453863859177,
                        0.03633205220103264,
                        -0.05135378614068031,
                        0.1053953692317009,
                        -0.1125180572271347,
                        -0.006076557096093893,
                        0.11538856476545334,
                        0.029427245259284973,
                        0.0700734481215477
                    ],
                    [
                        -0.004167188424617052,
                        0.010317837819457054,
                        0.023290330544114113,
                        0.022716650739312172,
                        0.012849113903939724,
                        0.027049319818615913,
                        -0.04725661873817444,
                        0.056002724915742874,
                        -0.010712324641644955,
                        -0.01508778054267168,
                        -0.05024684965610504,
                        -0.04565653204917908,
                        -0.04510066658258438,
                        -0.018589027225971222,
                        0.011915702372789383,
                        -0.00019695336231961846,
                        -0.019083868712186813,
                        -0.05609377101063728,
                        0.06024962291121483,
                        0.07292930781841278,
                        -0.08733826875686646,
                        -0.028202218934893608,
                        0.049825821071863174,
                        -0.07433310151100159,
                        0.011934096924960613,
                        -0.012518668547272682,
                        -0.03487912565469742,
                        -0.02091153897345066,
                        -0.00374280521646142,
                        0.015108542516827583,
                        -0.07871395349502563,
                        -0.03007592260837555,
                        -0.015413128770887852,
                        -0.00144270621240139,
                        -0.01581062749028206,
                        0.07737980782985687,
                        -0.030111072584986687,
                        0.05712499842047691,
                        0.01087096892297268,
                        -0.05754951387643814,
                        -0.049299824982881546,
                        -0.014087709598243237,
                        0.030584260821342468,
                        -0.14163906872272491,
                        -0.00029417904443107545,
                        0.029053525999188423,
                        -0.06883753091096878,
                        0.051409509032964706,
                        0.02825082466006279,
                        -0.061027783900499344,
                        0.08648284524679184,
                        -0.02003234438598156,
                        -0.04448123276233673,
                        -0.06295333802700043,
                        -0.06267014145851135,
                        0.05729866772890091,
                        -0.034772954881191254,
                        0.01587028056383133,
                        -0.015435127541422844,
                        0.05145108699798584,
                        -0.04295031726360321,
                        0.0328369177877903,
                        -0.004914472345262766,
                        -0.004752983804792166
                    ],
                    [
                        -0.008427310734987259,
                        0.015735656023025513,
                        0.035397566854953766,
                        0.027950873598456383,
                        0.06978266686201096,
                        -0.017716068774461746,
                        0.11401522159576416,
                        0.025891579687595367,
                        0.05141017958521843,
                        -0.08804835379123688,
                        -0.033030346035957336,
                        -0.009315173141658306,
                        -0.07172971963882446,
                        -0.025998927652835846,
                        0.0242238100618124,
                        0.053611259907484055,
                        0.051346857100725174,
                        0.08720531314611435,
                        -0.002614878350868821,
                        0.004851350095123053,
                        0.08144950121641159,
                        0.01618952490389347,
                        0.0984780490398407,
                        -0.14074042439460754,
                        -0.05549583584070206,
                        0.060261741280555725,
                        0.015509982593357563,
                        -7.689621270401403e-06,
                        -0.023442989215254784,
                        0.05677180364727974,
                        0.03568960353732109,
                        -0.056320223957300186,
                        0.050350069999694824,
                        0.03567642718553543,
                        -0.09243649244308472,
                        0.034090183675289154,
                        -0.028231246396899223,
                        0.03842185437679291,
                        0.05322303995490074,
                        -0.0030357232317328453,
                        -0.06495767831802368,
                        -0.05969313159584999,
                        0.028071079403162003,
                        0.012171451933681965,
                        0.021679984405636787,
                        0.0035030203871428967,
                        -0.0011804525274783373,
                        0.08107312768697739,
                        0.0012150057591497898,
                        -0.12465900182723999,
                        -0.02232103981077671,
                        0.049030859023332596,
                        0.03395165503025055,
                        0.01859460584819317,
                        -0.029390890151262283,
                        0.10527531057596207,
                        0.01642654277384281,
                        0.06083514913916588,
                        -0.059272650629282,
                        0.09156094491481781,
                        0.016257040202617645,
                        -0.013844476081430912,
                        -0.010215763933956623,
                        -0.0023641218431293964
                    ],
                    [
                        -0.06375262886285782,
                        0.03578856959939003,
                        0.07124162465333939,
                        0.05660375580191612,
                        0.004896336235105991,
                        0.049990344792604446,
                        0.042697545140981674,
                        -0.04164253920316696,
                        0.065618135035038,
                        -0.051181912422180176,
                        -0.08207034319639206,
                        0.0008778614574111998,
                        -0.04195817932486534,
                        -0.04208837077021599,
                        -0.06766649335622787,
                        0.033213429152965546,
                        0.06855278462171555,
                        0.006831575185060501,
                        -0.009948733262717724,
                        -0.0015608170069754124,
                        0.05583404004573822,
                        -0.15639656782150269,
                        0.0570979043841362,
                        -0.04391026124358177,
                        0.008848099038004875,
                        -0.08095225691795349,
                        0.03317868337035179,
                        -0.13514640927314758,
                        -0.2287391722202301,
                        0.020606204867362976,
                        -0.021915262565016747,
                        -0.02362208254635334,
                        0.11878934502601624,
                        0.11088389158248901,
                        -0.08633266389369965,
                        0.0660356730222702,
                        0.10062936693429947,
                        -0.06373293697834015,
                        0.045528821647167206,
                        -0.0006676145712845027,
                        -0.08982726186513901,
                        -0.04593998193740845,
                        -0.04789792001247406,
                        0.04564971104264259,
                        0.12676137685775757,
                        0.0854426845908165,
                        -0.013154556974768639,
                        0.03411471098661423,
                        0.10333804786205292,
                        -0.07313185185194016,
                        -0.05952177941799164,
                        0.0712449923157692,
                        -0.02789299003779888,
                        0.061276551336050034,
                        -0.019280025735497475,
                        0.09729357063770294,
                        0.015444865450263023,
                        0.025110745802521706,
                        -0.070660799741745,
                        0.07466033846139908,
                        -0.07406666874885559,
                        -0.02692975290119648,
                        -0.034731585532426834,
                        -0.15907727181911469
                    ],
                    [
                        -0.05288023501634598,
                        -0.0008008868317119777,
                        -0.07420679181814194,
                        0.0025048672687262297,
                        -0.12204776704311371,
                        -0.11233887821435928,
                        -0.04134582355618477,
                        -0.0036084139719605446,
                        0.022364813834428787,
                        0.13000650703907013,
                        -0.023656325414776802,
                        -0.07747252285480499,
                        0.08307112008333206,
                        -0.05405229702591896,
                        -0.05773509666323662,
                        -0.04176989197731018,
                        -0.1283571869134903,
                        0.022811386734247208,
                        0.0969918891787529,
                        0.0675385594367981,
                        -0.1264188140630722,
                        0.08274941146373749,
                        -0.035231102257966995,
                        -0.02417703904211521,
                        0.1122206598520279,
                        0.009183390997350216,
                        -0.1400650143623352,
                        0.06388026475906372,
                        -0.009679471142590046,
                        0.02095242403447628,
                        0.02326519414782524,
                        -0.019043872132897377,
                        -0.0726189911365509,
                        -0.0791444405913353,
                        0.014824076555669308,
                        -0.10660872608423233,
                        -0.11254245042800903,
                        -0.0253630168735981,
                        -0.022744927555322647,
                        0.0489017516374588,
                        0.06341025233268738,
                        0.03520505502820015,
                        0.09568381309509277,
                        0.028034605085849762,
                        -0.10351648181676865,
                        -0.03466583415865898,
                        0.004235278815031052,
                        -0.07019966095685959,
                        0.023774592205882072,
                        0.029185865074396133,
                        -0.010045290924608707,
                        -0.03053777478635311,
                        0.027400482445955276,
                        -0.0011721814516931772,
                        0.10742449015378952,
                        -0.03962312638759613,
                        -0.03535802289843559,
                        -0.05005320906639099,
                        0.08953642845153809,
                        0.004911558236926794,
                        -0.02556690201163292,
                        0.12734109163284302,
                        0.024411262944340706,
                        0.14424428343772888
                    ],
                    [
                        0.028712328523397446,
                        -0.02864363230764866,
                        -0.08603327721357346,
                        0.027714625000953674,
                        -0.001808556029573083,
                        0.018568819388747215,
                        -0.04140334576368332,
                        -0.04369627684354782,
                        -0.016854630783200264,
                        -0.013656515628099442,
                        -0.018716931343078613,
                        -0.17875494062900543,
                        0.05585801228880882,
                        -0.05154380202293396,
                        0.03704458475112915,
                        -0.07856956869363785,
                        0.10662733018398285,
                        -0.041271042078733444,
                        0.08301006257534027,
                        0.012055907398462296,
                        -0.01635776460170746,
                        0.05673019960522652,
                        -0.029600003734230995,
                        -0.030965257436037064,
                        0.07491263747215271,
                        0.07014269381761551,
                        -0.03646043315529823,
                        0.002320166677236557,
                        0.01989242061972618,
                        -0.0004306136106606573,
                        0.02775898016989231,
                        -0.012629982084035873,
                        -0.042995356023311615,
                        0.013989918865263462,
                        0.00902535393834114,
                        -0.113543301820755,
                        0.06044323742389679,
                        -0.16544826328754425,
                        -0.01480329129844904,
                        0.04758492857217789,
                        0.12382170557975769,
                        0.02960476651787758,
                        0.13643160462379456,
                        -0.01656407117843628,
                        0.020906949415802956,
                        -0.0009293330949731171,
                        0.03806964308023453,
                        -0.046320971101522446,
                        -0.053917065262794495,
                        0.0945417508482933,
                        0.04679859057068825,
                        -0.09745710343122482,
                        0.11814748495817184,
                        -0.1331932246685028,
                        0.03111272305250168,
                        -0.02640509605407715,
                        0.13003063201904297,
                        -0.05428852140903473,
                        0.0010818574810400605,
                        -0.1520252674818039,
                        0.0809752568602562,
                        0.13459673523902893,
                        0.051297370344400406,
                        0.0581754632294178
                    ],
                    [
                        -0.0005252395058050752,
                        0.08708133548498154,
                        0.06079409271478653,
                        -0.018801337108016014,
                        0.035423099994659424,
                        0.055315591394901276,
                        0.10601288080215454,
                        0.08422203361988068,
                        0.03665996342897415,
                        -0.032546043395996094,
                        -0.05391239374876022,
                        0.11823735386133194,
                        -0.022575195878744125,
                        0.054951101541519165,
                        0.0013124039396643639,
                        0.05950357764959335,
                        -0.0007006012601777911,
                        0.05709544196724892,
                        -0.036119405180215836,
                        -0.054729193449020386,
                        -0.0003504463529679924,
                        0.005301313940435648,
                        0.010341539978981018,
                        0.0028590455185621977,
                        0.06228012964129448,
                        -0.0682426169514656,
                        -0.0014470804017037153,
                        -0.01166603621095419,
                        0.01729954406619072,
                        -0.02279048040509224,
                        -0.045460645109415054,
                        -0.01303187943994999,
                        0.06907232105731964,
                        0.08619056642055511,
                        -0.012725524604320526,
                        0.003625328652560711,
                        0.053012337535619736,
                        0.052226096391677856,
                        -0.016514256596565247,
                        -0.004369557835161686,
                        -0.11267205327749252,
                        -0.07542067021131516,
                        -0.043756455183029175,
                        0.06436223536729813,
                        0.05302431061863899,
                        0.07668062299489975,
                        -0.06430872529745102,
                        0.030243240296840668,
                        -0.10644695162773132,
                        -0.08071065694093704,
                        -0.12716960906982422,
                        0.0004416141891852021,
                        -0.07194754481315613,
                        0.03145645558834076,
                        -0.08644586056470871,
                        0.059283167123794556,
                        -0.05999414250254631,
                        -0.09232548624277115,
                        0.00737710390239954,
                        -0.004852716811001301,
                        0.0307481549680233,
                        -0.09875373542308807,
                        -0.08974763005971909,
                        -0.02491276152431965
                    ],
                    [
                        -0.03829910233616829,
                        0.07598546892404556,
                        0.1081228256225586,
                        -0.0688852071762085,
                        0.0561998225748539,
                        0.09931506216526031,
                        0.044292107224464417,
                        0.07750245928764343,
                        0.07847871631383896,
                        -0.11857310682535172,
                        -0.06924055516719818,
                        0.1538713127374649,
                        -0.08796016126871109,
                        0.06890914589166641,
                        -0.09897144138813019,
                        0.08134249597787857,
                        -0.05251886323094368,
                        0.037839192897081375,
                        -0.14865218102931976,
                        -0.14200638234615326,
                        0.09904947131872177,
                        -0.14130352437496185,
                        -0.02049144357442856,
                        -0.07258693873882294,
                        -0.06538448482751846,
                        -0.08272659033536911,
                        0.010752016678452492,
                        0.02111562341451645,
                        0.008983421139419079,
                        0.014476139098405838,
                        -0.06861726194620132,
                        -0.0731453001499176,
                        0.17984312772750854,
                        0.0434420220553875,
                        -0.16181613504886627,
                        0.03781770169734955,
                        0.004066120367497206,
                        -0.008929474279284477,
                        0.03873216360807419,
                        0.03279247507452965,
                        -0.002195660723373294,
                        -0.05189431086182594,
                        -0.06258779019117355,
                        0.08661264181137085,
                        0.06853312253952026,
                        0.07620908319950104,
                        -0.031080227345228195,
                        -0.09496952593326569,
                        0.028298301622271538,
                        -0.05535970255732536,
                        -0.05783162638545036,
                        0.08903664350509644,
                        -0.05361242592334747,
                        0.05825470760464668,
                        -0.05357135087251663,
                        0.01770869642496109,
                        -0.16777239739894867,
                        0.04310368001461029,
                        0.04872975870966911,
                        0.08434917777776718,
                        -0.042185164988040924,
                        -0.06445600837469101,
                        0.028660563752055168,
                        0.02817741595208645
                    ],
                    [
                        0.1434718370437622,
                        -0.16915984451770782,
                        -0.13416209816932678,
                        -0.05255977436900139,
                        -0.10751830786466599,
                        -0.036961209028959274,
                        -0.14158298075199127,
                        -0.13284718990325928,
                        -0.01889941282570362,
                        0.08608517795801163,
                        0.053382508456707,
                        -0.12974606454372406,
                        0.07160881906747818,
                        -0.02911294996738434,
                        0.16746172308921814,
                        -0.09938067197799683,
                        0.06814642995595932,
                        -0.1566482037305832,
                        0.055888962000608444,
                        0.154575377702713,
                        -0.09447389841079712,
                        0.13279713690280914,
                        -0.07585084438323975,
                        0.04352685436606407,
                        0.06649353355169296,
                        0.22847481071949005,
                        -0.07229545712471008,
                        0.14640453457832336,
                        0.051060751080513,
                        -0.030124101787805557,
                        0.1497880220413208,
                        0.0993087887763977,
                        -0.18807855248451233,
                        -0.12270800769329071,
                        0.09523051232099533,
                        -0.11224978417158127,
                        0.0005624954355880618,
                        -0.15734495222568512,
                        -0.1589588224887848,
                        0.12454284727573395,
                        0.10014098882675171,
                        0.14476336538791656,
                        0.14917714893817902,
                        -0.12977299094200134,
                        -0.09833917021751404,
                        -0.1732921600341797,
                        0.008071224205195904,
                        -0.1255573034286499,
                        0.033015161752700806,
                        0.11375532299280167,
                        0.023971637710928917,
                        -0.05542889982461929,
                        0.187486931681633,
                        -0.08765783160924911,
                        0.11174485087394714,
                        -0.04744672402739525,
                        0.1650083214044571,
                        -0.155259907245636,
                        0.07999003678560257,
                        -0.011238480918109417,
                        0.16335618495941162,
                        0.18747135996818542,
                        0.04222714900970459,
                        0.1953243911266327
                    ],
                    [
                        0.12606865167617798,
                        -0.10919325798749924,
                        -0.13214358687400818,
                        0.03602013364434242,
                        -0.1678505837917328,
                        -0.1657276600599289,
                        -0.03991701081395149,
                        -0.10407422482967377,
                        -0.12974868714809418,
                        0.22716575860977173,
                        0.05663461983203888,
                        -0.14854766428470612,
                        0.1790122389793396,
                        0.007251421455293894,
                        0.14880971610546112,
                        -0.15561549365520477,
                        0.019265757873654366,
                        -0.12237067520618439,
                        0.07616742700338364,
                        0.10124237090349197,
                        -0.03410504385828972,
                        0.007550818379968405,
                        -0.07365406304597855,
                        0.07977361232042313,
                        0.17232254147529602,
                        0.08392009139060974,
                        -0.02278728596866131,
                        0.18876327574253082,
                        0.11535149812698364,
                        -0.05509626492857933,
                        0.12834405899047852,
                        0.09283293783664703,
                        -0.10083407163619995,
                        -0.07978971302509308,
                        0.12445826083421707,
                        -0.10757063329219818,
                        -0.10421191900968552,
                        -0.09518299251794815,
                        -0.10199082642793655,
                        0.06518620252609253,
                        0.08179450035095215,
                        0.19035468995571136,
                        0.11201998591423035,
                        -0.2196655422449112,
                        -0.10786545276641846,
                        -0.06003094092011452,
                        0.04930366575717926,
                        -0.09486453235149384,
                        -0.06494140625,
                        0.08774665743112564,
                        0.1334652453660965,
                        -0.13644610345363617,
                        0.14624567329883575,
                        -0.03277948498725891,
                        0.15052157640457153,
                        -0.059450581669807434,
                        0.10838992893695831,
                        -0.17559614777565002,
                        0.003920361399650574,
                        -0.14886435866355896,
                        0.17326532304286957,
                        0.06811793148517609,
                        0.12085019797086716,
                        0.1656377911567688
                    ],
                    [
                        0.1360834538936615,
                        -0.11962205916643143,
                        -0.07498614490032196,
                        -0.029530394822359085,
                        -0.04729614406824112,
                        -0.13439051806926727,
                        -0.04075618088245392,
                        -0.058729514479637146,
                        0.020567791536450386,
                        0.14830917119979858,
                        0.09246135503053665,
                        -0.020633306354284286,
                        0.08776486665010452,
                        -0.03323788940906525,
                        0.10858026146888733,
                        -0.1162552535533905,
                        -0.01761101558804512,
                        0.004512309562414885,
                        0.1954813450574875,
                        0.027180656790733337,
                        0.018237529322504997,
                        0.14573578536510468,
                        -0.10438045114278793,
                        -0.04221365228295326,
                        0.1025964543223381,
                        0.07364699244499207,
                        -0.06233552470803261,
                        0.09216379374265671,
                        0.03653242811560631,
                        0.006977601442486048,
                        0.11820247769355774,
                        0.11713451892137527,
                        -0.023982752114534378,
                        -0.09010902792215347,
                        0.12344003468751907,
                        -0.030932119116187096,
                        -0.14019452035427094,
                        0.00881541520357132,
                        -0.06566786766052246,
                        0.11380132287740707,
                        0.02955438569188118,
                        0.07563036680221558,
                        0.055339913815259933,
                        -0.09379292279481888,
                        -0.012232902459800243,
                        -0.05809933692216873,
                        0.08481001853942871,
                        -0.07690631598234177,
                        -0.029369333758950233,
                        0.11458989977836609,
                        -0.014162286184728146,
                        -0.013132212683558464,
                        0.0944458469748497,
                        -0.038012776523828506,
                        0.0019790621008723974,
                        -0.06858231872320175,
                        0.07047118246555328,
                        -0.007478614803403616,
                        0.037469252943992615,
                        -0.05143246799707413,
                        0.11827398836612701,
                        0.11340445280075073,
                        0.09781116992235184,
                        0.09479597955942154
                    ],
                    [
                        -0.1387973129749298,
                        0.04950843006372452,
                        0.13563278317451477,
                        0.02204475924372673,
                        0.02206665836274624,
                        0.16319453716278076,
                        0.1279679387807846,
                        0.052908264100551605,
                        0.11809398978948593,
                        -0.033945322036743164,
                        -0.029427938163280487,
                        0.15193313360214233,
                        -0.05858156457543373,
                        0.03385033458471298,
                        -0.14101141691207886,
                        0.11727999150753021,
                        -0.07597275078296661,
                        0.03291428089141846,
                        -0.07440517842769623,
                        0.004194742534309626,
                        0.11901713162660599,
                        -0.036053501069545746,
                        0.15872016549110413,
                        -0.042050011456012726,
                        -0.10921978205442429,
                        -0.03685421124100685,
                        0.13182520866394043,
                        -0.15111441910266876,
                        -0.03307649493217468,
                        0.02800888381898403,
                        -0.19316048920154572,
                        -0.11309235543012619,
