{
    "in_shape": [
        null,
        1
    ],
    "layers": [
        {
            "type": "dense",
            "activation": "",
            "shape": [
                null,
                64
            ],
            "weights": [
                [
                    [
                        0.041390202939510345,
                        -0.8699737787246704,
                        0.274970144033432,
                        0.9249531030654907,
                        1.1251386404037476,
                        -0.3016221225261688,
                        -0.05654311925172806,
                        -0.05361497774720192,
                        0.02557394839823246,
                        -0.028576165437698364,
                        -0.0031078357715159655,
                        -0.7863534688949585,
                        -0.014322157949209213,
                        1.028009295463562,
                        0.01277275662869215,
                        0.019875837489962578,
                        -0.5543671250343323,
                        0.5740625858306885,
                        -0.8193723559379578,
                        -0.5675539374351501,
                        -0.5150507092475891,
                        -0.9750238060951233,
                        0.0016179844969883561,
                        -0.7848873734474182,
                        -0.7953985929489136,
                        0.7863558530807495,
                        0.8631929755210876,
                        0.9611825942993164,
                        -0.9021769762039185,
                        0.4376368224620819,
                        -0.02359902672469616,
                        -0.4737990200519562,
                        -0.006059669889509678,
                        -0.9704082012176514,
                        -0.4663505554199219,
                        1.0485637187957764,
                        -0.6478212475776672,
                        -0.8749926090240479,
                        0.8565587997436523,
                        -0.8260501623153687,
                        0.00563462870195508,
                        0.8858740925788879,
                        0.035421695560216904,
                        -0.01845795102417469,
                        0.0320436991751194,
                        -0.00863934587687254,
                        0.4096516966819763,
                        -0.006629324983805418,
                        -1.082593560218811,
                        0.8292903304100037,
                        -0.9021138548851013,
                        -0.8011369109153748,
                        0.013387398794293404,
                        0.7765389084815979,
                        -0.9114579558372498,
                        0.8591064810752869,
                        -0.8715786933898926,
                        0.011098713614046574,
                        0.8213579654693604,
                        0.002659486373886466,
                        0.7682622075080872,
                        -0.02781478688120842,
                        0.8207947015762329,
                        1.033308506011963
                    ]
                ],
                [
                    -0.0476316474378109,
                    0.020045462995767593,
                    0.07991902530193329,
                    0.06882057338953018,
                    0.08479530364274979,
                    -0.09647553414106369,
                    -0.06877564638853073,
                    -0.05165201053023338,
                    -0.02631470002233982,
                    -0.04244273528456688,
                    -0.041078101843595505,
                    0.01216731034219265,
                    -0.013606466352939606,
                    0.07680006325244904,
                    -0.02436251938343048,
                    -0.04834931716322899,
                    -0.06805789470672607,
                    -0.0487394779920578,
                    0.018952930346131325,
                    -0.15353955328464508,
                    -0.0612974539399147,
                    0.039703868329524994,
                    -0.012426394037902355,
                    0.017963971942663193,
                    0.017771165817975998,
                    0.04361851513385773,
                    0.04766736552119255,
                    0.0555962473154068,
                    0.03481390327215195,
                    -0.1688547283411026,
                    -0.05659959465265274,
                    -0.22745873034000397,
                    -0.05316236615180969,
                    0.022266700863838196,
                    -0.22511640191078186,
                    0.07888025790452957,
                    -0.005636119749397039,
                    0.019866714254021645,
                    0.04738897457718849,
                    0.019265906885266304,
                    -0.008916760794818401,
                    0.049093097448349,
                    -0.03568040952086449,
                    -0.025006256997585297,
                    -0.10473652184009552,
                    -0.0632224828004837,
                    -0.15901857614517212,
                    -0.04258367046713829,
                    0.05563153326511383,
                    -0.03072042390704155,
                    0.03556220978498459,
                    0.017736168578267097,
                    -0.06780318170785904,
                    -0.040093567222356796,
                    0.02103349007666111,
                    0.049413710832595825,
                    0.034476298838853836,
                    -0.07878010720014572,
                    0.04722365364432335,
                    -0.03555822744965553,
                    -0.0595090351998806,
                    -0.02641787938773632,
                    0.0349871888756752,
                    0.05973673611879349
                ]
            ]
        },
        {
            "type": "activation",
            "activation": "relu",
            "shape": [
                null,
                64
            ],
            "weights": []
        },
        {
            "type": "dense",
            "activation": "",
            "shape": [
                null,
                64
            ],
            "weights": [
                [
                    [
                        -0.038742732256650925,
                        -0.03975531458854675,
                        0.02718297950923443,
                        -0.075539730489254,
                        -0.05435378476977348,
                        0.0454210601747036,
                        -0.008974775671958923,
                        0.05005853995680809,
                        -0.006244008429348469,
                        0.09330746531486511,
                        -0.06844870001077652,
                        -0.006577546242624521,
                        -0.10764213651418686,
                        -0.08521296828985214,
                        0.08814793080091476,
                        -0.01715089939534664,
                        0.03591042757034302,
                        -0.024980269372463226,
                        0.04367869347333908,
                        -0.05067640170454979,
                        0.025080857798457146,
                        0.02231374941766262,
                        -0.05870366841554642,
                        0.027390766888856888,
                        -0.027824295684695244,
                        0.08669628947973251,
                        0.05825478583574295,
                        0.028155619278550148,
                        0.04899634048342705,
                        -0.01020059920847416,
                        -0.0354643240571022,
                        0.002819045213982463,
                        -0.0006198923802003264,
                        0.016720963642001152,
                        0.033369868993759155,
                        -0.037552811205387115,
                        -0.002911948598921299,
                        -0.0017423293320462108,
                        -0.006933575961738825,
                        0.1632213443517685,
                        0.011800006031990051,
                        0.0032448440324515104,
                        -0.08990073949098587,
                        0.03381067141890526,
                        -0.00585078215226531,
                        0.04789145663380623,
                        0.008771882392466068,
                        0.056756503880023956,
                        0.0045619229786098,
                        -0.09137563407421112,
                        -0.023294297978281975,
                        -0.013780757784843445,
                        0.011737622320652008,
                        -0.006680299993604422,
                        -0.01133593451231718,
                        0.00069417804479599,
                        -0.005515933968126774,
                        0.03945840522646904,
                        -0.05486242100596428,
                        0.02700314298272133,
                        -0.07852169871330261,
                        0.05380783602595329,
                        0.09113519638776779,
                        0.025582149624824524
                    ],
                    [
                        0.21037815511226654,
                        -0.1327272355556488,
                        -0.04291675239801407,
                        -0.039909861981868744,
                        0.09438898414373398,
                        0.08144240826368332,
                        0.11505255103111267,
                        -0.08219906687736511,
                        -0.09790454059839249,
                        0.1881026178598404,
                        -0.014172968454658985,
                        -0.04159754887223244,
                        -0.005641749128699303,
                        0.009826633147895336,
                        -0.0956014022231102,
                        -0.1670648157596588,
                        -0.1516299694776535,
                        -0.03370719775557518,
                        -0.0013936011819168925,
                        -0.014280453324317932,
                        0.007657245267182589,
                        0.14821331202983856,
                        0.10100610554218292,
                        -0.21761155128479004,
                        0.18452724814414978,
                        -0.06291709840297699,
                        -0.239742711186409,
                        0.018784137442708015,
                        0.03952845185995102,
                        0.10656774044036865,
                        0.036592304706573486,
                        -0.02853853814303875,
                        -0.18027813732624054,
                        0.01366620697081089,
                        -0.13746324181556702,
                        0.22339847683906555,
                        0.0043276771903038025,
                        -0.1378994733095169,
                        -0.03456329554319382,
                        -0.10039059817790985,
                        -0.011504224501550198,
                        -0.006965485867112875,
                        -0.03024829737842083,
                        0.0381595753133297,
                        0.04374754801392555,
                        0.22320495545864105,
                        0.07340987771749496,
                        -0.04428083077073097,
                        -0.22348663210868835,
                        0.028887750580906868,
                        0.21178779006004333,
                        0.016750436276197433,
                        -0.010923494584858418,
                        -0.021244052797555923,
                        0.03565803915262222,
                        0.05165499448776245,
                        -0.0839063823223114,
                        -0.0322137288749218,
                        -0.007012949325144291,
                        0.16926635801792145,
                        0.21456409990787506,
                        -0.03139156103134155,
                        0.04424678161740303,
                        -0.120378278195858
                    ],
                    [
                        0.012390055693686008,
                        -0.02445046976208687,
                        -0.0744318813085556,
                        -0.007022816222161055,
                        -0.2561827600002289,
                        0.0749414786696434,
                        0.022199058905243874,
                        0.049485597759485245,
                        0.099195696413517,
                        0.07568928599357605,
                        -0.060813501477241516,
                        -0.007475766818970442,
                        -0.04744569584727287,
                        -0.06693822890520096,
                        0.06287993490695953,
                        -0.07243846356868744,
                        -0.028037114068865776,
                        -0.009111846797168255,
                        0.04293926805257797,
                        0.02189168892800808,
                        0.1065259799361229,
                        -0.006439401302486658,
                        0.09701238572597504,
                        0.07564640790224075,
                        0.08585331588983536,
                        0.12184816598892212,
                        -0.08464229851961136,
                        0.032671477645635605,
                        0.05405373126268387,
                        -0.07545220851898193,
                        0.04038069769740105,
                        0.030991211533546448,
                        -0.03313049301505089,
                        -0.002830259269103408,
                        0.0957273542881012,
                        0.027292296290397644,
                        0.02998119592666626,
                        0.019088003784418106,
                        -0.020879551768302917,
                        -0.026255499571561813,
                        -0.09109755605459213,
                        -0.016225697472691536,
                        -0.3235524892807007,
                        0.036165185272693634,
                        0.050098951905965805,
                        -0.6392977237701416,
                        0.051716405898332596,
                        0.006117726676166058,
                        -0.09040331840515137,
                        -0.07415036112070084,
                        -0.6345896124839783,
                        -0.06244904547929764,
                        -0.032126203179359436,
                        0.04241225868463516,
                        0.061102185398340225,
                        0.04661131650209427,
                        -0.031722236424684525,
                        0.09629155695438385,
                        0.005054926034063101,
                        0.015097755938768387,
                        0.02067192643880844,
                        -0.022024188190698624,
                        -0.08145806938409805,
                        -0.09531829506158829
                    ],
                    [
                        -0.17308227717876434,
                        0.033616624772548676,
                        0.0846564993262291,
                        0.07484744489192963,
                        -0.08779773861169815,
                        -0.5493335127830505,
                        -0.12021013349294662,
                        0.26076674461364746,
                        0.29445797204971313,
                        -0.26168468594551086,
                        0.02447899803519249,
                        -0.2536219358444214,
                        0.01998387835919857,
                        -0.006133722141385078,
                        0.2585105001926422,
                        0.05879396200180054,
                        0.057122182101011276,
                        0.005860499572008848,
                        0.1312640905380249,
                        -0.054163433611392975,
                        -0.052290428429841995,
                        -0.1913301646709442,
                        -0.2778324484825134,
                        0.18869727849960327,
                        -0.03383666276931763,
                        0.2614337205886841,
                        -0.017816156148910522,
                        -0.014928983524441719,
                        -0.42336392402648926,
                        -0.26936084032058716,
                        -0.5009556412696838,
                        -0.022616438567638397,
                        -0.010145017877221107,
                        0.024549908936023712,
                        0.07316511124372482,
                        -0.17292071878910065,
                        -0.03200814127922058,
                        0.013255634345114231,
                        0.22415417432785034,
                        0.02313697151839733,
                        -0.02823813073337078,
                        0.00470162695273757,
                        0.15769298374652863,
                        -0.055669497698545456,
                        -0.703368067741394,
                        -0.07289133220911026,
                        -0.03538503125309944,
                        0.030969688668847084,
                        -0.02777022123336792,
                        -0.019366996362805367,
                        -0.0815882682800293,
                        -0.1744735985994339,
                        -0.028971174731850624,
                        -0.054234519600868225,
                        -0.3047419786453247,
                        0.008248294703662395,
                        -0.02046615444123745,
                        0.05735909938812256,
                        0.03416353091597557,
                        -0.1443929225206375,
                        -0.1564883291721344,
                        0.09166785329580307,
                        0.10085432976484299,
                        0.043877288699150085
                    ],
                    [
                        -0.1992979794740677,
                        0.09992257505655289,
                        -0.03426973521709442,
                        -0.022492310032248497,
                        -0.11121846735477448,
                        -0.4827292561531067,
                        -0.23358657956123352,
                        0.2787472903728485,
                        0.32595422863960266,
                        -0.1671178638935089,
                        -0.013133310712873936,
                        -0.30379971861839294,
                        -0.022750703617930412,
                        0.07085123658180237,
                        0.31149470806121826,
                        0.00859451200813055,
                        0.14003172516822815,
                        -0.07124552875757217,
                        0.11996013671159744,
                        0.019449062645435333,
                        -0.02383059449493885,
                        -0.24030986428260803,
                        -0.34194278717041016,
                        0.27461427450180054,
                        -0.2681161165237427,
                        0.2622888386249542,
                        -0.000991544802673161,
                        -0.027686182409524918,
                        -0.46574583649635315,
                        -0.18631678819656372,
                        -0.6259505152702332,
                        -0.07596076279878616,
                        0.019282743334770203,
                        -0.00432085245847702,
                        0.033992014825344086,
                        -0.2441006749868393,
                        -0.022894224151968956,
                        -0.014418480917811394,
                        0.2770942747592926,
                        0.024557417258620262,
                        -0.0008261385373771191,
                        -0.03910870477557182,
                        0.07924166321754456,
                        -0.06728502362966537,
                        -0.7231734991073608,
                        -0.22020231187343597,
                        -0.0423070527613163,
                        -0.0970362201333046,
                        0.08478661626577377,
                        -0.03747658059000969,
                        -0.1526366025209427,
                        -0.03966890648007393,
                        -0.06257861852645874,
                        -0.010815327987074852,
                        -0.39546915888786316,
                        -0.00028022992773912847,
                        0.012308013625442982,
                        0.010958334431052208,
                        -0.038048405200242996,
                        -0.2980188727378845,
                        -0.11288800835609436,
                        -0.05155909061431885,
                        -0.03603103384375572,
                        0.08532538264989853
                    ],
                    [
                        -0.017768284305930138,
                        -0.13568446040153503,
                        -0.002041675616055727,
                        0.011495254933834076,
                        0.20069977641105652,
                        -0.1753442883491516,
                        -0.0049708811566233635,
                        -0.08694405853748322,
                        0.011331306770443916,
                        -0.12351519614458084,
                        0.027091022580862045,
                        -0.09523189812898636,
                        0.018929244950413704,
                        -0.05181879550218582,
                        -0.03583002835512161,
                        0.05138793960213661,
                        -0.06657114624977112,
                        0.0887947529554367,
                        -0.04714217409491539,
                        0.07064307481050491,
                        -0.017356012016534805,
                        -0.003810728434473276,
                        -0.04152929410338402,
                        -0.058113906532526016,
                        -0.017961576581001282,
                        -0.023941008374094963,
                        0.029457364231348038,
                        -0.028692876920104027,
                        -0.17064030468463898,
                        -0.07725165039300919,
                        -0.28685450553894043,
                        -0.021945854648947716,
                        0.04841768369078636,
                        -0.022428439930081367,
                        0.03272908180952072,
                        -0.0075031728483736515,
                        0.04406299069523811,
                        0.059709709137678146,
                        -0.010438540950417519,
                        -0.04254501685500145,
                        0.02842319943010807,
                        0.043238118290901184,
                        0.07065313309431076,
                        0.07759068161249161,
                        -0.16386361420154572,
                        -0.05156978592276573,
                        0.0037567149847745895,
                        0.009641772136092186,
                        -0.03893366456031799,
                        -0.0443299300968647,
                        -0.12058699131011963,
                        -0.045666929334402084,
                        -0.07878013700246811,
                        -0.033943645656108856,
                        -0.11496330052614212,
                        0.09740688651800156,
                        -0.03625735267996788,
                        0.023979084566235542,
                        -0.02682708576321602,
                        -0.010909181088209152,
                        -0.09777408093214035,
                        -0.061149962246418,
                        0.0359640046954155,
                        -0.10367511957883835
                    ],
                    [
                        0.02150776982307434,
                        -0.011742696166038513,
                        -0.05304011330008507,
                        -0.017984289675951004,
                        -0.13397936522960663,
                        0.012041814625263214,
                        -0.014365662820637226,
                        -0.032716043293476105,
                        -0.04118519648909569,
                        0.026777489110827446,
                        0.11378341168165207,
                        0.04348567873239517,
                        -0.09685017913579941,
                        0.03837713226675987,
                        -0.12460736185312271,
                        0.05492372065782547,
                        0.02386823482811451,
                        0.022479189559817314,
                        -0.0314757414162159,
                        -0.030587056651711464,
                        0.01867334544658661,
                        -0.0439918152987957,
                        -0.0299324132502079,
                        -0.049429114907979965,
                        0.05880739912390709,
                        -0.007752911653369665,
                        0.12032876163721085,
                        0.005347108468413353,
                        0.014996004290878773,
                        0.026947209611535072,
                        0.06820842623710632,
                        0.0076716081239283085,
                        -0.04326547309756279,
                        -0.03876267001032829,
                        -0.04694034159183502,
                        0.027742812409996986,
                        0.003241627709940076,
                        -0.041913777589797974,
                        -0.04892280325293541,
                        0.0025744482409209013,
                        0.029843881726264954,
                        0.01195997092872858,
                        0.07539107650518417,
                        -0.006481258664280176,
                        0.02056225575506687,
                        0.04367702826857567,
                        0.025083914399147034,
                        0.0007872394635342062,
                        -0.060069479048252106,
                        -0.040560685098171234,
                        -0.041189298033714294,
                        0.013848108239471912,
                        0.037757065147161484,
                        0.025232065469026566,
                        -0.01839027740061283,
                        -0.0037580267526209354,
                        -0.012309134006500244,
                        -0.008895456790924072,
                        0.05456412956118584,
                        0.0015272746095433831,
                        -0.0019128002459183335,
                        -0.04365072026848793,
                        0.012280061841011047,
                        -0.006568168755620718
                    ],
                    [
                        -0.0656500905752182,
                        0.09292985498905182,
                        0.012299695983529091,
                        0.03406580910086632,
                        -0.003975332248955965,
                        -0.024367157369852066,
                        0.03521105274558067,
                        -0.009454016573727131,
                        0.019931381568312645,
                        0.02035474218428135,
                        -0.0024430265184491873,
                        -0.04488333314657211,
                        -0.0709114670753479,
                        -0.0516284815967083,
                        0.05992920324206352,
                        0.016918830573558807,
                        0.04322805255651474,
                        -0.03741069138050079,
                        -0.026823153719305992,
                        0.04487679526209831,
                        -0.054342515766620636,
                        -0.10573980212211609,
                        0.007566649932414293,
                        -0.0656990185379982,
                        -0.034951530396938324,
                        0.03377620875835419,
                        0.03528013452887535,
                        0.011507405899465084,
                        -0.02042161487042904,
                        0.04853912815451622,
                        0.01657610572874546,
                        0.01786666549742222,
                        -0.15071053802967072,
                        0.006532157305628061,
                        0.0002003863628488034,
                        -0.06743168830871582,
                        0.050505638122558594,
                        -0.036221716552972794,
                        -0.019307652488350868,
                        0.08257026970386505,
                        0.10884193331003189,
                        0.06511827558279037,
                        0.005850599613040686,
                        -0.009251883253455162,
                        0.03513060510158539,
                        -0.06781341135501862,
                        -0.00026635118410922587,
                        -0.021339725703001022,
                        -0.004479251801967621,
                        0.0102085554972291,
                        0.05638234317302704,
                        0.005613607820123434,
                        -0.07987051457166672,
                        -0.019917957484722137,
                        0.03366457670927048,
                        0.06664338707923889,
                        0.005815614480525255,
                        0.03763584792613983,
                        -0.010324004106223583,
                        -0.045043181627988815,
                        0.015446314588189125,
                        -0.012808360159397125,
                        -0.08264659345149994,
                        -0.022139674052596092
                    ],
                    [
                        0.0013313936069607735,
                        -0.03869486227631569,
                        0.06684195250272751,
                        0.005174659192562103,
                        -0.07797053456306458,
                        0.053878288716077805,
                        -0.011220342479646206,
                        0.07101914286613464,
                        0.015260877087712288,
                        -0.033556871116161346,
                        -0.01987287774682045,
                        0.01236327737569809,
                        -0.011433307081460953,
                        0.028933940455317497,
                        -0.003960943315178156,
                        0.01021877396851778,
                        0.009844861924648285,
                        0.016473613679409027,
                        -0.0054062423296272755,
                        0.04628150537610054,
                        -0.017067372798919678,
                        -0.03036564029753208,
                        -0.028244871646165848,
                        0.054444681853055954,
                        0.006910815369337797,
                        -0.07204605638980865,
                        0.007297011557966471,
                        -0.09073382616043091,
                        -0.02862153761088848,
                        0.004869484808295965,
                        -0.07317035645246506,
                        0.056327421218156815,
                        -0.07244390994310379,
                        0.014955810271203518,
                        -0.03531768545508385,
                        0.08078999817371368,
                        0.032137323170900345,
                        -0.10478027164936066,
                        0.03683215752243996,
                        0.08243151754140854,
                        0.00047131217434071004,
                        -0.08850070834159851,
                        -0.08074956387281418,
                        0.007446575444191694,
                        -0.01711072400212288,
                        0.009366179816424847,
                        0.09305203706026077,
                        -0.013480809517204762,
                        0.056099750101566315,
                        -0.031067226082086563,
                        -0.07668688148260117,
                        -0.07227396219968796,
                        -0.020288845524191856,
                        0.09314810484647751,
                        -0.0126350624486804,
                        0.0626927837729454,
                        0.03612799942493439,
                        0.019166531041264534,
                        -0.001406188472174108,
                        0.001989624695852399,
                        0.059980541467666626,
                        0.0155955720692873,
                        0.004704945255070925,
                        0.029266750440001488
                    ],
                    [
                        0.07364220917224884,
                        0.10544154793024063,
                        -0.03422821685671806,
                        0.026623621582984924,
                        -0.07090585678815842,
                        -0.023230142891407013,
                        -0.01652914099395275,
                        0.0017599556595087051,
                        0.05960046127438545,
                        0.025495756417512894,
                        -0.020193008705973625,
                        -0.09273851662874222,
                        -0.1083253026008606,
                        0.009668701328337193,
                        -0.10680609196424484,
                        0.08867698162794113,
                        -0.07748087495565414,
                        -0.05850214883685112,
                        -0.013855727389454842,
                        -0.019447004422545433,
                        0.00883141066879034,
                        -0.06306201219558716,
                        0.0004994695191271603,
                        0.03580479696393013,
                        0.060295578092336655,
                        -0.1304028034210205,
                        0.10308881849050522,
                        -0.01244365330785513,
                        -0.016115829348564148,
                        0.02592870406806469,
                        0.0001251352805411443,
                        -0.02734794281423092,
                        -0.013822282664477825,
                        0.04603014141321182,
                        0.07812093198299408,
                        -0.09071983397006989,
                        -0.028269825503230095,
                        0.04821579530835152,
                        -0.013322609476745129,
                        -0.07358410954475403,
                        0.10051417350769043,
                        0.012071304954588413,
                        -0.02023683674633503,
                        -0.04652577266097069,
                        -0.11679589748382568,
                        0.058320242911577225,
                        0.06882443279027939,
                        -0.03103433921933174,
                        0.09005939215421677,
                        0.06450383365154266,
                        -0.02702752687036991,
                        -0.07785789668560028,
                        0.03266410157084465,
                        0.05195238068699837,
                        0.0045410096645355225,
                        -0.01836336962878704,
                        0.052585847675800323,
                        -0.008043593727052212,
                        -0.02261490933597088,
                        -0.009803010150790215,
                        -0.021756192669272423,
                        -0.01760706678032875,
                        0.025548717007040977,
                        -0.007490800227969885
                    ],
                    [
                        0.031229257583618164,
                        0.03345136716961861,
                        0.042600296437740326,
                        0.07658407092094421,
                        -0.06643863767385483,
                        0.022178927436470985,
                        0.0009421803406439722,
                        0.03040945529937744,
                        -0.05301082879304886,
                        -0.010531270876526833,
                        -0.008924282155930996,
                        -0.020274845883250237,
                        0.033649738878011703,
                        0.16722168028354645,
                        0.10205446928739548,
                        0.05632423982024193,
                        0.019628887996077538,
                        0.0010214661015197635,
                        0.06160726770758629,
                        -0.027462974190711975,
                        0.0042580063454806805,
                        -0.030339574441313744,
                        0.02022393047809601,
                        -0.013181482441723347,
                        -0.02320833131670952,
                        -0.046880092471838,
                        0.05945463851094246,
                        -0.09911709278821945,
                        0.008276568725705147,
                        -0.10815377533435822,
                        -0.06801881641149521,
                        0.015864519402384758,
                        0.06059851124882698,
                        -0.005462920293211937,
                        0.027552634477615356,
                        -0.04389609023928642,
                        0.06564886122941971,
                        0.0028754458762705326,
                        0.009096696972846985,
                        0.005167012568563223,
                        -0.03063051775097847,
                        -0.021324679255485535,
                        0.04268734157085419,
                        -0.08180608600378036,
                        -0.048837821930646896,
                        -0.04149765893816948,
                        0.05033518001437187,
                        -0.09117215871810913,
                        -0.032383330166339874,
                        -0.0017561743734404445,
                        0.0519576258957386,
                        0.003796004457399249,
                        -0.04314865544438362,
                        -0.051080167293548584,
                        0.0433049313724041,
                        0.011759571731090546,
                        -0.06256326287984848,
                        -0.006452317815274,
                        0.053406085819005966,
                        0.04309600964188576,
                        0.04090659320354462,
                        0.09106778353452682,
                        -0.020979732275009155,
                        0.01522414293140173
                    ],
                    [
                        0.13711224496364594,
                        -0.18562833964824677,
                        -0.04800030216574669,
                        0.04155624285340309,
                        0.06588909775018692,
                        0.01325693167746067,
                        0.10520461201667786,
                        0.10622506588697433,
                        -0.030247468501329422,
                        0.13205671310424805,
                        0.003463046858087182,
                        -0.046244796365499496,
                        -0.09348980337381363,
                        -0.0039910743944346905,
                        0.02027728222310543,
                        -0.11265306919813156,
                        -0.014056759886443615,
                        0.057994771748781204,
                        -0.029790276661515236,
                        0.024727925658226013,
                        0.08050652593374252,
                        0.13956478238105774,
                        0.04044131189584732,
                        0.054821815341711044,
                        0.11083529889583588,
                        -0.035339608788490295,
                        -0.2173978090286255,
                        -0.040310297161340714,
                        -0.011502563953399658,
                        0.10011100769042969,
                        -0.06493905186653137,
                        -0.024546615779399872,
                        -0.1499287635087967,
                        -0.06914015859365463,
                        -0.12150061130523682,
                        0.1756744682788849,
                        0.016320304945111275,
                        -0.0811382383108139,
                        -0.0668143704533577,
                        -0.02532881870865822,
                        -0.009431068785488605,
                        -0.06714774668216705,
                        -0.06365964561700821,
                        -0.006656985264271498,
                        -0.01149340532720089,
                        0.18759852647781372,
                        -0.06065954640507698,
                        -0.04795023798942566,
                        -0.060352589935064316,
                        0.08315244317054749,
                        0.10975033044815063,
                        -0.02372775413095951,
                        -0.020376546308398247,
                        0.05781785026192665,
                        0.0008829390862956643,
                        -0.008730958215892315,
                        -0.05928918719291687,
                        -0.02696865238249302,
                        0.025518596172332764,
                        0.16172219812870026,
                        0.18593691289424896,
                        0.03843975439667702,
                        -0.04632934182882309,
                        -0.1162978783249855
                    ],
                    [
                        -0.05689321085810661,
                        -0.0611303374171257,
                        -0.05033840611577034,
                        0.06972100585699081,
                        0.0415143147110939,
                        0.056466903537511826,
                        -0.02927136979997158,
                        0.03760578855872154,
                        0.05237807333469391,
                        -0.024336649104952812,
                        -0.03470485657453537,
                        0.008237444795668125,
                        0.0146756237372756,
                        -0.011281480081379414,
                        -0.06665761768817902,
                        -0.018891219049692154,
                        -0.05028747394680977,
                        0.07551087439060211,
                        -0.020670771598815918,
                        0.03439832851290703,
                        0.007636745925992727,
                        0.03376637026667595,
                        -0.016929764300584793,
                        0.11252932995557785,
                        -0.016990728676319122,
                        0.045462943613529205,
                        0.0673677921295166,
                        -0.0012676408514380455,
                        0.10300538688898087,
                        0.06947483867406845,
                        0.05808040499687195,
                        -0.11085956543684006,
                        -0.05474414303898811,
                        0.037594493478536606,
                        -0.012098941020667553,
                        -0.06010225787758827,
                        -0.09344039857387543,
                        0.031420182436704636,
                        -0.04485196992754936,
                        0.05903113633394241,
                        -0.013852381147444248,
                        -0.03803957998752594,
                        -0.004310960415750742,
                        -0.04555772617459297,
                        -0.027958743274211884,
                        -0.02241372875869274,
                        0.016321619972586632,
                        0.061083342880010605,
                        0.012203121557831764,
                        -0.017267173156142235,
                        -0.02717948704957962,
                        0.06610656529664993,
                        0.07155367732048035,
                        0.024338025599718094,
                        -0.05412948131561279,
                        0.014614388346672058,
                        0.022719819098711014,
                        -0.012189900502562523,
                        0.010219371877610683,
                        0.041204389184713364,
                        0.01879829354584217,
                        -0.06444715708494186,
                        -0.03804461285471916,
                        0.06431067734956741
                    ],
                    [
                        -0.12004629522562027,
                        0.10690854489803314,
                        -0.009230284951627254,
                        -0.11112653464078903,
                        -0.00926195364445448,
                        -0.6358110904693604,
                        -0.1333034634590149,
                        0.2878207266330719,
                        0.2630988657474518,
                        -0.24465134739875793,
                        -0.04106944426894188,
                        -0.3257073760032654,
                        0.09535396099090576,
                        0.026886627078056335,
                        0.27029481530189514,
                        -0.08019856363534927,
                        0.07975276559591293,
                        -0.11220633238554001,
                        0.13987046480178833,
                        -0.03423304483294487,
                        0.013784082606434822,
                        -0.2830566167831421,
                        -0.3122834861278534,
                        0.2947215735912323,
                        -0.11327408254146576,
                        0.3457229733467102,
                        0.07738620042800903,
                        -0.12420757859945297,
                        -0.48836880922317505,
                        -0.2725618779659271,
                        -0.7055825591087341,
                        0.06897575408220291,
                        0.005602729506790638,
                        -0.019955875352025032,
                        -0.035106658935546875,
                        -0.1873258650302887,
                        -0.03714653477072716,
                        0.029543500393629074,
                        0.25892797112464905,
                        -0.011264747008681297,
                        0.06817501038312912,
                        -0.031091764569282532,
                        0.14894883334636688,
                        -0.10105247795581818,
                        -0.7482544183731079,
                        -0.15258559584617615,
                        -0.05075785517692566,
                        -0.02083447016775608,
                        0.01905636116862297,
                        -0.04897154122591019,
                        -0.034098148345947266,
                        0.016555940732359886,
                        0.012310381047427654,
                        -0.07487394660711288,
                        -0.46341565251350403,
                        0.0253958348184824,
                        0.04546191543340683,
                        0.033121656626462936,
                        -0.030084021389484406,
                        -0.12472507357597351,
                        -0.22603698074817657,
                        0.02081494778394699,
                        0.07099664956331253,
                        0.002403754973784089
                    ],
                    [
                        0.02656741440296173,
                        -0.05908440425992012,
                        0.04303409159183502,
                        0.08233369141817093,
                        -0.0403648316860199,
                        0.010313990525901318,
                        0.034652795642614365,
                        0.08676251024007797,
                        -0.05991614609956741,
                        0.06219932436943054,
                        0.019584601745009422,
                        -0.008293944410979748,
                        0.006410426925867796,
                        -0.003282418241724372,
                        -0.039422523230314255,
                        0.05846279487013817,
                        0.027219075709581375,
                        0.016364073380827904,
                        -0.023890366777777672,
                        -0.10460124164819717,
                        -0.1728077381849289,
                        -0.061536360532045364,
                        -0.024887815117836,
                        0.044756386429071426,
                        0.08915029466152191,
                        0.026174679398536682,
                        -0.06104377657175064,
                        -0.003498141886666417,
                        0.034168850630521774,
                        0.006608221679925919,
                        0.07164790481328964,
                        0.04173227399587631,
                        -0.07080227881669998,
                        0.07887696474790573,
                        -0.05524536967277527,
                        0.01274785865098238,
                        5.1298786274855956e-05,
                        -0.04153210297226906,
                        -0.015383108519017696,
                        0.006680273450911045,
                        0.09585194289684296,
                        -0.03353942185640335,
                        0.026610443368554115,
                        -0.073604516685009,
                        0.08282236009836197,
                        -0.05617566034197807,
                        -0.10648375004529953,
                        0.06224779039621353,
                        0.03079971671104431,
                        -0.06892061978578568,
                        -0.009210546500980854,
                        -0.06747815757989883,
                        -0.08874233812093735,
                        0.11480170488357544,
                        0.015612030401825905,
                        -0.05759505555033684,
                        -0.027623433619737625,
                        0.05977930501103401,
                        -0.033852994441986084,
                        -0.002675577998161316,
                        0.032639481127262115,
                        0.06729836016893387,
                        -0.0716949924826622,
                        0.0021682779770344496
                    ],
                    [
                        0.019580401480197906,
                        0.06927601248025894,
                        0.010098990984261036,
                        -0.0361626073718071,
                        0.03623926267027855,
                        0.01366080529987812,
                        0.06562097370624542,
                        0.031205588951706886,
                        -0.010426617227494717,
                        0.10017186403274536,
                        -0.02510686218738556,
                        -0.03642021864652634,
                        0.022327346727252007,
                        0.007172952871769667,
                        0.022770097479224205,
                        0.006241775117814541,
                        0.00790914986282587,
                        0.05423659086227417,
                        0.026765892282128334,
                        -0.009249750524759293,
                        0.019206270575523376,
                        0.08504536747932434,
                        -0.07077676802873611,
                        0.020134948194026947,
                        0.02423287183046341,
                        0.020909752696752548,
                        0.07353800535202026,
                        -0.09695298224687576,
                        0.051765888929367065,
                        0.11456248909235,
                        -0.011471065692603588,
                        -0.015219854190945625,
                        0.08192211389541626,
                        -0.04953651502728462,
                        -0.031800802797079086,
                        -0.02000909484922886,
                        0.06378106772899628,
                        -0.06256157904863358,
                        -0.03870202228426933,
                        -0.08176974952220917,
                        -0.06420185416936874,
                        0.05086987093091011,
                        0.05600413307547569,
                        0.007844025269150734,
                        0.05621188506484032,
                        0.0634130910038948,
                        0.02697073481976986,
                        -0.0449364148080349,
                        0.05121612548828125,
                        -0.041059043258428574,
                        -0.08068297803401947,
                        -0.02373850718140602,
                        -0.024842936545610428,
                        -0.10347645729780197,
                        0.0036124761682003736,
                        -0.024526208639144897,
                        -0.08705493062734604,
                        0.07414417713880539,
                        0.04406040534377098,
                        0.04480511322617531,
                        0.029129449278116226,
                        -0.060560472309589386,
                        -0.028993049636483192,
                        -0.01603337563574314
                    ],
                    [
                        -0.4014463722705841,
                        0.08616243302822113,
                        -0.011617930606007576,
                        -0.01744227670133114,
                        0.19688823819160461,
                        -0.3661365807056427,
                        -0.27715495228767395,
                        0.009144785813987255,
                        0.05399058386683464,
                        -0.43562930822372437,
                        -0.0006152641144581139,
                        -0.43968501687049866,
                        -0.06762383878231049,
                        -0.03405651077628136,
                        0.07131707668304443,
                        -0.07169251143932343,
                        0.014173248782753944,
                        0.01877279207110405,
                        0.04833589494228363,
                        -0.04377296194434166,
                        -0.10567019134759903,
                        -0.36373481154441833,
                        -0.4263837933540344,
                        -0.05664156749844551,
                        -0.34760287404060364,
                        -0.023792924359440804,
                        -0.03321904316544533,
                        -0.04763459041714668,
                        -0.4350394904613495,
                        -0.38458698987960815,
                        -0.4919885993003845,
                        0.001212241593748331,
                        -0.07514280825853348,
                        -0.03470488637685776,
                        -0.03443417325615883,
                        -0.4342590868473053,
                        0.026114998385310173,
                        0.009056655690073967,
                        -0.02634248696267605,
                        0.07482361793518066,
                        0.07856808602809906,
                        0.0786057785153389,
                        -0.11097734421491623,
                        -0.07157114893198013,
                        -0.6380456686019897,
                        0.012863297015428543,
                        0.04171324148774147,
                        0.010460074990987778,
                        -0.01640748791396618,
                        -0.056116778403520584,
                        0.14348204433918,
                        -0.17583651840686798,
                        0.05888142064213753,
                        -0.23039928078651428,
                        -0.42509111762046814,
                        0.031814683228731155,
                        0.05402936786413193,
                        -0.03587636724114418,
                        -0.010003997944295406,
                        -0.39144590497016907,
                        -0.376491904258728,
                        -0.01597835309803486,
                        0.022351887077093124,
                        -0.028537124395370483
                    ],
                    [
                        0.03293215110898018,
                        0.17551220953464508,
                        -0.02651112712919712,
                        -0.007105056196451187,
                        0.03953222557902336,
                        -0.18358859419822693,
                        0.5234652161598206,
                        0.14846812188625336,
                        0.15305033326148987,
                        0.08210901916027069,
                        -0.03657599911093712,
                        -0.050736699253320694,
                        -0.04694551229476929,
                        0.015049269422888756,
                        0.20572146773338318,
                        -0.046770013868808746,
                        0.15992167592048645,
                        -0.04901456460356712,
                        0.249975323677063,
                        0.0028839230071753263,
                        0.06287048757076263,
                        -0.07788268476724625,
                        -0.041681889444589615,
                        0.22069117426872253,
                        0.005988519638776779,
                        0.19156235456466675,
                        -0.0006507346406579018,
                        0.005333632230758667,
                        -0.0724915862083435,
                        0.006579923443496227,
                        0.18338192999362946,
                        -0.034317150712013245,
                        0.1393934190273285,
                        -0.03474798798561096,
                        -0.0018017521360889077,
                        -0.047535382211208344,
                        0.03551769629120827,
                        0.012380427680909634,
                        0.2241498827934265,
                        -0.1725749522447586,
                        -0.007967433892190456,
                        -0.08005767315626144,
                        0.5728298425674438,
                        -0.0513484850525856,
                        -0.10659598559141159,
                        -0.05369829759001732,
                        -0.0158773772418499,
                        -0.024856124073266983,
                        -0.13052794337272644,
                        -0.026362687349319458,
                        -0.0379159189760685,
                        -0.031106356531381607,
                        -0.01708032749593258,
                        -0.0012562614865601063,
                        -0.11579552292823792,
                        -5.5580180742254015e-06,
                        -0.10654687136411667,
                        -0.00987593550235033,
                        -0.023662585765123367,
                        0.017625944688916206,
                        -0.005751533899456263,
                        0.024571212008595467,
                        0.05707331374287605,
                        -0.076708123087883
                    ],
                    [
                        0.21112433075904846,
                        -0.20665793120861053,
                        0.08874707669019699,
                        -0.018304143100976944,
                        0.07581465691328049,
                        0.032932788133621216,
                        0.1415395885705948,
                        -0.04056652635335922,
                        -0.10064695030450821,
                        0.19635745882987976,
                        -0.03563469275832176,
                        -0.014682280831038952,
                        -0.0028488209936767817,
                        0.03719766065478325,
                        -0.05116929113864899,
                        -0.14600981771945953,
                        -0.1389807015657425,
                        -0.06984829157590866,
                        -0.0047244662418961525,
                        0.017431214451789856,
                        0.05784497410058975,
                        0.09354792535305023,
                        0.012341202236711979,
                        -0.08240054547786713,
                        0.1601177603006363,
                        -0.03323135897517204,
                        -0.14675560593605042,
                        0.021538158878684044,
                        0.06227060779929161,
                        0.1226828321814537,
                        0.10674865543842316,
                        0.0014362862566486,
                        -0.11644811928272247,
                        0.08263213187456131,
                        -0.06587091088294983,
                        0.1634806990623474,
                        0.014103520661592484,
                        -0.09716054797172546,
                        -0.027382051572203636,
                        0.03692679852247238,
                        0.09642579406499863,
                        0.033760569989681244,
                        -0.02682180143892765,
                        -0.06231191009283066,
                        0.0399240143597126,
                        0.23132869601249695,
                        -0.06142687797546387,
                        0.06480583548545837,
                        -0.19465109705924988,
                        -0.007558910176157951,
                        0.13155853748321533,
                        -0.07958988100290298,
                        0.0009048478677868843,
                        -0.09587316960096359,
                        0.06073984131217003,
                        0.0494442842900753,
                        -0.08336946368217468,
                        0.095576710999012,
                        0.004710900131613016,
                        0.22962139546871185,
                        0.19027350842952728,
                        0.00806115660816431,
                        0.025025324895977974,
                        -0.11285733431577682
                    ],
                    [
                        -0.742592990398407,
                        -0.033159200102090836,
                        0.033022355288267136,
                        0.05263708904385567,
                        0.45897218585014343,
                        -0.7221027612686157,
                        -0.6388470530509949,
                        -0.13854511082172394,
                        0.12127619981765747,
                        -0.6014171838760376,
                        -0.015170106664299965,
                        -0.49385368824005127,
                        -0.05892862752079964,
                        0.01214936375617981,
                        -0.032480690628290176,
                        0.02169659547507763,
                        0.056317560374736786,
                        -0.061091113835573196,
                        -0.040730226784944534,
                        0.013217058964073658,
                        0.015143249183893204,
                        -0.6546702980995178,
                        -0.6533319354057312,
                        0.012777511961758137,
                        -0.5818865299224854,
                        0.035710614174604416,
                        0.029584135860204697,
                        0.041673388332128525,
                        -0.6879598498344421,
                        -0.5696876049041748,
                        -1.0292075872421265,
                        0.024416107684373856,
                        -0.0203566737473011,
                        -0.02929328754544258,
                        -0.09207544475793839,
                        -0.6319298148155212,
                        -0.0274587981402874,
                        -0.05165081471204758,
                        0.06794767081737518,
                        -0.044328946620225906,
                        -0.008210994303226471,
                        -0.05327850952744484,
                        0.00955687090754509,
                        0.056112054735422134,
                        -0.5758869051933289,
                        0.40210482478141785,
                        0.012655752710998058,
                        -0.0031899188179522753,
                        0.0159592404961586,
                        -0.0035805099178105593,
                        0.5489363074302673,
                        -0.11330776661634445,
                        -0.033139072358608246,
                        -0.3255944550037384,
                        -0.7260340452194214,
                        0.002214808715507388,
                        -0.057320497930049896,
                        0.06543311476707458,
                        -0.04969203099608421,
                        -0.5421608090400696,
                        -0.5682454109191895,
                        -0.02085059881210327,
                        -0.0458860918879509,
                        0.013295444659888744
                    ],
                    [
                        -0.29142484068870544,
                        -0.10963258147239685,
                        0.08864226192235947,
                        -0.0072733573615550995,
                        0.21837657690048218,
                        -0.3533742129802704,
                        -0.2992897629737854,
                        -0.00011198519496247172,
                        0.05298297852277756,
                        -0.2682501971721649,
                        -0.0029063222464174032,
                        -0.4095246195793152,
                        -0.012623048387467861,
                        0.08174975216388702,
                        -0.08611950278282166,
                        -0.04408121854066849,
                        -0.007289201021194458,
                        0.036379724740982056,
                        -0.04842138662934303,
                        0.048767056316137314,
                        0.036152422428131104,
                        -0.3433355391025543,
                        -0.38607606291770935,
                        -0.06320121139287949,
                        -0.3379962146282196,
                        0.0556170828640461,
                        -0.017006678506731987,
                        0.04391714558005333,
                        -0.4271433353424072,
                        -0.2867804169654846,
                        -0.4630415439605713,
                        0.04448249936103821,
                        0.026361186057329178,
                        -0.04278192296624184,
                        -0.014910848811268806,
                        -0.2674970030784607,
                        -0.014460071921348572,
                        -0.10981691628694534,
                        0.012075229547917843,
                        0.03941946476697922,
                        0.019996657967567444,
                        0.027342308312654495,
                        0.03454127907752991,
                        -0.034295663237571716,
                        -0.5423731803894043,
                        0.046839311718940735,
                        0.023787399753928185,
                        0.0066852690652012825,
                        -0.04633314907550812,
                        0.09044167399406433,
                        0.17792756855487823,
                        -0.11702859401702881,
                        -0.032184991985559464,
                        -0.1881563514471054,
                        -0.3598810136318207,
                        -0.046402107924222946,
                        -0.006386343389749527,
                        0.00415827939286828,
                        0.05160725116729736,
                        -0.17820166051387787,
                        -0.25616341829299927,
                        -0.029682127758860588,
                        0.014001765288412571,
                        0.019894946366548538
                    ],
                    [
                        0.31903204321861267,
                        -0.21894486248493195,
                        -0.032306116074323654,
                        -0.00832193624228239,
                        0.09099102020263672,
                        0.033530399203300476,
                        0.24722909927368164,
                        -0.15110141038894653,
                        -0.10131862014532089,
                        0.19584719836711884,
                        -0.013888346031308174,
                        -0.014816799201071262,
                        -0.005545805674046278,
                        -0.06682906299829483,
                        -0.13725414872169495,
                        -0.09467237442731857,
                        -0.31521421670913696,
                        0.01628071814775467,
                        0.024209419265389442,
                        -0.00878273043781519,
                        0.0072648609057068825,
                        0.23460857570171356,
                        -0.03891913965344429,
                        -0.1443318873643875,
                        0.247073233127594,
                        -0.15696413815021515,
                        -0.2925735414028168,
                        -0.03925197944045067,
                        0.08755161613225937,
                        0.05939701572060585,
                        0.012369404546916485,
                        -0.004830700810998678,
                        -0.2447466403245926,
                        -0.018418174237012863,
                        -0.18750567734241486,
                        0.2276465743780136,
                        -0.04028115049004555,
                        -0.2421305775642395,
                        -0.09808477014303207,
                        -0.1266348659992218,
                        -0.046890854835510254,
                        -0.052809908986091614,
                        -0.09509897232055664,
                        -0.045823533087968826,
                        0.14161942899227142,
                        0.17687813937664032,
                        0.06632031500339508,
                        -0.04301100969314575,
                        -0.3080233335494995,
                        -0.026118079200387,
                        0.09171944111585617,
                        0.04088795930147171,
                        -0.04045068845152855,
                        0.0791396051645279,
                        0.11195032298564911,
                        -0.08728045225143433,
                        -0.1495949923992157,
                        0.009813115000724792,
                        -0.06345395743846893,
                        0.19772352278232574,
                        0.27486780285835266,
                        -0.10371305793523788,
                        -0.07623804360628128,
                        -0.17864109575748444
                    ],
                    [
                        -0.004687464330345392,
                        0.03273677080869675,
                        0.0726785659790039,
                        0.024174941703677177,
                        -0.018651766702532768,
                        0.008714661002159119,
                        -0.060382891446352005,
                        -0.006627489812672138,
                        0.07776043564081192,
                        -0.009795371443033218,
                        0.12536148726940155,
                        0.08830145746469498,
                        0.07263476401567459,
                        0.02822657860815525,
                        -0.012145969085395336,
                        0.022911151871085167,
                        -0.030304251238703728,
                        -0.0223777424544096,
                        -0.02527967095375061,
                        0.0331912599503994,
                        -0.025929182767868042,
                        0.002760158386081457,
                        -0.059396661818027496,
                        -0.06237763911485672,
                        -0.00048529054038226604,
                        -0.004910273011773825,
                        -0.03022797964513302,
                        0.05468127131462097,
                        -0.04587690904736519,
                        -0.024760089814662933,
                        -0.028839632868766785,
                        -0.025837762281298637,
                        -0.013156033121049404,
                        0.029235338792204857,
                        0.028442902490496635,
                        -0.034416284412145615,
                        -0.040277909487485886,
                        0.0919177457690239,
                        0.017253732308745384,
                        -0.046849653124809265,
                        0.03520503267645836,
                        -0.029751339927315712,
                        0.025213932618498802,
                        -0.07952215522527695,
                        -0.03566853702068329,
                        -0.017106974497437477,
                        0.005053764209151268,
                        -8.246323704952374e-05,
                        0.03523441031575203,
                        -0.08017225563526154,
                        0.013422233052551746,
                        -0.01513645239174366,
                        -0.08272035419940948,
                        -0.04472791403532028,
                        0.08217766135931015,
                        -0.015066288411617279,
                        0.03182090446352959,
                        -0.013735951855778694,
                        -0.040392301976680756,
                        0.13197070360183716,
                        0.023343877866864204,
                        -0.0698792114853859,
                        0.03587320074439049,
                        0.06687889248132706
                    ],
                    [
                        0.1443525105714798,
                        -0.06762605160474777,
                        -0.04129534587264061,
                        0.04168436676263809,
                        0.020967558026313782,
                        0.13163161277770996,
                        0.23859302699565887,
                        -0.006764653138816357,
                        -0.013809168711304665,
                        0.03256341814994812,
                        0.09567880630493164,
                        0.009746870025992393,
                        -0.1069047600030899,
                        -0.04181313514709473,
                        0.005322358570992947,
                        -0.20554974675178528,
                        -0.1415332853794098,
                        0.059878624975681305,
                        -0.026131220161914825,
                        0.04328816756606102,
                        -0.0378405824303627,
                        0.2020769715309143,
                        0.04447294399142265,
                        -0.04821225255727768,
                        0.1837693154811859,
                        0.05091862007975578,
                        -0.34053876996040344,
                        0.01376768946647644,
                        0.04140303283929825,
                        0.06754384934902191,
                        -0.03006432205438614,
                        -0.050199367105960846,
                        -0.18991884589195251,
                        0.026495791971683502,
                        -0.17326967418193817,
                        0.20700663328170776,
                        -0.11642203480005264,
                        -0.16572487354278564,
                        -0.10217391699552536,
                        0.032695021480321884,
                        0.028743265196681023,
                        -0.00591213908046484,
                        -0.03355397656559944,
                        -0.017596198245882988,
                        -0.02441442385315895,
                        0.11854669451713562,
                        -0.005259265191853046,
                        -0.009655941277742386,
                        -0.14854590594768524,
                        0.06511528789997101,
                        0.14115875959396362,
                        -0.0011469783494248986,
                        0.06476929783821106,
                        0.03854899853467941,
                        0.038583267480134964,
                        0.018728867173194885,
                        -0.23630085587501526,
                        0.009502789005637169,
                        -0.05316571146249771,
                        0.18176409602165222,
                        0.1402648389339447,
                        -0.022235214710235596,
                        0.02714887447655201,
                        -0.14078474044799805
                    ],
                    [
                        0.12013532221317291,
                        -0.1290482133626938,
                        -0.02364359050989151,
                        0.03852705657482147,
                        0.044235192239284515,
                        -0.0013438127934932709,
                        0.1026487946510315,
                        0.06770654767751694,
                        -0.03499487414956093,
                        0.11583197116851807,
                        -0.11519412696361542,
                        0.12004154920578003,
                        0.031073367223143578,
                        0.019202444702386856,
                        -0.025548359379172325,
                        -0.15315458178520203,
                        -0.1842515468597412,
                        -0.023397810757160187,
                        -0.070011667907238,
                        0.02486589550971985,
                        -0.02573336474597454,
                        0.21315382421016693,
                        -0.02207380346953869,
                        -0.005790345836430788,
                        0.1521265208721161,
                        -0.03026839718222618,
                        -0.12235965579748154,
                        0.06959357112646103,
                        0.046680524945259094,
                        0.11751729249954224,
                        -0.027545128017663956,
                        0.05985305830836296,
                        -0.12421296536922455,
                        0.022878006100654602,
                        -0.15312975645065308,
                        0.18690505623817444,
                        -0.023611316457390785,
                        -0.17020992934703827,
                        -0.1099349856376648,
                        0.0355740562081337,
                        -0.007365452125668526,
                        -0.07541665434837341,
                        -0.0567915216088295,
                        0.09693675488233566,
                        0.03767983987927437,
                        0.15361469984054565,
                        0.11584875732660294,
                        0.01457915734499693,
                        -0.20487481355667114,
                        -0.05639038607478142,
                        0.18607266247272491,
                        0.025200465694069862,
                        0.02409161441028118,
                        -0.002947618719190359,
                        0.14665263891220093,
                        -0.029754851013422012,
                        -0.08408549427986145,
                        -0.02925722301006317,
                        -0.08552804589271545,
                        0.11426472663879395,
                        0.20364849269390106,
                        0.03063265047967434,
                        0.04580026492476463,
                        -0.10792843252420425
                    ],
                    [
                        -0.12098748981952667,
                        0.04761379584670067,
                        -0.02388335019350052,
                        -0.011023391038179398,
                        -0.027447547763586044,
                        -0.29697373509407043,
                        -0.0456039234995842,
                        0.19103747606277466,
                        0.14335472881793976,
                        -0.10443386435508728,
                        -0.02649712562561035,
                        -0.1273059844970703,
                        -0.04089845344424248,
                        -0.03305061161518097,
                        0.12858079373836517,
                        0.07063746452331543,
                        0.056597355753183365,
                        0.03121999278664589,
                        0.11660890281200409,
                        0.06159969046711922,
                        -0.003768614027649164,
                        -0.09252726286649704,
                        -0.03274589404463768,
                        0.12323373556137085,
                        -0.18056589365005493,
                        0.18028903007507324,
                        0.08559902012348175,
                        -0.023250291123986244,
                        -0.2997696101665497,
                        -0.1645570546388626,
                        -0.17196610569953918,
                        0.06022035703063011,
                        -0.010300782509148121,
                        0.038206394761800766,
                        0.004008383955806494,
                        -0.017829529941082,
                        -0.022619135677814484,
                        0.024363724514842033,
                        0.07529190927743912,
                        -0.030004892498254776,
                        -0.03011121042072773,
                        -0.021635597571730614,
                        0.18029657006263733,
                        -0.0036446296144276857,
                        -0.3452272117137909,
                        -0.08742295205593109,
                        0.07345426827669144,
                        -0.08406984806060791,
                        0.0478706881403923,
                        0.011651311069726944,
                        0.038448967039585114,
                        -0.024029750376939774,
                        -0.06129874661564827,
                        -0.01924790069460869,
                        -0.1988755762577057,
                        0.027127552777528763,
                        -0.03613550215959549,
                        0.01530175656080246,
                        0.04489640146493912,
                        -0.10312573611736298,
                        -0.055652718991041183,
                        -0.0609087310731411,
                        0.05264676362276077,
                        -0.013455159962177277
                    ],
                    [
                        -0.044331662356853485,
                        -0.03301030024886131,
                        0.052970122545957565,
                        0.004860274028033018,
                        -0.1227579116821289,
                        -0.23594973981380463,
                        -0.13427229225635529,
                        0.17383897304534912,
                        0.12776505947113037,
                        -0.06957951933145523,
                        -0.10619570314884186,
                        -0.16194356977939606,
                        0.029305368661880493,
                        0.07661736756563187,
                        0.1625414490699768,
                        0.032176673412323,
                        0.06822069734334946,
                        -0.09032904356718063,
                        0.00599365821108222,
                        0.03796163201332092,
                        0.016033781692385674,
                        -0.028325242921710014,
                        0.01799708791077137,
                        0.09569329768419266,
                        -0.11228879541158676,
                        0.2026098072528839,
                        -0.01496204361319542,
                        0.06991901993751526,
                        -0.21169836819171906,
                        -0.11581111699342728,
                        -0.2537081241607666,
                        0.05901474878191948,
                        -0.021450359374284744,
                        -0.06428221613168716,
                        -0.07763505727052689,
                        -0.10056896507740021,
                        -0.03837112709879875,
                        -0.09926379472017288,
                        0.01577685959637165,
                        0.0708770677447319,
                        0.032769825309515,
                        -0.034002941101789474,
                        0.015464628115296364,
                        -0.08232973515987396,
                        -0.31288209557533264,
                        -0.341919869184494,
                        -0.05110523849725723,
                        -0.043524932116270065,
                        -0.0474567711353302,
                        0.07681894302368164,
                        -0.44271746277809143,
                        0.029534004628658295,
                        0.019271012395620346,
                        -0.05945087596774101,
                        -0.10621794313192368,
                        0.0016591085586696863,
                        -0.06317973881959915,
                        0.032247141003608704,
                        -0.03955003619194031,
                        0.02670176886022091,
                        0.06114671379327774,
                        0.00971798412501812,
                        -0.022538114339113235,
                        0.006730973720550537
                    ],
                    [
                        -0.17696842551231384,
                        -0.08742798864841461,
                        -0.030730558559298515,
                        0.03328781947493553,
                        -0.02665860578417778,
                        -0.4618607461452484,
                        -0.10098937898874283,
                        0.11986450850963593,
                        0.18623492121696472,
                        -0.12140045315027237,
                        0.009264403954148293,
                        -0.19052425026893616,
                        -0.005548643879592419,
                        -0.025381185114383698,
                        0.17208828032016754,
                        -0.03917187452316284,
                        0.20007199048995972,
                        0.008159825578331947,
                        0.10257276147603989,
                        -0.012163231149315834,
                        0.014583048410713673,
                        -0.06234552711248398,
                        -0.2124469131231308,
                        0.1951254904270172,
                        -0.05280982330441475,
                        0.20101015269756317,
                        0.012965596280992031,
                        -0.036521174013614655,
                        -0.4766724109649658,
                        -0.09197397530078888,
                        -0.42078927159309387,
                        0.0030557040590792894,
                        -0.025798780843615532,
                        -0.01829763688147068,
                        -0.018178477883338928,
                        -0.19760340452194214,
                        0.05166391283273697,
                        -0.027669349685311317,
                        0.15677383542060852,
                        -0.03653992712497711,
                        0.08198144286870956,
                        -0.005632156506180763,
                        0.08582299202680588,
                        -0.12024097144603729,
                        -0.5450488924980164,
                        -0.25926661491394043,
                        -0.13832397758960724,
                        -0.0529373474419117,
                        -0.01642761565744877,
                        0.07165075838565826,
                        -0.3427039384841919,
                        -0.007041275501251221,
                        0.028759479522705078,
                        -0.044067028909921646,
                        -0.33594027161598206,
                        -0.03590812906622887,
                        -0.006197317969053984,
                        0.07934211194515228,
                        0.006314299535006285,
                        -0.1449141502380371,
                        -0.12696491181850433,
                        0.05735599622130394,
                        -0.03238248825073242,
                        -0.010742705315351486
                    ],
                    [
                        0.17094536125659943,
                        -0.17452505230903625,
                        -0.005460706073790789,
                        -0.03767670318484306,
                        -0.002437370363622904,
                        0.1147252693772316,
                        0.1582506000995636,
                        -0.06340884417295456,
                        -0.1256791204214096,
                        0.17301097512245178,
                        0.011144502088427544,
                        0.05919981375336647,
                        -0.056759562343358994,
                        0.0473034493625164,
                        -0.011281163431704044,
                        -0.1450098305940628,
                        -0.18157275021076202,
                        0.04046915844082832,
                        -0.03270891681313515,
                        -0.045763421803712845,
                        0.029440050944685936,
                        0.20545323193073273,
                        0.130431666970253,
                        -0.05902976542711258,
                        0.20671038329601288,
                        -0.06367051601409912,
                        -0.24645787477493286,
                        -0.03780045732855797,
                        0.08332176506519318,
                        0.15291358530521393,
                        -0.014250163920223713,
                        0.1120060458779335,
                        -0.19444294273853302,
                        -0.007547447923570871,
                        -0.15446579456329346,
                        0.30547359585762024,
                        -0.008647038601338863,
                        -0.24356454610824585,
                        -0.10550717264413834,
                        -0.08956381678581238,
                        0.02899623103439808,
                        -0.05189225822687149,
                        0.008359216153621674,
                        -0.03249286860227585,
                        -0.03984346240758896,
                        0.14218801259994507,
                        -0.04673321172595024,
                        0.01740359514951706,
                        -0.36830568313598633,
                        -0.0033827293664216995,
                        0.2767767906188965,
                        0.04041637107729912,
                        -0.06329872459173203,
                        -0.0780906081199646,
                        0.05968503654003143,
                        0.04232865944504738,
                        -0.1512652337551117,
                        -0.10859335958957672,
                        -0.022825567051768303,
                        0.2451341152191162,
                        0.28554239869117737,
                        -0.021535160019993782,
                        -0.06300053745508194,
                        -0.156785786151886
                    ],
                    [
                        0.009367653168737888,
                        -0.09723498672246933,
                        0.05656592175364494,
                        0.0944584310054779,
                        -0.03714191913604736,
                        -0.045992061495780945,
                        0.08346579968929291,
                        -0.23788133263587952,
                        -0.19408069550991058,
                        0.05136528238654137,
                        -0.07394048571586609,
                        -0.06563615053892136,
                        0.01947132498025894,
                        -0.04774912819266319,
                        -0.36466023325920105,
                        -0.05651077628135681,
                        -0.341107577085495,
                        -0.03640330955386162,
                        0.04437252879142761,
                        0.11409603804349899,
                        0.023352501913905144,
                        -0.11761817336082458,
                        -0.04003874585032463,
                        -0.1595742106437683,
                        -0.07152912765741348,
                        -0.3495897948741913,
                        -0.11920386552810669,
                        0.027588684111833572,
                        -0.11520200222730637,
                        0.16245846450328827,
                        0.23771370947360992,
                        -0.03320600837469101,
                        -0.08683843165636063,
                        -0.05783769488334656,
                        -0.006179473828524351,
                        -0.10509764403104782,
                        -0.020388903096318245,
                        -0.11610379070043564,
                        -0.18611416220664978,
                        -0.3149634301662445,
                        0.08074714243412018,
                        0.01758248545229435,
                        0.6719000935554504,
                        -0.004712707828730345,
                        -0.04707987233996391,
                        0.036236025393009186,
                        0.014055470936000347,
                        -0.04423197731375694,
                        -0.20984695851802826,
                        0.010743637569248676,
                        0.037615492939949036,
                        -0.01760255917906761,
                        -0.016108548268675804,
                        -0.011692652478814125,
                        -0.014226701110601425,
                        -0.0017465268028900027,
                        -0.11668188869953156,
                        -0.09668998420238495,
                        -0.0778367891907692,
                        0.15151430666446686,
                        0.03034992702305317,
                        0.038256194442510605,
                        0.10809765756130219,
                        -0.07136163115501404
                    ],
                    [
                        0.0652618557214737,
                        0.027991563081741333,
                        -0.09326688945293427,
                        -0.06339181214570999,
                        -0.04244960471987724,
                        0.006259528454393148,
                        0.09448044747114182,
                        0.06946390122175217,
                        -0.055644478648900986,
                        0.01706293597817421,
                        -0.11380264908075333,
                        -0.06827370077371597,
                        -0.07055529952049255,
                        -0.11708187311887741,
                        -0.04419184848666191,
                        -0.008781633339822292,
                        0.012011419050395489,
                        0.03564196079969406,
                        0.06045744568109512,
                        -0.0733712837100029,
                        -0.025976240634918213,
                        0.01746216230094433,
                        -0.028918413445353508,
                        0.03463512286543846,
                        0.07223691791296005,
                        -0.03394022211432457,
                        -0.036268796771764755,
                        -0.050459183752536774,
                        -0.07001479715108871,
                        0.016125909984111786,
                        0.10038506239652634,
                        0.023695608600974083,
                        -0.0016259134281426668,
                        0.02836240828037262,
                        -0.01794653944671154,
                        -0.05881640315055847,
                        -0.011218755505979061,
                        0.008564995601773262,
                        -0.037024252116680145,
                        -0.0009510114905424416,
                        0.0656624585390091,
                        -0.012806541286408901,
                        -0.037160854786634445,
                        0.027645766735076904,
                        -0.005754220299422741,
                        0.0076273344457149506,
                        -0.02799120917916298,
                        -0.02355223335325718,
                        -0.06771876662969589,
                        0.03901232033967972,
                        0.0454222746193409,
                        0.021310074254870415,
                        0.08784172683954239,
                        -0.06611672788858414,
                        0.03211689740419388,
                        -0.10255523771047592,
                        -0.05398252606391907,
                        -0.07609249651432037,
                        -0.014522457495331764,
                        -0.012347581796348095,
                        -0.004245252814143896,
                        -0.0836101695895195,
                        -0.06195364519953728,
                        0.015070462599396706
                    ],
                    [
                        -0.6876871585845947,
                        -0.03539087250828743,
                        0.09577921777963638,
                        -0.019459949806332588,
                        1.0205276012420654,
                        -1.3677650690078735,
                        -0.5772415399551392,
                        0.03977687656879425,
                        0.004337613005191088,
                        -0.7002840638160706,
                        0.0066879624500870705,
                        -0.41047412157058716,
                        0.003018894698470831,
                        -0.004854625090956688,
                        -0.017246946692466736,
                        0.04430174455046654,
                        -0.02105376496911049,
                        -0.017412036657333374,
                        0.00594621105119586,
                        -0.06177373230457306,
                        -0.019280651584267616,
                        -0.6313307881355286,
                        -0.42030978202819824,
                        -0.010917549021542072,
                        -0.6096045970916748,
                        0.05824163556098938,
                        -0.03732076659798622,
                        -0.06885077059268951,
                        -0.9679899215698242,
                        -0.438451886177063,
                        -0.1314851939678192,
