{
    "in_shape": [
        null,
        9716,
        1
    ],
    "layers": [
        {
            "type": "lstm",
            "activation": "tanh",
            "shape": [
                null,
                9716,
                84
            ],
            "weights": [
                [
                    [
                        0.17983070015907288,
                        0.009015150368213654,
                        0.23078499734401703,
                        0.04985395818948746,
                        0.25169357657432556,
                        -0.08911986649036407,
                        0.08511148393154144,
                        0.16748763620853424,
                        0.048561424016952515,
                        0.12784551084041595,
                        -0.11929619312286377,
                        -0.0048204995691776276,
                        0.3375357687473297,
                        0.09495607018470764,
                        0.09915820509195328,
                        -0.0030476117972284555,
                        -0.17035804688930511,
                        -0.0418589748442173,
                        0.14045366644859314,
                        0.1426467001438141,
                        0.02005797065794468,
                        -0.12897810339927673,
                        -0.043291397392749786,
                        0.029379822313785553,
                        -0.08809541910886765,
                        -0.07375915348529816,
                        -0.020889561623334885,
                        -0.016040215268731117,
                        0.1576719880104065,
                        0.0691949874162674,
                        -0.11050491780042648,
                        0.2356981635093689,
                        -0.06680083274841309,
                        -0.11401190608739853,
                        -0.004727703519165516,
                        -0.07341834157705307,
                        0.23683644831180573,
                        0.18911868333816528,
                        0.02229863591492176,
                        -0.3388192355632782,
                        -0.05591432377696037,
                        -0.1348128765821457,
                        0.11290210485458374,
                        -0.11675803363323212,
                        -0.07528822124004364,
                        -0.07975690811872482,
                        -0.08289492875337601,
                        0.3327195346355438,
                        -0.10905629396438599,
                        0.32878386974334717,
                        -0.13760893046855927,
                        0.28516680002212524,
                        -0.016124090179800987,
                        -0.05909542366862297,
                        0.07410065829753876,
                        -0.06244264915585518,
                        0.029955456033349037,
                        -0.08767854422330856,
                        0.08138937503099442,
                        -0.03143768757581711,
                        -0.10584962368011475,
                        0.12675650417804718,
                        -0.2096979320049286,
                        0.10918740183115005,
                        0.14688418805599213,
                        -0.23381970822811127,
                        0.09504459798336029,
                        0.045266833156347275,
                        -0.17789104580879211,
                        0.017349572852253914,
                        0.04698312282562256,
                        7.544328400399536e-05,
                        0.05542904883623123,
                        -0.04024120420217514,
                        0.08482591062784195,
                        0.2581307590007782,
                        0.20205385982990265,
                        0.1867048144340515,
                        0.05301961675286293,
                        -0.022250493988394737,
                        0.17869390547275543,
                        -0.018772626295685768,
                        0.04139038920402527,
                        0.05008917674422264,
                        0.044301073998212814,
                        0.054525379091501236,
                        0.20366188883781433,
                        0.20692504942417145,
                        0.2280711680650711,
                        -0.0681973248720169,
                        0.20076265931129456,
                        0.13663823902606964,
                        0.031160734593868256,
                        -0.05519358441233635,
                        -0.12413901835680008,
                        -0.17493638396263123,
                        0.2670978009700775,
                        0.08002018183469772,
                        0.06438829004764557,
                        0.06105605140328407,
                        -0.3409404158592224,
                        0.006034585647284985,
                        -0.02559880167245865,
                        -0.012490847148001194,
                        0.17678521573543549,
                        -0.19218574464321136,
                        -0.013256949372589588,
                        -0.04536966234445572,
                        0.06865926086902618,
                        0.08093177527189255,
                        -0.04202866181731224,
                        0.00774736050516367,
                        -0.0019485062221065164,
                        -0.04455570876598358,
                        0.03731586039066315,
                        0.10130637139081955,
                        0.11339446157217026,
                        -0.223331019282341,
                        -0.04859540984034538,
                        -0.09178309142589569,
                        0.16115210950374603,
                        0.02217170223593712,
                        -0.03826409578323364,
                        -0.37252718210220337,
                        0.11082194745540619,
                        -0.024513745680451393,
                        -0.04292161390185356,
                        -0.017393330112099648,
                        -0.07048177719116211,
                        0.16533680260181427,
                        -0.031053097918629646,
                        0.17687436938285828,
                        0.13224025070667267,
                        0.2266850620508194,
                        -0.00807130429893732,
                        0.0916297659277916,
                        0.012656946666538715,
                        0.07231487333774567,
                        0.11975540965795517,
                        -0.07021992653608322,
                        0.1338575780391693,
                        -0.10011347383260727,
                        0.16165532171726227,
                        0.1522175371646881,
                        -0.0817144513130188,
                        -0.11383508145809174,
                        -0.1141473725438118,
                        0.1435244083404541,
                        0.07618383318185806,
                        -0.39870449900627136,
                        0.19900168478488922,
                        0.09229167550802231,
                        0.023054156452417374,
                        -0.06747229397296906,
                        0.06861139088869095,
                        -0.09442519396543503,
                        0.06212436407804489,
                        -0.08377248048782349,
                        0.12613384425640106,
                        0.11486966907978058,
                        0.03738493472337723,
                        0.20273737609386444,
                        -0.05023309588432312,
                        -0.010584209114313126,
                        0.01363170426338911,
                        0.1115560382604599,
                        0.06077584996819496,
                        0.1415303647518158,
                        0.08777773380279541,
                        0.10645370185375214,
                        0.09045159071683884,
                        0.08732490241527557,
                        0.0061173588037490845,
                        0.012981696985661983,
                        0.06929278373718262,
                        -0.02327282354235649,
                        0.150453120470047,
                        0.1914488524198532,
                        -0.052168190479278564,
                        -0.10977549105882645,
                        -0.21987396478652954,
                        -0.12289110571146011,
                        0.018637824803590775,
                        -0.0012944358168169856,
                        -0.16475582122802734,
                        -0.167022243142128,
                        -0.09970192611217499,
                        -0.3009513318538666,
                        -0.22505712509155273,
                        -0.03977281600236893,
                        -0.06907124072313309,
                        -0.09815569967031479,
                        -0.11440452933311462,
                        -0.1497536301612854,
                        -0.011465012095868587,
                        0.09691040962934494,
                        -0.11378395557403564,
                        -0.06718862056732178,
                        -0.02853306382894516,
                        0.08737025409936905,
                        -0.1548827886581421,
                        0.08401373028755188,
                        0.04602731764316559,
                        -0.05750329792499542,
                        -0.0599907822906971,
                        -0.1468140333890915,
                        0.06565206497907639,
                        0.10881473124027252,
                        -0.05175597965717316,
                        -0.062344763427972794,
                        0.10046809166669846,
                        0.06202762573957443,
                        -0.06551942229270935,
                        0.31027358770370483,
                        0.015682535246014595,
                        0.024774162098765373,
                        -0.1582040637731552,
                        0.35953906178474426,
                        -0.07061871886253357,
                        0.2943110167980194,
                        -0.09566494077444077,
                        0.05887075513601303,
                        0.02863636426627636,
                        0.007285912521183491,
                        0.15535542368888855,
                        -0.13684237003326416,
                        0.09737060964107513,
                        0.13467417657375336,
                        0.09008500725030899,
                        0.08348293602466583,
                        -0.05423443764448166,
                        0.21468235552310944,
                        0.12737680971622467,
                        0.09150057286024094,
                        0.2711172103881836,
                        0.05894226208329201,
                        -0.08639872074127197,
                        -0.02492889016866684,
                        0.045363325625658035,
                        0.022977173328399658,
                        0.14764149487018585,
                        -0.07149389386177063,
                        -0.07006180286407471,
                        0.19588808715343475,
                        0.16354815661907196,
                        -0.16920793056488037,
                        -0.00445283018052578,
                        0.15521079301834106,
                        0.20641562342643738,
                        0.1379632204771042,
                        0.045258041471242905,
                        0.06643787771463394,
                        0.0649636909365654,
                        -0.023837223649024963,
                        0.05484519526362419,
                        0.04524179548025131,
                        0.34909433126449585,
                        -0.07053085416555405,
                        0.1611156314611435,
                        0.1221214085817337,
                        0.17803263664245605,
                        0.051475685089826584,
                        -0.3582228422164917,
                        0.062285445630550385,
                        0.1453675776720047,
                        0.0143392663449049,
                        0.12439705431461334,
                        -0.18231593072414398,
                        -0.158755362033844,
                        0.2648806869983673,
                        -0.09556576609611511,
                        -0.13338543474674225,
                        0.07461938261985779,
                        -0.028163321316242218,
                        -0.2515375018119812,
                        0.05875306949019432,
                        0.004246850032359362,
                        0.045666832476854324,
                        0.14992855489253998,
                        -0.021586300805211067,
                        0.012761890888214111,
                        -0.059434205293655396,
                        0.09407033026218414,
                        0.12888190150260925,
                        -0.12339805066585541,
                        -0.23608335852622986,
                        -0.07292407751083374,
                        0.1563725471496582,
                        0.1410101056098938,
                        0.17322342097759247,
                        -0.021571943536400795,
                        -0.25068238377571106,
                        0.027993544936180115,
                        -0.0693398118019104,
                        0.05318668484687805,
                        -0.07635250687599182,
                        -0.13063158094882965,
                        0.04577722027897835,
                        0.0025493083521723747,
                        0.39281418919563293,
                        -0.007745408918708563,
                        0.17504017055034637,
                        -0.05721583589911461,
                        0.36824294924736023,
                        -0.021927282214164734,
                        -0.01870856061577797,
                        0.20122107863426208,
                        -0.0934995785355568,
                        0.037299130111932755,
                        0.07884826511144638,
                        -0.02470044419169426,
                        0.06915206462144852,
                        -0.13071420788764954,
                        0.07708503305912018,
                        -0.016484182327985764,
                        0.06527801603078842,
                        0.0807507112622261,
                        -0.3147581219673157,
                        -0.014485436491668224,
                        0.18347281217575073,
                        -0.09239170700311661,
                        -0.09647560119628906,
                        -0.039653465151786804,
                        -0.0919252559542656,
                        0.05948357284069061,
                        -0.21025002002716064,
                        0.1443551629781723,
                        0.06503624469041824,
                        0.08572966605424881,
                        0.05193202197551727,
                        0.06735584884881973,
                        0.19549381732940674,
                        0.14528405666351318,
                        -0.16107867658138275,
                        -0.03675251454114914,
                        0.008255322463810444
                    ]
                ],
                [
                    [
                        0.018179140985012054,
                        0.10137572139501572,
                        0.06296303868293762,
                        -0.07706175744533539,
                        0.13201327621936798,
                        0.1249069795012474,
                        -0.11979828029870987,
                        0.02072962000966072,
                        -0.08076591789722443,
                        0.02645900845527649,
                        0.0304486695677042,
                        0.05016912892460823,
                        0.12279902398586273,
                        0.0625932440161705,
                        0.050063155591487885,
                        -0.00839283037930727,
                        -0.028309311717748642,
                        0.033846933394670486,
                        -0.011667109094560146,
                        0.1458541303873062,
                        0.017937442287802696,
                        -0.06910201162099838,
                        0.041222572326660156,
                        0.02561729960143566,
                        0.023995593190193176,
                        0.0067206015810370445,
                        -0.008534708991646767,
                        -0.006781233940273523,
                        0.10760313272476196,
                        -0.08921463787555695,
                        -0.049227308481931686,
                        0.012866312637925148,
                        0.03352350369095802,
                        -0.11280712485313416,
                        0.11685683578252792,
                        0.08676769584417343,
                        0.008313714526593685,
                        0.027025409042835236,
                        0.08348774909973145,
                        0.12971149384975433,
                        0.08138947933912277,
                        -0.05116263031959534,
                        0.007764936424791813,
                        0.07876293361186981,
                        0.028556620702147484,
                        -0.05371137335896492,
                        -0.003224448999390006,
                        0.13478818535804749,
                        -0.038864802569150925,
                        0.0066051543690264225,
                        -0.07151597738265991,
                        -0.059986863285303116,
                        -0.047469813376665115,
                        -0.09875122457742691,
                        -0.01590540073812008,
                        -0.08625449985265732,
                        0.06252354383468628,
                        0.05537897348403931,
                        0.03147142007946968,
                        -0.002944527193903923,
                        0.02509496919810772,
                        -0.08387907594442368,
                        -0.06277233362197876,
                        0.11411887407302856,
                        0.02870291657745838,
                        0.0719551369547844,
                        0.10920044779777527,
                        -0.00560977216809988,
                        -0.024959979578852654,
                        0.016046922653913498,
                        0.001319209230132401,
                        0.07369614392518997,
                        0.03482959419488907,
                        0.02612745575606823,
                        -0.03320534899830818,
                        0.003518094774335623,
                        -0.04259297251701355,
                        -0.0008071883930824697,
                        -0.04086511582136154,
                        0.07715975493192673,
                        0.048806991428136826,
                        0.06491663306951523,
                        0.04134560003876686,
                        -0.022551897913217545,
                        -0.05693573132157326,
                        0.02938232384622097,
                        0.09241548180580139,
                        -0.025392035022377968,
                        -0.11026542633771896,
                        0.014705775305628777,
                        0.03183624893426895,
                        -0.028180787339806557,
                        0.010862276889383793,
                        -0.030598247423768044,
                        0.12044277042150497,
                        -0.061466626822948456,
                        0.10192648321390152,
                        0.008335577324032784,
                        0.03636913374066353,
                        -0.13547725975513458,
                        0.04050959646701813,
                        -0.1056327223777771,
                        0.013161959126591682,
                        -0.1205986887216568,
                        0.13383716344833374,
                        0.07267661392688751,
                        0.030043812468647957,
                        0.01230169553309679,
                        0.019480910152196884,
                        -0.051861733198165894,
                        0.06695791333913803,
                        -0.020040838047862053,
                        0.05854315683245659,
                        0.060364190489053726,
                        -0.0019640533719211817,
                        0.053238168358802795,
                        0.033973027020692825,
                        0.05564034730195999,
                        0.045880574733018875,
                        0.041452184319496155,
                        0.018094174563884735,
                        0.08124524354934692,
                        0.07076850533485413,
                        0.07344366610050201,
                        0.16385413706302643,
                        0.014425410889089108,
                        -0.05950294807553291,
                        0.06669799238443375,
                        0.011840464547276497,
                        0.06479310989379883,
                        -0.010965178720653057,
                        0.007885732688009739,
                        -0.045447222888469696,
                        -0.032311342656612396,
                        0.0321875736117363,
                        0.05470607429742813,
                        0.018680837005376816,
                        -0.002425144659355283,
                        0.024419082328677177,
                        -0.06222664937376976,
                        -0.002248731441795826,
                        -0.07579752802848816,
                        -0.026088761165738106,
                        -0.03649376332759857,
                        -0.0021493379026651382,
                        -0.03962450101971626,
                        -0.0843280479311943,
                        0.04176194965839386,
                        -0.05720148980617523,
                        -0.020851116627454758,
                        0.15071846544742584,
                        0.06834960728883743,
                        -0.0018186004599556327,
                        0.06994765996932983,
                        -0.06060232222080231,
                        -0.10659865289926529,
                        -0.05943213403224945,
                        -0.017737871035933495,
                        0.006434672046452761,
                        0.10118269920349121,
                        0.0018090454395860434,
                        0.10269820690155029,
                        -0.02209259569644928,
                        0.029325995594263077,
                        -0.04608045145869255,
                        0.05749683082103729,
                        -0.11246256530284882,
                        -0.0009121458861045539,
                        0.0758088231086731,
                        -0.054321542382240295,
                        0.006016233935952187,
                        -0.008321692235767841,
                        -0.005303458776324987,
                        0.07770724594593048,
                        0.03666938096284866,
                        -0.0007659865077584982,
                        -0.00351101066917181,
                        -0.08745798468589783,
                        0.07306111603975296,
                        0.033600129187107086,
                        -0.017211459577083588,
                        0.03296152502298355,
                        0.007741983514279127,
                        -0.10271905362606049,
                        0.0257579255849123,
                        -0.015606153756380081,
                        -0.0955396220088005,
                        -0.0036116265691816807,
                        0.010515335015952587,
                        0.10001450031995773,
                        0.066459521651268,
                        0.007664031349122524,
                        0.029559673741459846,
                        0.025999993085861206,
                        0.015928534790873528,
                        0.03147865831851959,
                        0.09830132871866226,
                        0.05632579326629639,
                        0.01549143809825182,
                        0.0008129190537147224,
                        0.08021316677331924,
                        0.039090245962142944,
                        0.0100382836535573,
                        -0.14564618468284607,
                        0.05841408297419548,
                        -0.0680849477648735,
                        -0.00739985192194581,
                        0.01980489492416382,
                        -0.0073228394612669945,
                        0.03589105233550072,
                        -0.057179708033800125,
                        0.10584861785173416,
                        -0.0047485302202403545,
                        -0.0008443782571703196,
                        0.11818381398916245,
                        0.05637769773602486,
                        -0.05010131001472473,
                        0.11159215867519379,
                        0.02735826000571251,
                        -0.026874275878071785,
                        0.02885923907160759,
                        -0.016203437000513077,
                        0.021463608369231224,
                        0.04370072856545448,
                        0.01585965044796467,
                        -0.032791730016469955,
                        -0.03923195227980614,
                        0.016711561009287834,
                        -0.04279989004135132,
                        -0.0035816961899399757,
                        0.022881511598825455,
                        -0.012320463545620441,
                        0.042126234620809555,
                        0.05708307772874832,
                        0.06638734042644501,
                        0.004930988419800997,
                        -0.003053243737667799,
                        -0.02180376462638378,
                        0.004977043252438307,
                        -0.031354181468486786,
                        0.034987110644578934,
                        -0.02275877259671688,
                        -0.11653795093297958,
                        0.038630224764347076,
                        0.06621682643890381,
                        0.006283955182880163,
                        -0.02885560877621174,
                        0.025499340146780014,
                        0.05830221250653267,
                        0.02455740049481392,
                        -1.528279244666919e-05,
                        0.06426168233156204,
                        0.026373807340860367,
                        0.08084725588560104,
                        0.05940612405538559,
                        -0.08147511631250381,
                        0.14100678265094757,
                        0.03843660280108452,
                        0.1439194679260254,
                        0.1225508376955986,
                        0.056788332760334015,
                        -0.0009246589033864439,
                        0.03419819846749306,
                        0.10433551669120789,
                        -0.010480154305696487,
                        0.08366445451974869,
                        0.025250237435102463,
                        -0.0012244860408827662,
                        -0.10359330475330353,
                        0.021666022017598152,
                        -0.007456263992935419,
                        -0.012301778420805931,
                        0.05825936794281006,
                        0.02980152517557144,
                        0.11503865569829941,
                        -0.05502663552761078,
                        -0.02816097065806389,
                        0.0084805553779006,
                        -0.04102134332060814,
                        0.046769462525844574,
                        -0.0052864402532577515,
                        -0.06816540658473969,
                        -0.03595687448978424,
                        -0.042459387332201004,
                        0.060980211943387985,
                        -0.00767399650067091,
                        0.01035091932862997,
                        0.12049729377031326,
                        0.03762473911046982,
                        0.022020801901817322,
                        0.04756926745176315,
                        0.020282432436943054,
                        0.0025892716366797686,
                        0.06119837984442711,
                        0.04825059324502945,
                        -0.11049842834472656,
                        0.10368908196687698,
                        0.049833785742521286,
                        -0.013590753078460693,
                        0.018642470240592957,
                        -0.06025446951389313,
                        0.08972548693418503,
                        -0.05325143784284592,
                        0.04198851436376572,
                        0.10008341073989868,
                        -0.03497055545449257,
                        0.020550113171339035,
                        -0.060326531529426575,
                        0.030756818130612373,
                        0.014943731017410755,
                        -0.10671670734882355,
                        0.011925196275115013,
                        0.05697482079267502,
                        -0.05237226188182831,
                        -0.030165070667862892,
                        -0.013275193981826305,
                        0.13240519165992737,
                        0.002187779638916254,
                        0.12091118842363358,
                        0.0652824118733406,
                        0.12079336494207382,
                        -0.026565400883555412,
                        -0.05642390996217728,
                        -0.052882030606269836,
                        -0.01670832373201847,
                        0.05247986689209938,
                        -0.028706906363368034,
                        0.04741393402218819,
                        0.03364744409918785,
                        -0.0003762184642255306,
                        -0.031199021264910698,
                        -0.05505859851837158,
                        0.06156006082892418,
                        0.13035130500793457,
                        -0.01148955151438713,
                        0.007538897916674614
                    ],
                    [
                        -0.012287196703255177,
                        -0.09165264666080475,
                        0.020723795518279076,
                        0.12451713532209396,
                        0.004669186193495989,
                        0.14837028086185455,
                        -0.01150988508015871,
                        0.003937664441764355,
                        0.045560482889413834,
                        -0.03494243323802948,
                        -0.025407660752534866,
                        0.09777694195508957,
                        0.02064819261431694,
                        0.008686887100338936,
                        -0.09454818814992905,
                        0.1449729949235916,
                        -0.03026488795876503,
                        -0.05704124644398689,
                        -0.06996488571166992,
                        0.15430882573127747,
                        -0.023654533550143242,
                        -0.011201574467122555,
                        -0.048348356038331985,
                        0.008574861101806164,
                        0.0729256421327591,
                        0.034673772752285004,
                        -0.011062360368669033,
                        -0.06880006194114685,
                        0.04494196176528931,
                        -0.01060484629124403,
                        -0.009073343127965927,
                        -0.10840334743261337,
                        0.0008915949729271233,
                        -0.0482930950820446,
                        -0.04031774774193764,
                        -0.005027828272432089,
                        0.027225110679864883,
                        -0.004936175420880318,
                        0.0019662545528262854,
                        -0.004997517913579941,
                        0.00984163023531437,
                        -0.035142023116350174,
                        -0.060141485184431076,
                        0.0734405666589737,
                        0.09160729497671127,
                        -0.0402526929974556,
                        0.07295431941747665,
                        -0.020442957058548927,
                        -0.016125282272696495,
                        -0.05090933293104172,
                        -0.005205526947975159,
                        0.11461327970027924,
                        0.04251234978437424,
                        -0.0288690198212862,
                        -0.0744573175907135,
                        -0.08526809513568878,
                        0.006022822577506304,
                        -0.0003766483860090375,
                        0.05829445645213127,
                        -0.024445679038763046,
                        0.03228234499692917,
                        0.05385817959904671,
                        0.09363404661417007,
                        -0.02411678060889244,
                        -0.056399714201688766,
                        0.20240435004234314,
                        0.12940584123134613,
                        -0.023001156747341156,
                        0.05277269706130028,
                        0.03979629650712013,
                        0.00022566539701074362,
                        -0.05462685227394104,
                        0.057218294590711594,
                        -0.04114491119980812,
                        -0.043983083218336105,
                        -0.033756718039512634,
                        -0.006063979119062424,
                        -0.0014698919840157032,
                        0.057240262627601624,
                        -0.07593891024589539,
                        -0.07258294522762299,
                        0.00936616025865078,
                        0.031480882316827774,
                        0.11705771833658218,
                        -0.029694024473428726,
                        0.09523694962263107,
                        -0.02219211868941784,
                        0.035863544791936874,
                        -0.07709711045026779,
                        0.05348638445138931,
                        -0.04719400033354759,
                        0.05802726000547409,
                        -0.027398090809583664,
                        -0.039325863122940063,
                        -0.0236540324985981,
                        0.04155025631189346,
                        -0.09895332157611847,
                        -0.027650505304336548,
                        0.019203076139092445,
                        0.035574931651353836,
                        0.007857264019548893,
                        0.06850375980138779,
                        0.006557086948305368,
                        0.013148488476872444,
                        -0.008734718896448612,
                        0.003991757519543171,
                        -0.0044365511275827885,
                        0.048203591257333755,
                        -0.012553250417113304,
                        0.013107896782457829,
                        -0.002232074039056897,
                        -0.04373764991760254,
                        -0.1065293401479721,
                        -0.019266126677393913,
                        0.015271611511707306,
                        0.03767160698771477,
                        -0.1314539760351181,
                        -0.07648792117834091,
                        -0.14414694905281067,
                        0.05736861377954483,
                        0.0019998187199234962,
                        -0.04804309085011482,
                        -0.03035675920546055,
                        0.03860125690698624,
                        0.028165282681584358,
                        0.022432710975408554,
                        -0.09469720721244812,
                        0.05594383925199509,
                        -0.0029042677488178015,
                        0.0459548681974411,
                        -0.011738804168999195,
                        -0.08700885623693466,
                        0.0877670869231224,
                        -0.03969539701938629,
                        0.0012958502629771829,
                        -0.01732037588953972,
                        0.003149236785247922,
                        0.03015611320734024,
                        -0.058413825929164886,
                        0.09465260803699493,
                        -0.019045541062951088,
                        -0.04891253262758255,
                        0.0008112262585200369,
                        -0.09266426414251328,
                        0.04959971830248833,
                        0.040865056216716766,
                        -0.002289039548486471,
                        0.05545307695865631,
                        0.015627870336174965,
                        0.11215947568416595,
                        -0.008355891332030296,
                        -0.07628162205219269,
                        0.033707886934280396,
                        0.057292476296424866,
                        0.04654932767152786,
                        -0.07882480323314667,
                        0.019939841702580452,
                        -0.0671575739979744,
                        0.013150850310921669,
                        -0.033802688121795654,
                        0.02687540464103222,
                        -0.08170235902070999,
                        0.056786827743053436,
                        -0.0775451511144638,
                        -0.2203822284936905,
                        0.022909415885806084,
                        0.06374770402908325,
                        0.04694356024265289,
                        0.1361781507730484,
                        0.026314282789826393,
                        0.06320634484291077,
                        -0.04779617860913277,
                        0.04690928757190704,
                        -0.00035611120983958244,
                        -0.1075579896569252,
                        -0.04279200732707977,
                        -0.05087418481707573,
                        0.021659336984157562,
                        0.009710953570902348,
                        0.12549374997615814,
                        -0.03244660794734955,
                        -0.046555642038583755,
                        0.025446008890867233,
                        -0.029475973919034004,
                        0.05718384310603142,
                        -0.06408873200416565,
                        -0.0896860659122467,
                        -0.06649269163608551,
                        -0.06094679236412048,
                        -0.01324402540922165,
                        0.02422432228922844,
                        0.05254587158560753,
                        -0.055543508380651474,
                        -0.01529464591294527,
                        -0.12719722092151642,
                        0.043991122394800186,
                        0.02271391451358795,
                        0.04748396947979927,
                        0.011527350172400475,
                        0.022899307310581207,
                        0.017085645347833633,
                        0.02006218582391739,
                        -0.00818041991442442,
                        0.015653282403945923,
                        0.0005417497595772147,
                        0.06096554920077324,
                        0.06207050755620003,
                        -0.02965705841779709,
                        0.0033338761422783136,
                        -0.04935226961970329,
                        0.011355429887771606,
                        0.12138696014881134,
                        -0.1452159881591797,
                        0.002688181819394231,
                        -0.04702601209282875,
                        -0.04721265658736229,
                        -0.07745203375816345,
                        -0.009817691519856453,
                        0.0231134295463562,
                        -0.06001396104693413,
                        -0.03001238964498043,
                        0.09941758960485458,
                        0.029921572655439377,
                        -0.1321161836385727,
                        -0.03369801118969917,
                        -0.02816850319504738,
                        -0.002619205741211772,
                        0.036342643201351166,
                        -0.009989517740905285,
                        0.005747242830693722,
                        0.03869501128792763,
                        0.12410778552293777,
                        0.005864677485078573,
                        -0.049089401960372925,
                        0.04501218721270561,
                        -0.05590977892279625,
                        0.025545964017510414,
                        -0.08913270384073257,
                        0.05561494454741478,
                        -0.0083179185166955,
                        -0.01931651681661606,
                        0.020987022668123245,
                        -0.030960213392972946,
                        -0.10640302300453186,
                        0.07272320240736008,
                        -0.008870283141732216,
                        0.06117946282029152,
                        0.03072931617498398,
                        0.023523814976215363,
                        0.015571916475892067,
                        0.06272586435079575,
                        0.00638141855597496,
                        -0.028930403292179108,
                        -0.06909869611263275,
                        0.028246769681572914,
                        -0.05029071122407913,
                        -0.006152283865958452,
                        -0.049184393137693405,
                        -0.025640282779932022,
                        0.19764870405197144,
                        -0.015898913145065308,
                        -0.16011348366737366,
                        0.07722817361354828,
                        -0.08576461672782898,
                        0.003226988250389695,
                        -0.050919074565172195,
                        -0.022646358236670494,
                        0.29052427411079407,
                        -0.04829932376742363,
                        0.00413532555103302,
                        0.009826334193348885,
                        0.06660731136798859,
                        -0.01543661579489708,
                        0.04691492021083832,
                        -0.04528677836060524,
                        -0.07114236801862717,
                        0.009850711561739445,
                        -0.005268700420856476,
                        -0.008180949836969376,
                        -0.002834416227415204,
                        -0.11321134865283966,
                        0.025494098663330078,
                        0.017833713442087173,
                        0.06498979032039642,
                        -0.06953611969947815,
                        0.061668287962675095,
                        -0.025722604244947433,
                        0.06946838647127151,
                        0.000981931108981371,
                        0.012108786962926388,
                        -0.003954945597797632,
                        0.10126697272062302,
                        -0.045094747096300125,
                        -0.09351502358913422,
                        -0.0172580573707819,
                        0.017212999984622,
                        0.02128480188548565,
                        0.014393762685358524,
                        0.03454151004552841,
                        -0.003920678980648518,
                        -0.08927155286073685,
                        0.006851188372820616,
                        -0.003328339196741581,
                        -0.05050398409366608,
                        0.016009384766221046,
                        0.02422497607767582,
                        -0.08258287608623505,
                        -0.04429934173822403,
                        -0.041632749140262604,
                        0.042278725653886795,
                        -0.06419583410024643,
                        0.049245819449424744,
                        0.009093734435737133,
                        0.06110234931111336,
                        -0.026418911293148994,
                        -0.03669537976384163,
                        -0.04022476449608803,
                        0.290144681930542,
                        -0.048822373151779175,
                        0.007518067955970764,
                        0.07974755764007568,
                        0.003641344839707017,
                        -0.06074116751551628,
                        0.03362075984477997,
                        -0.02210712432861328,
                        0.0487164631485939,
                        -0.0017971590859815478,
                        0.0037730673793703318,
                        -0.014560757204890251,
                        -0.05286766588687897,
                        -0.0475795678794384,
                        -0.047328121960163116,
                        0.09838589280843735,
                        0.05947178974747658,
                        -0.030881840735673904,
                        -0.09943833202123642
                    ],
                    [
                        0.02941412292420864,
                        0.05550692230463028,
                        -0.0027236323803663254,
                        0.010726210661232471,
                        0.03160136193037033,
                        0.010305476374924183,
                        0.0023844349198043346,
                        0.015004619024693966,
                        0.034666988998651505,
                        0.13260868191719055,
                        -0.061906442046165466,
                        -0.014251924119889736,
                        0.07624426484107971,
                        -0.018796490505337715,
                        0.028631260618567467,
                        0.17394940555095673,
                        0.008578925393521786,
                        0.10477234423160553,
                        0.019168050959706306,
                        -0.0019005343783646822,
                        0.08951874822378159,
                        -0.015286779031157494,
                        -0.018903421238064766,
                        0.07787571102380753,
                        -0.015439110808074474,
                        -0.026118367910385132,
                        -0.003461109474301338,
                        0.02838042378425598,
                        0.009097832255065441,
                        0.06641498953104019,
                        0.058946751058101654,
                        0.0554790124297142,
                        -0.01930045709013939,
                        -0.0030367320869117975,
                        0.037753649055957794,
                        -0.013530990108847618,
                        -0.03625824674963951,
                        0.06136482208967209,
                        -0.1462348848581314,
                        -0.16222521662712097,
                        0.09754226356744766,
                        -0.024436170235276222,
                        -0.04554181545972824,
                        0.026125257834792137,
                        -0.028423774987459183,
                        0.10199317336082458,
                        0.050260819494724274,
                        -0.09967959672212601,
                        0.11829676479101181,
                        0.023037323728203773,
                        -0.05109985172748566,
                        0.09044766426086426,
                        0.009198317304253578,
                        0.014770928770303726,
                        0.11252027750015259,
                        0.03810557350516319,
                        0.010152081027626991,
                        -0.0750856101512909,
                        0.15549497306346893,
                        0.05574033781886101,
                        0.017576564103364944,
                        -0.0885428935289383,
                        0.11852815747261047,
                        0.10730487108230591,
                        0.024754662066698074,
                        0.07035534083843231,
                        -0.004076779820024967,
                        -0.0822456032037735,
                        -0.029376067221164703,
                        -0.02475978247821331,
                        -0.08606185019016266,
                        0.008680875413119793,
                        0.024374449625611305,
                        -0.0692010447382927,
                        0.07002774626016617,
                        0.05499110370874405,
                        -0.015718864277005196,
                        0.04638812318444252,
                        -0.09335384517908096,
                        0.12781499326229095,
                        0.09947288781404495,
                        0.04916749149560928,
                        -0.014386008493602276,
                        0.1708662360906601,
                        0.05762350931763649,
                        -0.012256652116775513,
                        -0.10914096236228943,
                        0.1614193618297577,
                        0.06705449521541595,
                        -0.056367017328739166,
                        0.04402092471718788,
                        -0.02205229550600052,
                        -0.0519649013876915,
                        0.2104245126247406,
                        -0.08363637328147888,
                        -0.005683728028088808,
                        -0.055585186928510666,
                        -0.015242661349475384,
                        0.042705364525318146,
                        0.1541648805141449,
                        -0.03412829339504242,
                        0.077385812997818,
                        0.13572579622268677,
                        0.08692751079797745,
                        0.05198775604367256,
                        -0.026522252708673477,
                        -0.10116194933652878,
                        -0.0034480514004826546,
                        0.036146678030490875,
                        0.06775587052106857,
                        0.01029707957059145,
                        0.047556545585393906,
                        -0.008646879345178604,
                        0.08901327103376389,
                        -0.03744596987962723,
                        0.09052345156669617,
                        -0.03664718568325043,
                        -0.036235664039850235,
                        0.044582296162843704,
                        0.02684233896434307,
                        -0.052809346467256546,
                        0.002162661636248231,
                        0.02529269829392433,
                        0.02810337394475937,
                        -0.0018388439202681184,
                        0.05054491013288498,
                        0.07091150432825089,
                        -0.021957818418741226,
                        -0.02180584892630577,
                        0.03205836936831474,
                        0.019673630595207214,
                        -0.0008103897562250495,
                        0.020411070436239243,
                        -0.10423772037029266,
                        0.1466788649559021,
                        0.03203842416405678,
                        0.06694277375936508,
                        0.058489661663770676,
                        0.09064050018787384,
                        -0.0012178766774013638,
                        0.016628652811050415,
                        -0.03797033429145813,
                        0.02626774273812771,
                        0.026814596727490425,
                        0.045218903571367264,
                        -0.06127138435840607,
                        -0.03127269446849823,
                        -0.06230469048023224,
                        0.05127077177166939,
                        -0.04749907925724983,
                        -0.07079863548278809,
                        0.0032517602667212486,
                        0.05427830293774605,
                        -0.04066045582294464,
                        -0.07393248379230499,
                        -0.016375506296753883,
                        -0.03927714750170708,
                        0.03769152611494064,
                        0.0490378737449646,
                        -0.04009249061346054,
                        -0.04232858121395111,
                        0.022957632318139076,
                        -0.031343698501586914,
                        0.1439901739358902,
                        0.07658807188272476,
                        0.0995977446436882,
                        0.03992431238293648,
                        0.17430706322193146,
                        0.005395371466875076,
                        -0.042469389736652374,
                        0.04401048645377159,
                        -7.525779074057937e-05,
                        -0.09954383969306946,
                        0.04220174252986908,
                        0.046905092895030975,
                        -0.08846114575862885,
                        -0.053437866270542145,
                        0.15096329152584076,
                        -0.03728437423706055,
                        0.09165497869253159,
                        -0.10409515351057053,
                        -0.07104958593845367,
                        -0.06973026692867279,
                        -0.11313529312610626,
                        0.05693955719470978,
                        -0.06391441822052002,
                        0.002630963223055005,
                        0.10912680625915527,
                        -0.02050897479057312,
                        -0.030927199870347977,
                        0.05908150598406792,
                        0.1077713817358017,
                        -0.09662685543298721,
                        0.04315152019262314,
                        0.04467103257775307,
                        0.03669077903032303,
                        -0.0008995370008051395,
                        -0.02801538072526455,
                        0.03803468495607376,
                        0.05512746050953865,
                        -0.07000774145126343,
                        0.02620367892086506,
                        0.002604600740596652,
                        -0.027769088745117188,
                        -0.007657880894839764,
                        -0.08528006076812744,
                        0.04045458137989044,
                        0.06179806590080261,
                        0.040906935930252075,
                        0.013187890872359276,
                        -0.00016448029782623053,
                        -0.035279951989650726,
                        -0.07236886024475098,
                        0.013472039252519608,
                        -0.052897773683071136,
                        -0.09504428505897522,
                        0.05365539342164993,
                        -0.022270428016781807,
                        -0.11056883633136749,
                        -0.003748119343072176,
                        0.032177045941352844,
                        0.035523317754268646,
                        -0.004854016005992889,
                        -0.0669378936290741,
                        0.12190371006727219,
                        0.060860250145196915,
                        0.08731000870466232,
                        0.06934477388858795,
                        -0.08278065919876099,
                        -0.024718325585126877,
                        -0.0014856167836114764,
                        0.09643863141536713,
                        0.05132445693016052,
                        0.18689502775669098,
                        -0.015022668056190014,
                        0.025888394564390182,
                        -0.006597884465008974,
                        0.01018955186009407,
                        -0.012138222344219685,
                        0.055952608585357666,
                        0.021002568304538727,
                        0.11014015227556229,
                        -0.048892080783843994,
                        -0.011580056510865688,
                        0.0773959681391716,
                        -0.061780884861946106,
                        0.011260241270065308,
                        -0.02596326731145382,
                        0.06541295349597931,
                        -0.013749790377914906,
                        -0.038284409791231155,
                        0.16437877714633942,
                        -0.02489117905497551,
                        -0.0440027080476284,
                        -0.050599224865436554,
                        0.11331168562173843,
                        -0.059208910912275314,
                        0.019752396270632744,
                        -0.0984550341963768,
                        0.024657834321260452,
                        0.16245533525943756,
                        0.24257028102874756,
                        -0.1401587277650833,
                        0.01651177741587162,
                        0.1563723087310791,
                        -0.06010173633694649,
                        -0.11026185005903244,
                        0.2213556468486786,
                        -0.0419076532125473,
                        0.1491842120885849,
                        -0.03982945531606674,
                        0.20011411607265472,
                        0.1176837608218193,
                        0.04996027052402496,
                        -0.032843273133039474,
                        0.08895137161016464,
                        0.04723517969250679,
                        0.018493419513106346,
                        -0.032052114605903625,
                        0.134264275431633,
                        -0.10946826636791229,
                        -0.021377641707658768,
                        0.048282504081726074,
                        -0.009224391542375088,
                        0.09268732368946075,
                        0.05829319730401039,
                        0.04118335619568825,
                        0.034471869468688965,
                        -0.018078314140439034,
                        0.0736522376537323,
                        -0.049339406192302704,
                        0.0992523655295372,
                        0.0088911522179842,
                        0.022004444152116776,
                        -0.013859663158655167,
                        -0.02072199434041977,
                        0.014251045882701874,
                        0.2037471979856491,
                        0.026179620996117592,
                        -0.1743791252374649,
                        0.0852600634098053,
                        0.02912592887878418,
                        0.08589216321706772,
                        0.028271276503801346,
                        -0.005649190861731768,
                        -0.009291820228099823,
                        0.04593920335173607,
                        0.08352083712816238,
                        -0.02054346352815628,
                        -0.00018314807675778866,
                        0.08135902881622314,
                        0.018332602456212044,
                        0.10654779523611069,
                        -0.10914231836795807,
                        0.08474810421466827,
                        0.12834681570529938,
                        0.09830699115991592,
                        -0.004503097850829363,
                        0.10819177329540253,
                        0.03636161610484123,
                        0.0811016783118248,
                        0.05022221803665161,
                        -0.040404245257377625,
                        0.11845160275697708,
                        -0.005282661411911249,
                        0.003154088743031025,
                        0.014832396991550922,
                        0.05838684365153313,
                        0.06511162221431732,
                        -0.07351628690958023,
                        0.038884833455085754,
                        0.11036892235279083,
                        0.14694800972938538,
                        -0.0817340686917305,
                        -0.0522058866918087,
                        0.2506359815597534
                    ],
                    [
                        -0.00020021059026475996,
                        0.036938268691301346,
                        -0.03041650354862213,
                        0.11378743499517441,
                        0.1414477527141571,
                        0.01785084418952465,
                        -0.0014233286492526531,
                        -0.007621431723237038,
                        -0.01487621758133173,
                        -0.08723842352628708,
                        -0.03247853368520737,
                        0.05873839929699898,
                        0.15068311989307404,
                        0.021183030679821968,
                        0.05899583175778389,
                        0.12176911532878876,
                        -0.05952535569667816,
                        0.038206037133932114,
                        -0.06499069184064865,
                        0.031218023970723152,
                        -0.02736838534474373,
                        -0.06453733146190643,
                        -0.058454837650060654,
                        0.09308110177516937,
                        -0.08124393224716187,
                        -0.10084047168493271,
                        -0.014020731672644615,
                        0.05648086592555046,
                        0.030587440356612206,
                        -0.050256554037332535,
                        0.09609798341989517,
                        -0.043534889817237854,
                        0.009182999841868877,
                        -0.044201355427503586,
                        0.07282940298318863,
                        0.09802427887916565,
                        0.02042977698147297,
                        -0.018535928800702095,
                        -0.04576839134097099,
                        0.1381174623966217,
                        0.011413981206715107,
                        0.022298697382211685,
                        -0.034298304468393326,
                        -0.002152416156604886,
                        -0.03822235018014908,
                        -0.08940616250038147,
                        0.038270339369773865,
                        0.07638826966285706,
                        0.073342464864254,
                        0.15100722014904022,
                        -0.003575496608391404,
                        -0.015547768212854862,
                        0.0860150083899498,
                        -0.05273188278079033,
                        0.012819317169487476,
                        -0.06197238340973854,
                        0.10647032409906387,
                        0.05690992251038551,
                        0.13406522572040558,
                        0.06489994376897812,
                        -0.07224179804325104,
                        -0.05077553167939186,
                        0.03923515975475311,
                        0.03572690486907959,
                        -0.03494315594434738,
                        0.007545962929725647,
                        0.1616462916135788,
                        0.014341216534376144,
                        0.08221875876188278,
                        -0.08043885231018066,
                        -0.013176982291042805,
                        0.06372050195932388,
                        -0.045636799186468124,
                        -0.03560911864042282,
                        -0.03382544592022896,
                        0.11406424641609192,
                        -0.07584132999181747,
                        0.06554483622312546,
                        0.0768510028719902,
                        -0.07571961730718613,
                        0.04731297492980957,
                        0.040805790573358536,
                        -0.08773905783891678,
                        -0.011485961265861988,
                        0.01165711134672165,
                        0.007931034080684185,
                        -0.03568340465426445,
                        0.051026761531829834,
                        0.036086343228816986,
                        0.002997595351189375,
                        -0.10117298364639282,
                        0.03222936391830444,
                        -0.02893858030438423,
                        -0.0896146222949028,
                        0.043600212782621384,
                        0.03890042379498482,
                        0.0787578821182251,
                        -0.038876984268426895,
                        0.018775030970573425,
                        -0.10099313408136368,
                        -0.03584412485361099,
                        -0.10097747296094894,
                        0.004879349377006292,
                        -0.049351755529642105,
                        -0.03221921622753143,
                        0.07079347968101501,
                        -0.07409460097551346,
                        0.024017633870244026,
                        0.0081219132989645,
                        0.08113086223602295,
                        0.014228107407689095,
                        0.05532822385430336,
                        0.01641288958489895,
                        0.02296409197151661,
                        -0.07106494903564453,
                        -0.03567571938037872,
                        -0.0724572166800499,
                        -0.013173563405871391,
                        0.12484894692897797,
                        -0.05007203668355942,
                        -0.06990441679954529,
                        0.0683525949716568,
                        -0.051931317895650864,
                        0.1059076339006424,
                        0.057939428836107254,
                        -0.019816383719444275,
                        0.0525907501578331,
                        -0.078390933573246,
                        -0.05573499575257301,
                        0.05879093334078789,
                        -0.1475994884967804,
                        0.07975102961063385,
                        -0.016038447618484497,
                        0.10847335308790207,
                        0.0088007478043437,
                        -0.05108999088406563,
                        -0.10315727442502975,
                        0.042948316782712936,
                        0.05544090270996094,
                        -0.04210251569747925,
                        0.05463220551609993,
                        0.08447842299938202,
                        0.004605538211762905,
                        0.022351033985614777,
                        0.04391328990459442,
                        0.0033031839411705732,
                        0.08567725121974945,
                        -0.030920496210455894,
                        0.00023931276518851519,
                        -0.003337117377668619,
                        -0.011025432497262955,
                        -0.050521835684776306,
                        -0.04861454293131828,
                        0.0005978071130812168,
                        0.028692329302430153,
                        -0.00955395307391882,
                        0.06833354383707047,
                        -0.05882909521460533,
                        -0.13078859448432922,
                        0.05266987159848213,
                        0.019139645621180534,
                        -0.05279358848929405,
                        0.009962819516658783,
                        0.0030123968608677387,
                        -0.13619568943977356,
                        0.08862970024347305,
                        -0.04125266522169113,
                        -0.1027628630399704,
                        -0.03286917507648468,
                        -0.06055174395442009,
                        0.039387013763189316,
                        0.0007203798741102219,
                        0.05460136756300926,
                        -0.025827957317233086,
                        0.042186301201581955,
                        0.03680004924535751,
                        0.03763581067323685,
                        0.05236826092004776,
                        -0.04868530482053757,
                        -0.018637042492628098,
                        -0.0034338152036070824,
                        -0.12583881616592407,
                        -0.0385868139564991,
                        -0.009682223200798035,
                        0.012151263654232025,
                        -0.06834263354539871,
                        0.07201189547777176,
                        0.00453873910009861,
                        -0.08581206947565079,
                        -0.02351818047463894,
                        -0.0084468899294734,
                        0.02199673280119896,
                        0.0640747919678688,
                        -0.09199729561805725,
                        -0.012929685413837433,
                        0.02403932623565197,
                        0.021625101566314697,
                        -0.0427936390042305,
                        -0.012602332048118114,
                        0.040429092943668365,
                        0.07132507115602493,
                        0.038932640105485916,
                        -0.08433288335800171,
                        0.04201078787446022,
                        0.03186821937561035,
                        -0.005259371362626553,
                        6.638476043008268e-05,
                        -0.01158861629664898,
                        0.028730981051921844,
                        -0.10342718660831451,
                        -0.010527903214097023,
                        0.005659082438796759,
                        -0.04634140059351921,
                        -0.015738369897007942,
                        0.04216327145695686,
                        0.04401332512497902,
                        0.018699586391448975,
                        -0.01609417237341404,
                        -0.04388703033328056,
                        -0.0352812260389328,
                        0.03360309451818466,
                        0.02592770755290985,
                        0.056740228086709976,
                        -0.05276142805814743,
                        -0.07590934634208679,
                        -0.07329685986042023,
                        0.05951622128486633,
                        0.014555065892636776,
                        -0.029350902885198593,
                        -0.018270958214998245,
                        -0.028068525716662407,
                        -0.02927488461136818,
                        -0.03210840001702309,
                        -0.015489119105041027,
                        0.008638128638267517,
                        0.045963432639837265,
                        0.11296065896749496,
                        0.03824076056480408,
                        -0.025715168565511703,
                        -0.03744297847151756,
                        -0.09112057089805603,
                        -0.04241631552577019,
                        0.04460751265287399,
                        0.1224912479519844,
                        -0.00013447270612232387,
                        0.027157051488757133,
                        0.006232985761016607,
                        -0.044846102595329285,
                        0.06078033521771431,
                        0.11469003558158875,
                        0.0109828170388937,
                        0.022242898121476173,
                        0.05889100208878517,
                        0.008842305280268192,
                        0.04863586649298668,
                        0.009064044803380966,
                        0.2477329969406128,
                        -0.06528205424547195,
                        0.03869808092713356,
                        0.08714418113231659,
                        -0.08940295875072479,
                        -0.021947642788290977,
                        0.00813408475369215,
                        0.007709066849201918,
                        0.04411333054304123,
                        0.06233876943588257,
                        -0.04254322499036789,
                        -0.004546340089291334,
                        -0.005665780510753393,
                        -0.05868423730134964,
                        -0.007947178557515144,
                        0.030820272862911224,
                        -0.10859233140945435,
                        -0.08371058851480484,
                        0.007072589825838804,
                        0.05364806950092316,
                        0.008330171927809715,
                        0.01915592886507511,
                        -0.018338419497013092,
                        -0.00678390683606267,
                        0.06886083632707596,
                        0.07998131960630417,
                        -0.015019615180790424,
                        0.024254079908132553,
                        0.1008182093501091,
                        -0.07214467972517014,
                        0.015145357698202133,
                        0.06256099790334702,
                        -0.05912281572818756,
                        0.005573935341089964,
                        -0.014252053573727608,
                        0.07025698572397232,
                        0.05758502334356308,
                        -0.04798445478081703,
                        0.04934253916144371,
                        0.10650695115327835,
                        -0.01774214208126068,
                        0.017311690375208855,
                        -0.07074976712465286,
                        0.08900116384029388,
                        0.001454684417694807,
                        0.1732027679681778,
                        0.022123606875538826,
                        -0.022777801379561424,
                        0.018815811723470688,
                        -0.09523876756429672,
                        -0.006215543486177921,
                        -0.0383610837161541,
                        0.06763056665658951,
                        -0.02309464104473591,
                        -0.01764090359210968,
                        0.0021169641986489296,
                        -0.01958124153316021,
                        -0.07599031925201416,
                        0.014432570897042751,
                        0.03753083944320679,
                        0.044746994972229004,
                        0.05862268805503845,
                        0.07009999454021454,
                        0.045030463486909866,
                        0.01817742921411991,
                        -0.03994329273700714,
                        0.009013134054839611,
                        -0.07346241921186447,
                        -0.04704052209854126,
                        0.015399384312331676,
                        0.0215929988771677,
                        -0.007121197413653135,
                        -0.03737567737698555,
                        -0.06030863896012306,
                        -0.028364509344100952,
                        0.01036334689706564,
                        -0.03423319384455681,
                        0.08317643404006958,
                        0.040167953819036484,
                        -0.14891992509365082
                    ],
                    [
                        0.02170392870903015,
                        0.02335174009203911,
                        0.10833224654197693,
                        -0.050666406750679016,
                        -0.0202337596565485,
                        0.0718262642621994,
                        0.07921624928712845,
                        0.04746285080909729,
                        -0.034579429775476456,
                        0.010930042713880539,
                        -0.01698813959956169,
                        0.00448701111599803,
                        0.10048818588256836,
                        0.09306323528289795,
                        0.10725218057632446,
                        -0.24406251311302185,
                        -0.00431928550824523,
                        -0.15666362643241882,
                        0.001950897858478129,
                        -0.14274363219738007,
                        0.01603267341852188,
                        0.02505895495414734,
                        -0.013537443242967129,
                        -0.002960965735837817,
                        0.0279633030295372,
                        -0.11052869260311127,
                        0.02235417254269123,
                        -0.003832477144896984,
                        -0.013506675139069557,
                        0.07698869705200195,
                        0.05516489967703819,
                        0.044902198016643524,
                        -0.007394297979772091,
                        -0.02645445242524147,
                        0.05756691098213196,
                        0.08139275759458542,
                        -0.019678184762597084,
                        -0.07038242369890213,
                        -0.0009055308764800429,
                        0.1308717578649521,
                        0.14240269362926483,
                        0.0452904999256134,
                        0.1416458785533905,
                        0.02812766656279564,
                        0.06756936758756638,
                        -0.07345544546842575,
                        -0.01850813813507557,
                        0.3424884080886841,
                        -0.12353561818599701,
                        0.11025117337703705,
                        0.07525594532489777,
                        -0.06318370997905731,
                        -0.016298901289701462,
                        0.02391422539949417,
                        -0.03777623176574707,
                        0.10616196691989899,
                        0.037288084626197815,
                        -0.09499690681695938,
                        -0.22241751849651337,
                        0.05958028882741928,
                        -0.004396186210215092,
                        -0.02291138470172882,
                        0.027795910835266113,
                        -0.07400285452604294,
                        -0.1488819122314453,
                        -0.22242049872875214,
                        -0.014339844696223736,
                        0.0766458809375763,
                        -0.14470335841178894,
                        0.03696133568882942,
                        0.08296691626310349,
                        -0.12631936371326447,
                        -0.03959864005446434,
                        0.03828645497560501,
                        -0.03694387525320053,
                        0.038060251623392105,
                        -0.04906662553548813,
                        -0.0748048722743988,
                        0.02097761631011963,
                        -0.13896697759628296,
                        -0.2489088475704193,
                        0.1467898041009903,
                        0.01678997091948986,
                        -0.05803811922669411,
                        0.021459709852933884,
                        0.06018447130918503,
                        0.13268589973449707,
                        -0.026120418682694435,
                        -0.04058830067515373,
                        0.016453389078378677,
                        0.11875941604375839,
                        0.022648904472589493,
                        -0.0350102074444294,
                        -0.18468496203422546,
                        0.06219886243343353,
                        0.014671660959720612,
                        -0.00640821922570467,
                        0.006709901615977287,
                        -0.01588808372616768,
                        -0.17753717303276062,
                        0.07120189815759659,
                        -0.11225546896457672,
                        0.05047357454895973,
                        -0.07765746116638184,
                        -0.02678811550140381,
                        -0.02912328578531742,
                        -0.03788376227021217,
                        -0.05334865301847458,
                        0.016449978575110435,
                        0.021564790979027748,
                        0.07161791622638702,
                        -0.06047600880265236,
                        -0.0033872765488922596,
                        -0.097169429063797,
                        0.04311295598745346,
                        0.08631542325019836,
                        0.13999831676483154,
                        -0.05434567853808403,
                        0.028421200811862946,
                        0.020130177959799767,
                        0.08808582276105881,
                        0.06403980404138565,
                        0.032989561557769775,
                        -0.08657334744930267,
                        0.09131240844726562,
                        -0.028008006513118744,
                        0.06669284403324127,
                        -0.005156544037163258,
                        -0.025114279240369797,
                        -0.07344084233045578,
                        0.057937007397413254,
                        0.2733756899833679,
                        -0.10486746579408646,
                        0.0412336029112339,
                        0.05253763869404793,
                        -0.002919214777648449,
                        -0.054462432861328125,
                        0.13108883798122406,
                        -0.06271963566541672,
                        0.042341940104961395,
                        0.11806988716125488,
                        -0.0036353846080601215,
                        -0.1333739459514618,
                        -0.02487107366323471,
                        -0.03217577561736107,
                        0.1303519606590271,
                        0.08581242710351944,
                        -0.11366991698741913,
                        -0.10783649981021881,
                        -0.12833856046199799,
                        0.06224624067544937,
                        0.10681931674480438,
                        -0.1448739618062973,
                        -0.07704205065965652,
                        0.0016252439236268401,
                        0.04025384411215782,
                        -0.06968076527118683,
                        0.05673368647694588,
                        -0.11679071187973022,
                        0.015602171421051025,
                        -0.003002663841471076,
                        -0.014966977760195732,
                        0.0791226327419281,
                        -0.11973792314529419,
                        -0.24762128293514252,
                        0.11161305755376816,
                        0.0307634137570858,
                        -0.19054970145225525,
                        0.017379917204380035,
                        0.005420339293777943,
                        0.07179567217826843,
                        0.009545275941491127,
                        -0.03194219619035721,
                        -0.02909971959888935,
                        0.06351810693740845,
                        0.06015799939632416,
                        0.06879224628210068,
                        -0.03906251862645149,
                        0.014950523152947426,
                        -0.11488541215658188,
                        -0.08643652498722076,
                        0.10089841485023499,
                        -0.0677538737654686,
                        0.09363040328025818,
                        -0.13235250115394592,
                        0.015491076745092869,
                        -0.12700192630290985,
                        -0.06891339272260666,
                        0.03502123802900314,
                        -0.00427446560934186,
                        -0.03362784907221794,
                        -0.03992085158824921,
                        0.05950681492686272,
                        0.09226883947849274,
                        -0.06607664376497269,
                        0.10026345402002335,
                        0.005101573187857866,
                        -0.04349500685930252,
                        0.030482709407806396,
                        0.053541239351034164,
                        0.08837367594242096,
                        -0.009067174047231674,
                        -0.12265956401824951,
                        0.019227728247642517,
                        -0.02629467286169529,
                        -0.11813001334667206,
                        0.059127677232027054,
                        0.04812070354819298,
                        0.06394247710704803,
                        0.020535705611109734,
                        -0.18204380571842194,
                        -0.015780415385961533,
                        0.029190396890044212,
                        -0.04711306095123291,
                        0.014748755842447281,
                        0.17030897736549377,
                        0.0835251435637474,
                        0.020108383148908615,
                        0.03176840394735336,
                        -0.05361887067556381,
                        -0.0006720126839354634,
                        0.03747580572962761,
                        -0.03452111780643463,
                        -0.03519121930003166,
                        0.030138274654746056,
                        -0.006930535193532705,
                        0.010861136950552464,
                        -0.06955917179584503,
                        0.02741086110472679,
                        0.03151628002524376,
                        -0.04675229638814926,
                        -0.04678806662559509,
                        -0.10194230079650879,
                        0.06587281078100204,
                        -0.04341001436114311,
                        -0.08476456999778748,
                        -0.041166823357343674,
                        -0.10271159559488297,
                        0.014272579923272133,
                        0.06329061090946198,
                        0.020505830645561218,
                        -0.029129447415471077,
                        0.17748165130615234,
                        0.048779021948575974,
                        0.03982838988304138,
                        -0.036353882402181625,
                        0.059736207127571106,
                        -0.016645677387714386,
                        -0.031459320336580276,
                        -0.0861268863081932,
                        -0.05316229909658432,
                        -0.1331774741411209,
                        0.014650980941951275,
                        -0.02736091800034046,
                        0.11319293081760406,
                        -0.07828313857316971,
                        0.020973050966858864,
                        0.057191334664821625,
                        0.0978841558098793,
                        -0.035517074167728424,
                        0.009703727439045906,
                        -0.24195782840251923,
                        0.008577338419854641,
                        -0.013310851529240608,
                        -0.19511175155639648,
                        0.28511908650398254,
                        0.04013531655073166,
                        -0.3044489324092865,
                        -0.11424466967582703,
                        -0.0840827077627182,
                        -0.02104150503873825,
                        -0.26510852575302124,
                        -0.09386903047561646,
                        -0.08460588753223419,
                        -0.07863519340753555,
                        -0.005631402600556612,
                        -0.06205485388636589,
                        -0.13746707141399384,
                        0.04227649047970772,
                        -0.19118307530879974,
                        -0.0037554935552179813,
                        -0.0529850609600544,
                        -0.08108726888895035,
                        0.05442752316594124,
                        0.1765822172164917,
                        -0.01694263517856598,
                        0.11098621785640717,
                        0.023715568706393242,
                        -0.05185232684016228,
                        -0.007432627957314253,
                        -0.04220031946897507,
                        -0.04570425674319267,
                        0.06558455526828766,
                        -0.06438005715608597,
                        0.15265074372291565,
                        0.014885295182466507,
                        0.12349691241979599,
                        -0.08175082504749298,
                        0.05425691604614258,
                        0.29475805163383484,
                        -0.16370011866092682,
                        -0.09452208876609802,
                        -0.03179144114255905,
                        -0.04313686862587929,
                        0.003039947710931301,
                        0.09495819360017776,
                        -0.16108714044094086,
                        0.04256286099553108,
                        0.023819299414753914,
                        0.033554039895534515,
                        -0.3029636740684509,
                        -0.024630475789308548,
                        -0.049768805503845215,
                        0.06253068149089813,
                        0.06209354102611542,
                        -0.11729197204113007,
                        -0.1841106414794922,
                        -0.2935366928577423,
                        -0.08286302536725998,
                        0.06191596761345863,
                        0.09254474937915802,
                        -0.1158239021897316,
                        -0.005902769509702921,
                        -0.30024999380111694,
                        0.044386573135852814,
                        -0.05995921790599823,
                        -0.06203855201601982,
                        0.011630630120635033,
                        0.05617661401629448,
                        0.09023983776569366,
                        -0.03824164718389511,
                        -0.06704434007406235,
                        -0.22444935142993927,
                        0.08769960701465607,
                        -0.03660105541348457,
                        -0.057081349194049835
                    ],
                    [
                        -0.0031201934907585382,
                        0.08268065750598907,
                        -0.068607859313488,
                        0.015120431780815125,
                        0.017933696508407593,
                        0.01120919082313776,
                        0.024564744904637337,
                        0.08507677912712097,
                        0.030941465869545937,
                        -0.011383116245269775,
                        -0.10601267218589783,
                        -0.07735981047153473,
                        -0.11158644407987595,
                        0.05635122209787369,
                        -0.025752823799848557,
                        -0.1450803130865097,
                        0.04808345064520836,
                        0.10702440142631531,
                        -0.01893775537610054,
                        -0.14048850536346436,
                        0.04755791649222374,
                        -0.06652531772851944,
                        0.04939618706703186,
                        0.08020161837339401,
                        0.06737802922725677,
                        -0.016089918091893196,
                        -0.04946908727288246,
                        0.014134343713521957,
                        -0.013573230244219303,
                        -0.04488147795200348,
                        -0.10008399933576584,
                        0.04536708816885948,
                        -0.00930200144648552,
                        0.033468347042798996,
                        -0.0680447593331337,
                        0.0024546729400753975,
                        -0.08496290445327759,
                        -0.08770576119422913,
                        -0.10088828206062317,
                        -0.09455548971891403,
                        0.056959982961416245,
                        -0.00620369054377079,
                        0.0571843646466732,
                        0.029274797067046165,
                        0.08301317691802979,
                        0.06095248833298683,
                        -0.06500202417373657,
                        0.013993918895721436,
                        -0.04499683156609535,
                        -0.1206837072968483,
                        0.023705804720520973,
                        -0.17485730350017548,
                        0.012047280557453632,
                        -0.09077905863523483,
                        -0.09743734449148178,
                        -0.04566267132759094,
                        0.05602957680821419,
                        0.0279659703373909,
                        -0.03642601519823074,
                        -0.018183361738920212,
                        -0.041073039174079895,
                        0.004898009821772575,
                        0.0627797394990921,
                        -0.08471755683422089,
                        -0.0030053029768168926,
                        -0.12961208820343018,
                        -0.04397968947887421,
                        0.057467903941869736,
                        0.0037628787104040384,
                        0.018503714352846146,
                        -0.06343603134155273,
                        -0.030135929584503174,
                        0.0216459222137928,
                        0.026025380939245224,
                        -0.01750018075108528,
                        -0.04029193893074989,
                        -0.050099149346351624,
                        0.027424674481153488,
                        -0.12801499664783478,
                        -0.029099468141794205,
                        -0.04551468789577484,
                        0.017733076587319374,
                        0.06680935621261597,
                        0.060035403817892075,
                        0.05466297268867493,
                        0.0905560627579689,
                        0.017346255481243134,
                        0.09671208262443542,
                        0.09576906263828278,
                        -0.05685168877243996,
                        0.003927973099052906,
                        -0.015312732197344303,
                        -0.03608367219567299,
                        -0.00665542297065258,
                        0.02661171741783619,
                        -0.08231078833341599,
                        0.005487288814038038,
                        -0.079684317111969,
                        0.011478516273200512,
                        0.07173361629247665,
                        0.02220522239804268,
                        -0.1065613329410553,
                        -0.057152871042490005,
                        0.01571030728518963,
                        -0.025983115658164024,
                        -0.044879160821437836,
                        -0.06835740059614182,
                        -0.0728926733136177,
                        -0.0030100238509476185,
                        -0.006658898200839758,
                        -0.14840322732925415,
                        0.0550009049475193,
                        0.013150256127119064,
                        0.034368570894002914,
                        -0.046660903841257095,
                        0.042244862765073776,
                        -0.003079621586948633,
                        -0.007304021622985601,
                        -0.02390129491686821,
                        -0.13665546476840973,
                        -0.021707063540816307,
                        -0.03554040566086769,
                        -0.004636711440980434,
                        -0.1256544291973114,
                        0.0023428169079124928,
                        0.06519774347543716,
                        0.0418115071952343,
                        0.01494978740811348,
                        -0.06147165596485138,
                        -0.1159769669175148,
                        0.03545490652322769,
                        -0.12058112025260925,
                        -0.015282859094440937,
                        0.09522795677185059,
                        0.03603163734078407,
                        0.06220613420009613,
                        -0.016020620241761208,
                        0.02614773064851761,
                        -0.0022194827906787395,
                        -0.05473359674215317,
                        -0.11703191697597504,
                        -0.06681714951992035,
                        0.044933442026376724,
                        -0.030497664585709572,
                        -0.05603139102458954,
                        -0.04585675895214081,
                        -0.021567704156041145,
                        -0.10286931693553925,
                        0.001909809303469956,
                        -0.009359391406178474,
                        -0.08439759910106659,
                        -0.013245788402855396,
                        0.09031814336776733,
                        0.08753083646297455,
                        0.0006442492012865841,
                        0.029531627893447876,
